{"learner":{"attributes":{"best_iteration":"999","best_ntree_limit":"1000","scikit_learn":"{\"n_estimators\": 1000, \"objective\": \"reg:squarederror\", \"max_depth\": 8, \"max_leaves\": null, \"max_bin\": null, \"grow_policy\": null, \"learning_rate\": null, \"verbosity\": null, \"booster\": null, \"tree_method\": null, \"gamma\": null, \"min_child_weight\": null, \"max_delta_step\": null, \"subsample\": 0.7, \"sampling_method\": null, \"colsample_bytree\": 0.8, \"colsample_bylevel\": null, \"colsample_bynode\": null, \"reg_alpha\": null, \"reg_lambda\": null, \"scale_pos_weight\": null, \"base_score\": null, \"missing\": NaN, \"num_parallel_tree\": null, \"random_state\": null, \"n_jobs\": null, \"monotone_constraints\": null, \"interaction_constraints\": null, \"importance_type\": null, \"gpu_id\": null, \"validate_parameters\": null, \"predictor\": null, \"enable_categorical\": false, \"max_cat_to_onehot\": null, \"eval_metric\": null, \"early_stopping_rounds\": null, \"callbacks\": null, \"kwargs\": {\"eta\": 0.01}, \"_estimator_type\": \"regressor\"}"},"feature_names":["Open Date","City","City Group","Type","P1","P2","P3","P4","P5","P6","P7","P8","P9","P10","P11","P12","P13","P14","P15","P16","P17","P18","P19","P20","P21","P22","P23","P24","P25","P26","P27","P28","P29","P30","P31","P32","P33","P34","P35","P36","P37"],"feature_types":["int","int","int","int","int","float","float","float","int","int","int","int","int","int","int","int","float","int","int","int","int","int","int","int","int","int","int","int","int","float","float","float","float","int","int","int","int","int","int","int","int"],"gradient_booster":{"model":{"gbtree_model_param":{"num_parallel_tree":"1","num_trees":"1000","size_leaf_vector":"0"},"tree_info":[0,0,0,0,0,0,0,0,0,0,0,0,0,0,0,0,0,0,0,0,0,0,0,0,0,0,0,0,0,0,0,0,0,0,0,0,0,0,0,0,0,0,0,0,0,0,0,0,0,0,0,0,0,0,0,0,0,0,0,0,0,0,0,0,0,0,0,0,0,0,0,0,0,0,0,0,0,0,0,0,0,0,0,0,0,0,0,0,0,0,0,0,0,0,0,0,0,0,0,0,0,0,0,0,0,0,0,0,0,0,0,0,0,0,0,0,0,0,0,0,0,0,0,0,0,0,0,0,0,0,0,0,0,0,0,0,0,0,0,0,0,0,0,0,0,0,0,0,0,0,0,0,0,0,0,0,0,0,0,0,0,0,0,0,0,0,0,0,0,0,0,0,0,0,0,0,0,0,0,0,0,0,0,0,0,0,0,0,0,0,0,0,0,0,0,0,0,0,0,0,0,0,0,0,0,0,0,0,0,0,0,0,0,0,0,0,0,0,0,0,0,0,0,0,0,0,0,0,0,0,0,0,0,0,0,0,0,0,0,0,0,0,0,0,0,0,0,0,0,0,0,0,0,0,0,0,0,0,0,0,0,0,0,0,0,0,0,0,0,0,0,0,0,0,0,0,0,0,0,0,0,0,0,0,0,0,0,0,0,0,0,0,0,0,0,0,0,0,0,0,0,0,0,0,0,0,0,0,0,0,0,0,0,0,0,0,0,0,0,0,0,0,0,0,0,0,0,0,0,0,0,0,0,0,0,0,0,0,0,0,0,0,0,0,0,0,0,0,0,0,0,0,0,0,0,0,0,0,0,0,0,0,0,0,0,0,0,0,0,0,0,0,0,0,0,0,0,0,0,0,0,0,0,0,0,0,0,0,0,0,0,0,0,0,0,0,0,0,0,0,0,0,0,0,0,0,0,0,0,0,0,0,0,0,0,0,0,0,0,0,0,0,0,0,0,0,0,0,0,0,0,0,0,0,0,0,0,0,0,0,0,0,0,0,0,0,0,0,0,0,0,0,0,0,0,0,0,0,0,0,0,0,0,0,0,0,0,0,0,0,0,0,0,0,0,0,0,0,0,0,0,0,0,0,0,0,0,0,0,0,0,0,0,0,0,0,0,0,0,0,0,0,0,0,0,0,0,0,0,0,0,0,0,0,0,0,0,0,0,0,0,0,0,0,0,0,0,0,0,0,0,0,0,0,0,0,0,0,0,0,0,0,0,0,0,0,0,0,0,0,0,0,0,0,0,0,0,0,0,0,0,0,0,0,0,0,0,0,0,0,0,0,0,0,0,0,0,0,0,0,0,0,0,0,0,0,0,0,0,0,0,0,0,0,0,0,0,0,0,0,0,0,0,0,0,0,0,0,0,0,0,0,0,0,0,0,0,0,0,0,0,0,0,0,0,0,0,0,0,0,0,0,0,0,0,0,0,0,0,0,0,0,0,0,0,0,0,0,0,0,0,0,0,0,0,0,0,0,0,0,0,0,0,0,0,0,0,0,0,0,0,0,0,0,0,0,0,0,0,0,0,0,0,0,0,0,0,0,0,0,0,0,0,0,0,0,0,0,0,0,0,0,0,0,0,0,0,0,0,0,0,0,0,0,0,0,0,0,0,0,0,0,0,0,0,0,0,0,0,0,0,0,0,0,0,0,0,0,0,0,0,0,0,0,0,0,0,0,0,0,0,0,0,0,0,0,0,0,0,0,0,0,0,0,0,0,0,0,0,0,0,0,0,0,0,0,0,0,0,0,0,0,0,0,0,0,0,0,0,0,0,0,0,0,0,0,0,0,0,0,0,0,0,0,0,0,0,0,0,0,0,0,0,0,0,0,0,0,0,0,0,0,0,0,0,0,0,0,0,0,0,0,0,0,0,0,0,0,0,0,0,0,0,0,0,0,0,0,0,0,0,0,0,0,0,0,0,0,0,0,0,0,0,0,0,0,0,0,0,0,0,0,0,0,0,0,0,0,0,0,0,0,0,0,0,0,0,0,0,0,0,0,0,0,0,0,0,0,0,0,0,0,0,0,0,0,0,0,0,0,0,0,0,0,0,0,0,0,0,0,0,0,0,0,0,0,0,0,0,0,0,0,0,0,0,0,0,0,0,0,0,0,0,0,0,0,0,0,0,0,0,0,0,0,0,0,0,0,0,0,0,0,0,0,0,0,0,0,0,0,0,0,0,0,0,0,0,0,0,0,0,0,0,0,0,0,0,0,0,0,0,0,0,0,0,0,0,0,0,0],"trees":[{"base_weights":[4.4255585E6,2.4201258E6,4.655825E6,3.93062E6,5.0777385E6,3.9798825E6,1.02932175E6,5.3733995E6,3.3797258E6,5.727139E6,3.282789E6,3.5329158E6,9.2391275E5,6.0136805E6,3.1966365E6,5.014584E6,7.344218E6,2.6853798E6,5.5416805E6,8.99765E6,4.1911775E6,2.9924818E6,5.7493475E5,5.698769E6,1.5141332E6],"categories":[],"categories_nodes":[],"categories_segments":[],"categories_sizes":[],"default_left":[1,0,1,1,1,0,0,1,1,1,0,0,0,1,0,1,1,1,1,0,0,0,0,0,0],"id":0,"left_children":[1,-1,3,5,7,-1,-1,9,11,13,-1,-1,-1,15,-1,17,19,21,23,-1,-1,-1,-1,-1,-1],"loss_changes":[3.7681493E13,0E0,8.802804E12,1.4775359E12,9.953452E12,0E0,0E0,1.5217472E13,8.7416006E11,8.330089E12,0E0,0E0,0E0,7.039854E12,0E0,1.2128216E13,2.4849339E13,2.1682538E12,2.1268812E12,0E0,0E0,0E0,0E0,0E0,0E0],"parents":[2147483647,0,0,2,2,3,3,4,4,7,7,8,8,9,9,13,13,15,15,16,16,17,17,18,18],"right_children":[2,-1,4,6,8,-1,-1,10,12,14,-1,-1,-1,16,-1,18,20,22,24,-1,-1,-1,-1,-1,-1],"split_conditions":[1.5E0,2.4201258E4,2.75E0,7.9346564E18,4.5E0,3.9798824E4,1.0293217E4,2.5E0,6.75E0,6.754181E18,3.282789E4,3.5329156E4,9.239127E3,1.9550952E18,3.1966365E4,1.5E0,4.5E0,-1.436738E18,6.76706E17,8.99765E4,4.1911773E4,2.9924816E4,5.749347E3,5.6987688E4,1.5141332E4],"split_indices":[31,0,31,0,35,0,0,8,6,0,0,0,0,0,0,32,11,0,0,0,0,0,0,0,0],"split_type":[0,0,0,0,0,0,0,0,0,0,0,0,0,0,0,0,0,0,0,0,0,0,0,0,0],"sum_hessian":[1.05E2,1.2E1,9.3E1,3.8E1,5.5E1,3.7E1,1E0,4.5E1,1E1,3.7E1,8E0,9E0,1E0,3.2E1,5E0,2.1E1,1.1E1,5E0,1.6E1,6E0,5E0,4E0,1E0,1.5E1,1E0],"tree_param":{"num_deleted":"0","num_feature":"41","num_nodes":"25","size_leaf_vector":"0"}},{"base_weights":[4.3790665E6,3.5357182E6,5.182219E6,3.1097122E6,4.2199985E6,6.060478E6,4.0404605E6,4.364775E6,1.0241751E6,5.179078E6,9.17271E6,1.1052184E6,5.32751E6,5.5558445E6,2.1816672E6,5.696377E6,1.5833952E6],"categories":[],"categories_nodes":[],"categories_segments":[],"categories_sizes":[],"default_left":[1,1,1,0,1,1,0,0,0,1,0,0,1,1,0,0,0],"id":1,"left_children":[1,3,5,-1,7,9,-1,-1,-1,11,-1,-1,13,15,-1,-1,-1],"loss_changes":[4.53468E13,1.1609162E12,2.163979E13,0E0,2.9325902E12,1.8328773E13,0E0,0E0,0E0,6.810476E12,0E0,0E0,2.24506E12,1.02901377E12,0E0,0E0,0E0],"parents":[2147483647,0,0,1,1,2,2,4,4,5,5,9,9,12,12,13,13],"right_children":[2,4,6,-1,8,10,-1,-1,-1,12,-1,-1,14,16,-1,-1,-1],"split_conditions":[2.75E0,5E-1,4.5E0,3.1097121E4,5.896953E18,4E0,4.0404605E4,4.364775E4,1.0241751E4,3.5E0,9.17271E4,1.1052184E4,6.812904E18,2.5E0,2.1816672E4,5.696377E4,1.5833952E4],"split_indices":[31,17,26,0,0,24,0,0,0,11,0,0,0,8,0,0,0],"split_type":[0,0,0,0,0,0,0,0,0,0,0,0,0,0,0,0,0],"sum_hessian":[9.3E1,4.8E1,4.5E1,3.3E1,1.5E1,2.3E1,2.2E1,1.4E1,1E0,2E1,3E0,1E0,1.9E1,1.7E1,2E0,1.6E1,1E0],"tree_param":{"num_deleted":"0","num_feature":"41","num_nodes":"17","size_leaf_vector":"0"}},{"base_weights":[4.1491608E6,3.5124345E6,4.9448205E6,3.153181E6,4.356033E6,5.385289E6,3.3948748E6,3.3199042E6,2.1174095E6,1.6684782E6,4.888882E6,5.859636E6,2.9218642E6,3.5400288E6,8.990909E5,2.0376204E6,5.255372E6,4.910967E6,8.67212E6,1.3413765E6,5.0223775E6,2.2419535E6,9.719173E6],"categories":[],"categories_nodes":[],"categories_segments":[],"categories_sizes":[],"default_left":[1,1,1,1,1,1,1,0,0,0,1,1,0,0,0,0,0,1,1,0,0,0,0],"id":2,"left_children":[1,3,5,7,9,11,13,-1,-1,-1,15,17,-1,-1,-1,-1,-1,19,21,-1,-1,-1,-1],"loss_changes":[3.3293244E13,4.1455159E12,1.0391137E13,7.413516E11,1.3323928E13,1.9103008E13,1.164473E12,0E0,0E0,0E0,1.8310318E12,2.411443E13,0E0,0E0,0E0,0E0,0E0,1.6145722E12,1.1873706E13,0E0,0E0,0E0,0E0],"parents":[2147483647,0,0,1,1,2,2,3,3,4,4,5,5,6,6,10,10,11,11,17,17,18,18],"right_children":[2,4,6,8,10,12,14,-1,-1,-1,16,18,-1,-1,-1,-1,-1,20,22,-1,-1,-1,-1],"split_conditions":[3.5E0,1.9428218E18,7E0,2.5E0,1.5E0,6.3404525E18,3.779103E18,3.3199043E4,2.1174094E4,1.6684781E4,3.5E0,4.5E0,2.9218643E4,3.5400285E4,8.990908E3,2.0376203E4,5.255372E4,2.5E0,-2.0973789E17,1.3413765E4,5.0223773E4,2.2419535E4,9.719173E4],"split_indices":[4,0,23,25,14,0,0,0,0,0,5,14,0,0,0,0,0,6,0,0,0,0,0],"split_type":[0,0,0,0,0,0,0,0,0,0,0,0,0,0,0,0,0,0,0,0,0,0,0],"sum_hessian":[9.9E1,5.8E1,4.1E1,4.4E1,1.4E1,3E1,1.1E1,3.6E1,8E0,3E0,1.1E1,2.4E1,6E0,1E1,1E0,2E0,9E0,2E1,4E0,1E0,1.9E1,1E0,3E0],"tree_param":{"num_deleted":"0","num_feature":"41","num_nodes":"23","size_leaf_vector":"0"}},{"base_weights":[4.464245E6,3.605836E6,5.1707715E6,2.3704192E6,3.7589458E6,6.1624595E6,4.1717612E6,9.5891925E5,3.8049735E6,6.568963E6,2.4877018E6,2.8803058E6,4.913947E6,3.9636958E6,2.2449305E6,6.896566E6,2.3044892E6,5.404434E6,2.655891E6],"categories":[],"categories_nodes":[],"categories_segments":[],"categories_sizes":[],"default_left":[1,1,1,0,1,1,1,0,1,1,0,0,1,0,0,0,0,0,0],"id":3,"left_children":[1,3,5,-1,7,9,11,-1,13,15,-1,-1,17,-1,-1,-1,-1,-1,-1],"loss_changes":[4.1397445E13,1.6918145E11,2.5808458E13,0E0,1.6353759E12,1.950962E13,1.3642829E13,0E0,1.0062974E12,1.344506E13,0E0,0E0,4.4747184E12,0E0,0E0,0E0,0E0,0E0,0E0],"parents":[2147483647,0,0,1,1,2,2,4,4,5,5,6,6,8,8,9,9,12,12],"right_children":[2,4,6,-1,8,10,12,-1,14,16,-1,-1,18,-1,-1,-1,-1,-1,-1],"split_conditions":[4.75E0,1.5E0,-4.9746145E18,2.3704191E4,3.5E0,2.5E0,1.5E0,9.589192E3,2.5E0,7E0,2.4877018E4,2.8803057E4,1.05E1,3.9636957E4,2.2449305E4,6.896566E4,2.3044893E4,5.404434E4,2.655891E4],"split_indices":[5,9,3,0,15,8,20,0,25,23,0,0,21,0,0,0,0,0,0],"split_type":[0,0,0,0,0,0,0,0,0,0,0,0,0,0,0,0,0,0,0],"sum_hessian":[9.8E1,4.7E1,5.1E1,7E0,4E1,2.3E1,2.8E1,1E0,3.9E1,2E1,3E0,1.2E1,1.6E1,3.4E1,5E0,1.8E1,2E0,1.2E1,4E0],"tree_param":{"num_deleted":"0","num_feature":"41","num_nodes":"19","size_leaf_vector":"0"}},{"base_weights":[4.0594E6,3.3770702E6,4.648755E6,2.5238608E6,3.7043492E6,4.8893775E6,2.9825855E6,9.7664475E5,3.7574118E6,4.5171075E6,7.3897315E6,3.1385155E6,8.6757325E5,3.812953E6,9.9004344E5,3.2257508E6,5.162892E6,1.1150846E6,3.8640108E6,2.002153E6,5.5028945E6],"categories":[],"categories_nodes":[],"categories_segments":[],"categories_sizes":[],"default_left":[1,1,1,0,1,1,1,0,1,1,0,0,0,1,0,0,1,0,0,0,0],"id":4,"left_children":[1,3,5,-1,7,9,11,-1,13,15,-1,-1,-1,17,-1,-1,19,-1,-1,-1,-1],"loss_changes":[2.4514331E13,4.6125935E12,5.8638383E12,0E0,1.2514797E12,6.6444486E12,2.4525773E11,0E0,1.2972143E12,1.6703329E13,0E0,0E0,0E0,9.91869E10,0E0,0E0,1.5848832E13,0E0,0E0,0E0,0E0],"parents":[2147483647,0,0,1,1,2,2,4,4,5,5,6,6,8,8,9,9,13,13,16,16],"right_children":[2,4,6,-1,8,10,12,-1,14,16,-1,-1,-1,18,-1,-1,20,-1,-1,-1,-1],"split_conditions":[2.75E0,1.5E0,7E0,2.5238607E4,-8.952512E18,3.5E0,3.779103E18,9.766447E3,7.2034075E18,2.25E0,7.389731E4,3.1385154E4,8.675732E3,3E0,9.900435E3,3.2257506E4,4.5E0,1.1150846E4,3.8640105E4,2.002153E4,5.5028945E4],"split_indices":[31,23,19,0,0,17,0,0,0,32,0,0,0,11,0,0,13,0,0,0,0],"split_type":[0,0,0,0,0,0,0,0,0,0,0,0,0,0,0,0,0,0,0,0,0],"sum_hessian":[9.9E1,4.9E1,5E1,1.6E1,3.3E1,4.2E1,8E0,1E0,3.2E1,3.9E1,3E0,7E0,1E0,3.1E1,1E0,1.5E1,2.4E1,1E0,3E1,3E0,2.1E1],"tree_param":{"num_deleted":"0","num_feature":"41","num_nodes":"21","size_leaf_vector":"0"}},{"base_weights":[4.2104245E6,3.0208348E6,4.576437E6,2.2025175E6,3.394626E6,5.2159015E6,3.8132848E6,3.4978718E6,9.229685E5,4.4058425E6,6.5363705E6,3.1630905E6,4.7703285E6,4.6785472E5,4.544648E6,8.001805E6,2.8844015E6,3.2229495E6,8.632354E5,5.576719E6,2.36476E6,3.2397895E6,5.1985675E6,8.685591E6,1.607651E6,1.6068939E6,5.8720855E6,3.03348E6,5.977763E6],"categories":[],"categories_nodes":[],"categories_segments":[],"categories_sizes":[],"default_left":[1,1,1,0,1,1,1,0,0,1,1,1,1,0,1,1,0,0,0,1,0,0,1,0,0,0,0,0,0],"id":5,"left_children":[1,3,5,-1,7,9,11,-1,-1,13,15,17,19,-1,21,23,-1,-1,-1,25,-1,-1,27,-1,-1,-1,-1,-1,-1],"loss_changes":[2.8845E13,4.7615417E11,1.5734881E13,0E0,8.5458105E11,1.077916E13,7.934818E12,0E0,0E0,1.2085736E13,4.1140217E13,6.5951236E11,1.203017E13,0E0,4.4895494E12,2.101447E13,0E0,0E0,0E0,1.1171613E12,0E0,0E0,7.171958E12,0E0,0E0,0E0,0E0,0E0,0E0],"parents":[2147483647,0,0,1,1,2,2,4,4,5,5,6,6,9,9,10,10,11,11,12,12,14,14,15,15,19,19,22,22],"right_children":[2,4,6,-1,8,10,12,-1,-1,14,16,18,20,-1,22,24,-1,-1,-1,26,-1,-1,28,-1,-1,-1,-1,-1,-1],"split_conditions":[3.5E0,1.5E0,-4.9746145E18,2.2025174E4,2.5E0,3.5E0,3.5E0,3.4978715E4,9.229685E3,3.5E0,-1.3331092E18,8.75E0,9E0,4.678547E3,2.5E0,6.25E0,2.8844014E4,3.2229494E4,8.632354E3,-5.1068137E18,2.36476E4,3.2397895E4,2.5E0,8.685591E4,1.607651E4,1.6068938E4,5.8720855E4,3.0334799E4,5.977763E4],"split_indices":[5,31,3,0,25,9,17,0,0,15,1,31,12,0,31,5,0,0,0,1,0,0,32,0,0,0,0,0,0],"split_type":[0,0,0,0,0,0,0,0,0,0,0,0,0,0,0,0,0,0,0,0,0,0,0,0,0,0,0,0,0],"sum_hessian":[9.7E1,2.5E1,7.2E1,1E1,1.5E1,3.6E1,3.6E1,1.4E1,1E0,2.5E1,1.1E1,2.4E1,1.2E1,1E0,2.4E1,7E0,4E0,2.3E1,1E0,8E0,4E0,1E1,1.4E1,6E0,1E0,1E0,7E0,5E0,9E0],"tree_param":{"num_deleted":"0","num_feature":"41","num_nodes":"29","size_leaf_vector":"0"}},{"base_weights":[4.032615E6,2.3339012E6,4.2891005E6,1.2057558E6,2.531963E6,4.6965495E6,3.452752E6,6.863614E6,4.2345495E6,1.9495635E6,3.6152795E6,7.540041E6,1.402526E6,4.3781745E6,1.7396618E6,1.979349E6,3.8326308E6,4.4407445E6,9.6897844E5,4.4955395E6,1.1792629E6],"categories":[],"categories_nodes":[],"categories_segments":[],"categories_sizes":[],"default_left":[1,1,1,0,0,1,1,1,1,0,1,0,0,1,0,0,0,1,0,0,0],"id":6,"left_children":[1,3,5,-1,-1,7,9,11,13,-1,15,-1,-1,17,-1,-1,-1,19,-1,-1,-1],"loss_changes":[2.9202154E13,7.526259E10,1.0023246E13,0E0,0E0,1.9993677E13,3.6742103E10,1.5283104E13,7.7916075E12,0E0,1.303187E12,0E0,0E0,4.229469E12,0E0,0E0,0E0,1.6684606E12,0E0,0E0,0E0],"parents":[2147483647,0,0,1,1,2,2,5,5,6,6,7,7,8,8,10,10,13,13,17,17],"right_children":[2,4,6,-1,-1,8,10,12,14,-1,16,-1,-1,18,-1,-1,-1,20,-1,-1,-1],"split_conditions":[1.5E0,-5.558856E18,-8.451892E17,1.2057558E4,2.5319629E4,1.5E0,3.5E0,7.446256E17,1.05E1,1.9495635E4,1.5E0,7.540041E4,1.402526E4,8.466688E18,1.7396617E4,1.979349E4,3.832631E4,1.05E1,9.689784E3,4.4955395E4,1.1792629E4],"split_indices":[31,0,1,0,0,22,11,0,23,0,14,0,0,0,0,0,0,20,0,0,0],"split_type":[0,0,0,0,0,0,0,0,0,0,0,0,0,0,0,0,0,0,0,0,0],"sum_hessian":[8.9E1,1.3E1,7.6E1,3E0,1E1,4.8E1,2.8E1,6E0,4.2E1,4E0,2.4E1,5E0,1E0,3.9E1,3E0,4E0,2E1,3.8E1,1E0,3.7E1,1E0],"tree_param":{"num_deleted":"0","num_feature":"41","num_nodes":"21","size_leaf_vector":"0"}},{"base_weights":[4.1879915E6,4.686588E6,3.4180705E6,5.9482445E6,3.9194158E6,2.0618761E6,3.7164198E6,7.4220995E6,4.067627E6,1.874936E6,4.099501E6,5.36335E5,2.171788E6,2.0250121E6,4.0065422E6,1.2956564E6,7.9588535E6,4.2225685E6,1.3792614E6,4.6717625E6,3.007625E6,4.388658E6,1.9212519E6,8.550297E5,3.1074378E6,4.4590695E6,1.1733666E6],"categories":[],"categories_nodes":[],"categories_segments":[],"categories_sizes":[],"default_left":[1,1,1,1,1,1,1,1,0,0,1,0,0,0,1,0,0,1,0,0,1,1,0,0,0,0,0],"id":7,"left_children":[1,3,5,7,9,11,13,15,-1,-1,17,-1,-1,-1,19,-1,-1,21,-1,-1,23,25,-1,-1,-1,-1,-1],"loss_changes":[2.2368995E13,3.2824959E13,9.735852E12,2.5244811E13,6.6727686E12,5.1194836E11,8.57101E12,2.2572033E13,0E0,0E0,5.8929636E12,0E0,0E0,0E0,4.555115E12,0E0,0E0,4.1816875E12,0E0,0E0,3.5103808E11,1.5597442E12,0E0,0E0,0E0,0E0,0E0],"parents":[2147483647,0,0,1,1,2,2,3,3,4,4,5,5,6,6,7,7,10,10,14,14,17,17,20,20,21,21],"right_children":[2,4,6,8,10,12,14,16,-1,-1,18,-1,-1,-1,20,-1,-1,22,-1,-1,24,26,-1,-1,-1,-1,-1],"split_conditions":[-8.451892E17,2.75E0,-5.0862363E18,3.5E0,1.5E0,1.5E0,1.5E0,3.5E0,4.067627E4,1.874936E4,2.25E1,5.36335E3,2.1717879E4,2.0250121E4,3.5E0,1.2956563E4,7.958853E4,7.4469125E18,1.3792613E4,4.6717625E4,1.5E0,1.2E1,1.9212518E4,8.550297E3,3.1074377E4,4.4590695E4,1.1733666E4],"split_indices":[1,32,0,25,31,22,23,7,0,0,33,0,0,0,14,0,0,0,0,0,32,17,0,0,0,0,0],"split_type":[0,0,0,0,0,0,0,0,0,0,0,0,0,0,0,0,0,0,0,0,0,0,0,0,0,0,0],"sum_hessian":[9.9E1,5.7E1,4.2E1,1.9E1,3.8E1,9E0,3.3E1,9E0,1E1,4E0,3.4E1,1E0,8E0,6E0,2.7E1,1E0,8E0,3.2E1,2E0,1.4E1,1.3E1,2.9E1,3E0,1E0,1.2E1,2.8E1,1E0],"tree_param":{"num_deleted":"0","num_feature":"41","num_nodes":"27","size_leaf_vector":"0"}},{"base_weights":[4.1808822E6,2.315294E6,4.5058005E6,5.728172E6,4.051196E6,6.529641E6,2.17813E6,2.9932212E6,4.494276E6,3.8049415E6,9.10002E6,5.063506E6,3.392804E6,1.4788772E6,4.258263E6,1.0769595E7,3.2840555E6,5.306266E6,2.462448E6,3.4994388E6,8.433246E5,2.8115015E6,1.2056243E7],"categories":[],"categories_nodes":[],"categories_segments":[],"categories_sizes":[],"default_left":[1,0,1,1,1,1,0,0,1,1,1,1,1,0,0,1,0,0,0,0,0,0,0],"id":8,"left_children":[1,-1,3,5,7,9,-1,-1,11,13,15,17,19,-1,-1,21,-1,-1,-1,-1,-1,-1,-1],"loss_changes":[4.6547245E13,0E0,2.0693958E13,3.98373E13,1.5142377E13,7.0427666E13,0E0,0E0,8.527188E12,3.192654E12,3.2603365E13,2.7194525E12,1.6705074E12,0E0,0E0,1.7300195E13,0E0,0E0,0E0,0E0,0E0,0E0,0E0],"parents":[2147483647,0,0,2,2,3,3,4,4,5,5,8,8,9,9,10,10,11,11,12,12,15,15],"right_children":[2,-1,4,6,8,10,-1,-1,12,14,16,18,20,-1,-1,22,-1,-1,-1,-1,-1,-1,-1],"split_conditions":[1.5E0,2.315294E4,4.5E0,-1.3331092E18,2.5E0,3.5E0,2.1781299E4,2.993221E4,2.5E0,-7.1181987E18,5.7805054E18,4.1022306E18,6.75E0,1.4788772E4,4.258263E4,-5.755794E18,3.2840555E4,5.306266E4,2.4624479E4,3.4994387E4,8.433246E3,2.8115014E4,1.2056243E5],"split_indices":[31,0,13,1,31,9,0,0,35,1,0,1,6,0,0,0,0,0,0,0,0,0,0],"split_type":[0,0,0,0,0,0,0,0,0,0,0,0,0,0,0,0,0,0,0,0,0,0,0],"sum_hessian":[9.3E1,1.5E1,7.8E1,1.8E1,6E1,1.4E1,4E0,2E1,4E1,8E0,6E0,2.4E1,1.6E1,2E0,6E0,4E0,2E0,2.1E1,3E0,1.5E1,1E0,1E0,3E0],"tree_param":{"num_deleted":"0","num_feature":"41","num_nodes":"23","size_leaf_vector":"0"}},{"base_weights":[4.0940998E6,3.183914E6,4.7036305E6,1.9364855E6,3.3380272E6,4.967384E6,2.993626E6,6.0121025E6,4.1749732E6,1.6347158E6,3.6271135E6,3.7606835E6,8.3562905E6,2.2678822E6,4.3811455E6,1.8781254E6,4.5681275E6,8.946856E6,2.111165E6,4.4643915E6,1.1500025E6,2.1566808E6,3.819522E5],"categories":[],"categories_nodes":[],"categories_segments":[],"categories_sizes":[],"default_left":[1,1,1,0,0,1,1,1,1,0,0,1,1,0,1,1,0,0,0,0,0,0,0],"id":9,"left_children":[1,3,5,-1,-1,7,9,11,13,-1,-1,15,17,-1,19,21,-1,-1,-1,-1,-1,-1,-1],"loss_changes":[3.8838316E13,1.6102772E12,1.0386573E13,0E0,0E0,1.3808454E13,2.6792207E12,6.3574106E13,1.8597544E12,0E0,0E0,8.141144E12,1.0616958E13,0E0,1.8593517E12,1.2600864E12,0E0,0E0,0E0,0E0,0E0,0E0,0E0],"parents":[2147483647,0,0,1,1,2,2,5,5,6,6,7,7,8,8,11,11,12,12,14,14,15,15],"right_children":[2,4,6,-1,-1,8,10,12,14,-1,-1,16,18,-1,20,22,-1,-1,-1,-1,-1,-1,-1],"split_conditions":[-1.8718698E18,1.5E0,2.5E0,1.9364855E4,3.3380273E4,2.25E0,3.5E0,3.5E0,1.5E0,1.6347157E4,3.6271133E4,1.5E0,4.5E0,2.2678822E4,1.35E1,4.5E0,4.5681273E4,8.9468555E4,2.111165E4,4.4643914E4,1.1500024E4,2.1566807E4,3.8195217E3],"split_indices":[2,10,8,0,0,32,8,9,23,0,0,32,6,0,19,4,0,0,0,0,0,0,0],"split_type":[0,0,0,0,0,0,0,0,0,0,0,0,0,0,0,0,0,0,0,0,0,0,0],"sum_hessian":[9.6E1,4.1E1,5.5E1,6E0,3.5E1,4.6E1,9E0,1.7E1,2.9E1,4E0,5E0,1E1,7E0,4E0,2.5E1,4E0,6E0,6E0,1E0,2.4E1,1E0,3E0,1E0],"tree_param":{"num_deleted":"0","num_feature":"41","num_nodes":"23","size_leaf_vector":"0"}},{"base_weights":[4.213496E6,3.2872172E6,4.9845075E6,2.890542E6,4.465861E6,6.757503E6,4.2657015E6,1.8484569E6,4.889155E6,3.9970015E6,9.311921E6,1.0869186E6,4.4081515E6,1.454745E6,5.1719645E6,4.283785E6,9.947589E5,1.04786E7,1.7392608E6,4.807131E6,2.632756E6,4.651902E6,1.0375416E6,2.3990615E6,1.189872E7],"categories":[],"categories_nodes":[],"categories_segments":[],"categories_sizes":[],"default_left":[1,1,1,0,1,1,1,0,1,1,1,0,1,0,0,1,0,1,0,0,0,0,0,0,0],"id":10,"left_children":[1,3,5,-1,7,9,11,-1,13,15,17,-1,19,-1,-1,21,-1,23,-1,-1,-1,-1,-1,-1,-1],"loss_changes":[5.288957E13,9.065535E12,3.6170872E13,0E0,2.0419214E12,5.444938E13,1.2868527E13,0E0,2.463902E11,2.6266158E12,3.4784202E13,0E0,1.3552836E13,0E0,0E0,3.5384407E12,0E0,2.8823794E13,0E0,0E0,0E0,0E0,0E0,0E0,0E0],"parents":[2147483647,0,0,1,1,2,2,4,4,5,5,6,6,8,8,9,9,10,10,12,12,15,15,17,17],"right_children":[2,4,6,-1,8,10,12,-1,14,16,18,-1,20,-1,-1,22,-1,24,-1,-1,-1,-1,-1,-1,-1],"split_conditions":[4.75E0,2.75E0,4.5E0,2.890542E4,3.5E0,3.5E0,1.5E0,1.8484568E4,-2.0487788E18,-1.3331092E18,6.260458E18,1.0869186E4,4.5E0,1.4547449E4,5.1719645E4,7.280302E18,9.947589E3,-4.1940277E18,1.7392607E4,4.807131E4,2.6327559E4,4.651902E4,1.0375416E4,2.3990615E4,1.18987195E5],"split_indices":[5,31,13,0,5,9,31,0,0,1,0,0,29,0,0,0,0,0,0,0,0,0,0,0,0],"split_type":[0,0,0,0,0,0,0,0,0,0,0,0,0,0,0,0,0,0,0,0,0,0,0,0,0],"sum_hessian":[9.6E1,4.6E1,5E1,3.7E1,9E0,1.2E1,3.8E1,2E0,7E0,7E0,5E0,2E0,3.6E1,1E0,6E0,6E0,1E0,4E0,1E0,2.8E1,8E0,5E0,1E0,1E0,3E0],"tree_param":{"num_deleted":"0","num_feature":"41","num_nodes":"25","size_leaf_vector":"0"}},{"base_weights":[4.1840858E6,3.2826045E6,4.8176765E6,2.227125E6,3.6088118E6,5.5700655E6,3.4959848E6,1.4274942E6,3.7066498E6,7.5587005E6,4.426522E6,2.460857E6,4.595565E6,1.02191625E6,3.7639882E6,8.77163E6,3.2431655E6,4.540364E6,9.040755E5,5.733887E6,2.3104658E6,2.9830078E6,1.0204003E7,1.0354923E6,4.6526085E6,1.1013557E7,3.078118E6],"categories":[],"categories_nodes":[],"categories_segments":[],"categories_sizes":[],"default_left":[1,1,1,0,1,1,1,0,1,1,1,0,1,0,0,1,0,1,0,0,0,0,1,0,0,0,0],"id":11,"left_children":[1,3,5,-1,7,9,11,-1,13,15,17,-1,19,-1,-1,21,-1,23,-1,-1,-1,-1,25,-1,-1,-1,-1],"loss_changes":[4.0731322E13,7.112164E12,3.621503E13,0E0,1.538068E12,4.386034E13,1.486973E13,0E0,7.716848E11,2.9130951E13,5.5192343E12,0E0,1.2763821E13,0E0,0E0,3.5893176E13,0E0,4.2305428E12,0E0,0E0,0E0,0E0,7.116224E11,0E0,0E0,0E0,0E0],"parents":[2147483647,0,0,1,1,2,2,4,4,5,5,6,6,8,8,9,9,10,10,12,12,15,15,17,17,22,22],"right_children":[2,4,6,-1,8,10,12,-1,14,16,18,-1,20,-1,-1,22,-1,24,-1,-1,-1,-1,26,-1,-1,-1,-1],"split_conditions":[-1.8718698E18,1.5E0,-1.3331092E18,2.227125E4,4.5E0,2.25E0,1.2930334E18,1.4274942E4,3E0,4.5E0,8.466688E18,2.460857E4,2.5E0,1.0219162E4,3.7639883E4,-3.4154075E18,3.2431654E4,1.5E0,9.040755E3,5.7338867E4,2.3104656E4,2.9830076E4,5.583633E18,1.0354923E4,4.6526082E4,1.1013557E5,3.078118E4],"split_indices":[2,31,1,0,13,32,0,0,11,11,0,0,35,0,0,0,0,4,0,0,0,0,0,0,0,0,0],"split_type":[0,0,0,0,0,0,0,0,0,0,0,0,0,0,0,0,0,0,0,0,0,0,0,0,0,0,0],"sum_hessian":[9.8E1,4.3E1,5.5E1,1.2E1,3.1E1,3.3E1,2.2E1,2E0,2.9E1,1E1,2.3E1,1.3E1,9E0,1E0,2.8E1,7E0,3E0,2.2E1,1E0,5E0,4E0,2E0,5E0,1E0,2.1E1,4E0,1E0],"tree_param":{"num_deleted":"0","num_feature":"41","num_nodes":"27","size_leaf_vector":"0"}},{"base_weights":[4.0061832E6,4.573974E6,3.1111218E6,5.819196E6,3.5970892E6,1.7839758E6,3.3871588E6,7.420329E6,4.0167602E6,2.5383715E6,4.2993205E6,4.0056488E6,2.6835752E6,2.738269E6,8.1565345E6,4.1833085E6,1.0090909E6,1.4886208E6,2.8802015E6,4.4514655E6,7.803592E5,1.0168067E6,4.1465085E6,7.894958E5,2.7485508E6,1.1799716E6,4.349069E6,4.6938755E6,1.6747891E6],"categories":[],"categories_nodes":[],"categories_segments":[],"categories_sizes":[],"default_left":[1,1,1,1,1,0,1,1,1,1,1,1,1,0,0,1,0,0,0,1,0,0,0,0,0,0,0,0,0],"id":12,"left_children":[1,3,5,7,9,-1,11,13,15,17,19,21,23,-1,-1,25,-1,-1,-1,27,-1,-1,-1,-1,-1,-1,-1,-1,-1],"loss_changes":[3.4049427E13,4.7188403E13,8.611074E12,3.6570975E13,1.4364552E13,0E0,3.175625E12,1.5581739E13,2.2906604E12,1.4538548E12,6.698706E12,2.0989136E12,4.526493E10,0E0,0E0,8.42233E11,0E0,0E0,0E0,4.2544335E12,0E0,0E0,0E0,0E0,0E0,0E0,0E0,0E0,0E0],"parents":[2147483647,0,0,1,1,2,2,3,3,4,4,6,6,7,7,8,8,9,9,10,10,11,11,12,12,15,15,19,19],"right_children":[2,4,6,8,10,-1,12,14,16,18,20,22,24,-1,-1,26,-1,-1,-1,28,-1,-1,-1,-1,-1,-1,-1,-1,-1],"split_conditions":[-8.451892E17,4.5E0,1.5E0,2.5E0,2.75E0,1.7839758E4,1.5E0,-4.1940277E18,5.260834E18,-3.8929908E18,2.25E1,3E0,3E0,2.738269E4,8.156534E4,1.5E0,1.0090908E4,1.4886207E4,2.8802014E4,1.75E1,7.803592E3,1.0168066E4,4.1465086E4,7.894958E3,2.7485508E4,1.1799716E4,4.3490688E4,4.6938754E4,1.674789E4],"split_indices":[1,11,23,32,31,0,8,0,0,0,33,11,15,0,0,31,0,0,0,35,0,0,0,0,0,0,0,0,0],"split_type":[0,0,0,0,0,0,0,0,0,0,0,0,0,0,0,0,0,0,0,0,0,0,0,0,0,0,0,0,0],"sum_hessian":[9.4E1,5.5E1,3.9E1,2.2E1,3.3E1,8E0,3.1E1,1E1,1.2E1,1.5E1,1.8E1,1.4E1,1.7E1,2E0,8E0,1.1E1,1E0,5E0,1E1,1.7E1,1E0,1E0,1.3E1,1E0,1.6E1,1E0,1E1,1.5E1,2E0],"tree_param":{"num_deleted":"0","num_feature":"41","num_nodes":"29","size_leaf_vector":"0"}},{"base_weights":[3.8432168E6,3.3278188E6,5.050139E6,2.9815705E6,4.400914E6,9.31338E6,4.2744925E6,3.0288728E6,2.6093244E5,4.3982005E6,7.764574E5,3.0831995E6,1.1138016E6,1.6950011E6,4.5837705E6,2.15045E6,3.2911428E6,3.5318875E6,2.0962284E6,2.8894908E6,4.308225E6,2.3501052E6,4.0376262E6],"categories":[],"categories_nodes":[],"categories_segments":[],"categories_sizes":[],"default_left":[1,1,1,1,0,0,1,1,0,1,0,1,0,0,0,0,1,1,0,1,0,0,0],"id":13,"left_children":[1,3,5,7,-1,-1,9,11,-1,13,-1,15,-1,-1,-1,-1,17,19,-1,21,-1,-1,-1],"loss_changes":[3.9178155E13,1.1401192E13,4.285921E13,6.0303354E12,0E0,0E0,6.53788E12,1.975987E12,0E0,3.2664568E12,0E0,2.6205005E12,0E0,0E0,0E0,0E0,3.8154745E12,3.0116445E12,0E0,2.896905E12,0E0,0E0,0E0],"parents":[2147483647,0,0,1,1,2,2,3,3,6,6,7,7,9,9,11,11,16,16,17,17,19,19],"right_children":[2,4,6,8,-1,-1,10,12,-1,14,-1,16,-1,-1,-1,-1,18,20,-1,22,-1,-1,-1],"split_conditions":[3.5E0,1.5E0,3.5E0,4.5E0,4.400914E4,9.31338E4,6.75E0,2.5E0,2.6093242E3,3.5E0,7.7645737E3,2.5E0,1.1138016E4,1.6950012E4,4.5837703E4,2.15045E4,4.5E0,2.5E0,2.0962283E4,2.5E0,4.308225E4,2.3501053E4,4.037626E4],"split_indices":[31,20,15,4,0,0,6,18,0,11,0,5,0,0,0,0,23,14,0,31,0,0,0],"split_type":[0,0,0,0,0,0,0,0,0,0,0,0,0,0,0,0,0,0,0,0,0,0,0],"sum_hessian":[8.9E1,6.5E1,2.4E1,5.2E1,1.3E1,2E0,2.2E1,5.1E1,1E0,2.1E1,1E0,4.9E1,2E0,2E0,1.9E1,1.1E1,3.8E1,3E1,8E0,1.9E1,1.1E1,1.5E1,4E0],"tree_param":{"num_deleted":"0","num_feature":"41","num_nodes":"23","size_leaf_vector":"0"}},{"base_weights":[4.191129E6,3.308414E6,4.8327645E6,3.3982092E6,9.4847844E5,5.2499135E6,3.1133018E6,8.091681E5,3.4416208E6,4.3044915E6,6.833294E6,2.5290408E6,3.7749955E6,2.2273498E6,4.749513E6,7.99757E6,1.9232122E6,2.0778E6,3.9712865E6,2.5120322E6,2.5962778E5,4.813713E6,9.848499E6,1.1148672E6,4.0470062E6],"categories":[],"categories_nodes":[],"categories_segments":[],"categories_sizes":[],"default_left":[1,1,1,1,0,1,0,0,1,1,1,0,1,1,0,1,0,0,1,0,0,0,0,0,0],"id":14,"left_children":[1,3,5,7,-1,9,-1,-1,11,13,15,-1,17,19,-1,21,-1,-1,23,-1,-1,-1,-1,-1,-1],"loss_changes":[3.895012E13,6.1009675E12,2.2388188E13,1.9356881E12,0E0,3.34586E13,0E0,0E0,2.926349E12,1.6227964E13,6.4652545E13,0E0,1.07652684E12,3.2690363E12,0E0,1.741616E13,0E0,0E0,6.790075E11,0E0,0E0,0E0,0E0,0E0,0E0],"parents":[2147483647,0,0,1,1,2,2,3,3,5,5,8,8,9,9,10,10,12,12,13,13,15,15,18,18],"right_children":[2,4,6,8,-1,10,-1,-1,12,14,16,-1,18,20,-1,22,-1,-1,24,-1,-1,-1,-1,-1,-1],"split_conditions":[4.75E0,5.5012855E18,7.5E0,-8.952512E18,9.484784E3,3.5E0,3.1133018E4,8.091681E3,1.5E0,1.5E0,-1.3331092E18,2.5290406E4,2.5E0,4.5E0,4.749513E4,-3.4154075E18,1.9232121E4,2.0778E4,-7.6131516E18,2.5120322E4,2.5962778E3,4.813713E4,9.8484984E4,1.1148672E4,4.0470062E4],"split_indices":[5,1,23,0,0,9,0,0,23,32,1,0,5,4,0,0,0,0,1,0,0,0,0,0,0],"split_type":[0,0,0,0,0,0,0,0,0,0,0,0,0,0,0,0,0,0,0,0,0,0,0,0,0],"sum_hessian":[9.6E1,4.3E1,5.3E1,4.1E1,2E0,4.1E1,1.2E1,1E0,4E1,2.8E1,1.3E1,1.3E1,2.7E1,6E0,2.2E1,1E1,3E0,4E0,2.3E1,5E0,1E0,5E0,5E0,1E0,2.2E1],"tree_param":{"num_deleted":"0","num_feature":"41","num_nodes":"25","size_leaf_vector":"0"}},{"base_weights":[3.9185782E6,3.374234E6,5.021337E6,2.174616E6,3.5610338E6,5.9593795E6,2.7740432E6,2.2589668E6,6.2337856E5,6.9704706E5,3.598395E6,7.4186335E6,2.6607628E6,7.570086E5,2.9000458E6,3.0453988E6,4.0463775E6,9.135059E6,4.9894325E6,7.961461E5,3.0955058E6,2.4630155E6,4.3523405E6,1.040756E7,3.9692028E6,1.5525805E6,4.545052E6,1.1534503E7,2.949895E6,2.5832966E5,2.070541E6,4.6389525E6,1.3335216E6],"categories":[],"categories_nodes":[],"categories_segments":[],"categories_sizes":[],"default_left":[1,1,1,1,1,1,1,0,0,0,1,1,0,0,0,1,1,1,0,0,0,0,1,1,0,1,1,0,0,0,0,0,0],"id":15,"left_children":[1,3,5,7,9,11,13,-1,-1,-1,15,17,-1,-1,-1,19,21,23,-1,-1,-1,-1,25,27,-1,29,31,-1,-1,-1,-1,-1,-1],"loss_changes":[4.308483E13,7.942334E12,4.8818276E13,1.6198402E11,3.8048042E12,8.134467E13,6.0031395E11,0E0,0E0,0E0,2.0456795E12,1.2794842E13,0E0,0E0,0E0,9.1664E11,3.3292036E12,4.705204E12,0E0,0E0,0E0,0E0,5.352972E12,7.996256E12,0E0,1.4762304E12,1.4673353E11,0E0,0E0,0E0,0E0,0E0,0E0],"parents":[2147483647,0,0,1,1,2,2,3,3,4,4,5,5,6,6,10,10,11,11,15,15,16,16,17,17,22,22,23,23,25,25,26,26],"right_children":[2,4,6,8,10,12,14,-1,-1,-1,16,18,-1,-1,-1,20,22,24,-1,-1,-1,-1,26,28,-1,30,32,-1,-1,-1,-1,-1,-1],"split_conditions":[3.5E0,2.5E0,7E0,2.5E0,1.5E0,-1.3434563E18,5.25E0,2.2589668E4,6.2337856E3,6.9704707E3,2.5E0,4.5E0,2.6607627E4,7.570086E3,2.9000457E4,3.5E0,3.5E0,2.5E0,4.9894324E4,7.961461E3,3.0955057E4,2.4630154E4,3.5E0,4.5E0,3.9692027E4,1.5385964E18,4.5E0,1.1534503E5,2.949895E4,2.5832964E3,2.070541E4,4.6389523E4,1.3335216E4],"split_indices":[9,5,19,8,10,1,7,0,0,0,14,13,0,0,0,15,11,32,0,0,0,0,15,26,0,1,35,0,0,0,0,0,0],"split_type":[0,0,0,0,0,0,0,0,0,0,0,0,0,0,0,0,0,0,0,0,0,0,0,0,0,0,0,0,0,0,0,0,0],"sum_hessian":[9.9E1,6.9E1,3E1,1.1E1,5.8E1,2E1,1E1,1E1,1E0,1E0,5.7E1,1.3E1,7E0,1E0,9E0,2.9E1,2.8E1,6E0,7E0,1E0,2.8E1,6E0,2.2E1,4E0,2E0,2E0,2E1,3E0,1E0,1E0,1E0,1.9E1,1E0],"tree_param":{"num_deleted":"0","num_feature":"41","num_nodes":"33","size_leaf_vector":"0"}},{"base_weights":[3.817017E6,5.227555E6,3.3079638E6,3.6095668E6,6.8115805E6,2.1098982E6,3.4212158E6,7.6150455E6,2.130659E6,2.21857E6,6.202617E5,3.4703782E6,1.2320108E6,3.251003E6,9.255233E6,6.571614E5,2.3477482E6,7.661275E5,3.501142E6,1.046261E7,1.6091745E6,6.935618E5,2.5078522E6,3.5305038E6,8.4036E5],"categories":[],"categories_nodes":[],"categories_segments":[],"categories_sizes":[],"default_left":[1,1,1,0,1,1,1,1,0,1,0,1,0,0,1,0,1,0,1,0,0,0,0,0,0],"id":16,"left_children":[1,3,5,-1,7,9,11,13,-1,15,-1,17,-1,-1,19,-1,21,-1,23,-1,-1,-1,-1,-1,-1],"loss_changes":[5.235726E13,3.6923565E13,2.8221962E12,0E0,2.5145456E13,8.0841015E10,2.8277662E12,3.4331821E13,0E0,7.0745326E10,0E0,2.642076E12,0E0,0E0,3.8553875E13,0E0,1.1454644E11,0E0,1.9550154E12,0E0,0E0,0E0,0E0,0E0,0E0],"parents":[2147483647,0,0,1,1,2,2,4,4,5,5,6,6,7,7,9,9,11,11,14,14,16,16,18,18],"right_children":[2,4,6,-1,8,10,12,14,-1,16,-1,18,-1,-1,20,-1,22,-1,24,-1,-1,-1,-1,-1,-1],"split_conditions":[4.5E0,3.5E0,1.5E0,3.6095668E4,2.5E0,2.5E0,2.25E1,-4.1940277E18,2.130659E4,-6.8396814E18,6.2026167E3,2.5E0,1.2320107E4,3.251003E4,6.260458E18,6.571614E3,4.5E0,7.661275E3,7.9346564E18,1.046261E5,1.6091745E4,6.935618E3,2.5078521E4,3.5305035E4,8.4036E3],"split_indices":[16,9,9,0,8,8,33,0,0,0,0,15,0,0,0,0,12,0,0,0,0,0,0,0,0],"split_type":[0,0,0,0,0,0,0,0,0,0,0,0,0,0,0,0,0,0,0,0,0,0,0,0,0],"sum_hessian":[9.6E1,2.3E1,7.3E1,1.3E1,1E1,8E0,6.5E1,8E0,2E0,7E0,1E0,6.3E1,2E0,3E0,5E0,1E0,6E0,1E0,6.2E1,4E0,1E0,1E0,5E0,6.1E1,1E0],"tree_param":{"num_deleted":"0","num_feature":"41","num_nodes":"25","size_leaf_vector":"0"}},{"base_weights":[3.7387138E6,2.7128255E6,4.0350825E6,7.5112006E5,2.7678522E6,4.729219E6,3.2222672E6,4.9518935E6,1.8211875E6,2.3659238E6,3.8520212E6,4.426312E6,7.392988E6,3.990721E6,7.470635E5],"categories":[],"categories_nodes":[],"categories_segments":[],"categories_sizes":[],"default_left":[1,1,1,0,0,1,1,1,0,0,1,0,0,0,0],"id":17,"left_children":[1,3,5,-1,-1,7,9,11,-1,-1,13,-1,-1,-1,-1],"loss_changes":[1.6113241E13,4.0376048E11,2.2562872E13,0E0,0E0,1.2998182E13,9.222134E12,7.049115E12,0E0,0E0,4.7705007E12,0E0,0E0,0E0,0E0],"parents":[2147483647,0,0,1,1,2,2,5,5,6,6,7,7,10,10],"right_children":[2,4,6,-1,-1,8,10,12,-1,-1,14,-1,-1,-1,-1],"split_conditions":[3.5E0,-8.363307E18,-4.9746145E18,7.5112007E3,2.7678521E4,2.5E0,2.5E0,4.5E0,1.8211875E4,2.3659236E4,6.75E0,4.4263117E4,7.3929875E4,3.990721E4,7.470635E3],"split_indices":[5,0,3,0,0,8,28,14,0,0,6,0,0,0,0],"split_type":[0,0,0,0,0,0,0,0,0,0,0,0,0,0,0],"sum_hessian":[8.8E1,2.2E1,6.6E1,1E0,2.1E1,3.3E1,3.3E1,3E1,3E0,1.6E1,1.7E1,2.7E1,3E0,1.6E1,1E0],"tree_param":{"num_deleted":"0","num_feature":"41","num_nodes":"15","size_leaf_vector":"0"}},{"base_weights":[3.5994678E6,2.8671792E6,4.3502275E6,1.9020368E6,3.1628688E6,5.10263E6,3.4741105E6,5.3330465E6,1.942447E6,3.5403102E6,1.00886006E6],"categories":[],"categories_nodes":[],"categories_segments":[],"categories_sizes":[],"default_left":[1,1,1,0,0,1,1,0,0,0,0],"id":18,"left_children":[1,3,5,-1,-1,7,9,-1,-1,-1,-1],"loss_changes":[3.75564E13,7.9678354E12,1.0618233E13,0E0,0E0,4.932166E12,1.818818E11,0E0,0E0,0E0,0E0],"parents":[2147483647,0,0,1,1,2,2,5,5,6,6],"right_children":[2,4,6,-1,-1,8,10,-1,-1,-1,-1],"split_conditions":[2.75E0,-4.6082885E18,4.75E0,1.9020367E4,3.1628688E4,4.414947E18,1.35E1,5.3330465E4,1.9424469E4,3.54031E4,1.0088601E4],"split_indices":[31,1,6,0,0,1,17,0,0,0,0],"split_type":[0,0,0,0,0,0,0,0,0,0,0],"sum_hessian":[9E1,4.8E1,4.2E1,1.3E1,3.5E1,2E1,2.2E1,1.8E1,2E0,2.1E1,1E0],"tree_param":{"num_deleted":"0","num_feature":"41","num_nodes":"11","size_leaf_vector":"0"}},{"base_weights":[3.7588325E6,2.8372788E6,4.361357E6,2.260405E6,3.5526575E6,2.8804235E6,4.8569405E6,1.9473801E6,3.4951972E6,3.5530395E6,1.8877606E6,6.347492E6,3.695544E6,6.6302125E6,9.119824E5,5.834429E5,3.7966905E6,3.2440388E6,7.162096E6,4.1506588E6,2.293535E6,3.2486575E6,5.2328525E6,2.5972928E6,1.02276056E6],"categories":[],"categories_nodes":[],"categories_segments":[],"categories_sizes":[],"default_left":[1,1,1,1,0,1,1,0,0,0,0,1,1,1,0,0,1,0,0,1,1,0,0,0,0],"id":19,"left_children":[1,3,5,7,-1,9,11,-1,-1,-1,-1,13,15,17,-1,-1,19,-1,-1,21,23,-1,-1,-1,-1],"loss_changes":[4.2596278E13,9.302262E12,2.8577639E13,3.243061E12,0E0,4.643296E12,4.924965E13,0E0,0E0,0E0,0E0,2.0077831E13,5.969065E12,5.582652E12,0E0,0E0,3.7820542E12,0E0,0E0,1.54696E12,4.564661E10,0E0,0E0,0E0,0E0],"parents":[2147483647,0,0,1,1,2,2,3,3,5,5,6,6,11,11,12,12,13,13,16,16,19,19,20,20],"right_children":[2,4,6,8,-1,10,12,-1,-1,-1,-1,14,16,18,-1,-1,20,-1,-1,22,24,-1,-1,-1,-1],"split_conditions":[-1.8718698E18,1.5E0,-5.524161E18,2.5E0,3.5526574E4,-7.378095E18,4.5E0,1.94738E4,3.4951973E4,3.5530395E4,1.8877605E4,6.866573E18,1.5E0,-3.4154075E18,9.119823E3,5.8344287E3,4.5E0,3.2440387E4,7.162096E4,3.5E0,3.779103E18,3.2486574E4,5.2328523E4,2.5972928E4,1.0227605E4],"split_indices":[2,24,0,29,0,0,11,0,0,0,0,0,23,0,0,0,29,0,0,22,0,0,0,0,0],"split_type":[0,0,0,0,0,0,0,0,0,0,0,0,0,0,0,0,0,0,0,0,0,0,0,0,0],"sum_hessian":[9.8E1,4.1E1,5.7E1,2.5E1,1.6E1,1.6E1,4.1E1,2.2E1,3E0,8E0,8E0,1.6E1,2.5E1,1.5E1,1E0,1E0,2.4E1,3E0,1.2E1,1.8E1,6E0,1.2E1,6E0,4E0,2E0],"tree_param":{"num_deleted":"0","num_feature":"41","num_nodes":"25","size_leaf_vector":"0"}},{"base_weights":[3.694489E6,2.5199192E6,3.9741085E6,7.281174E5,2.5731032E6,4.0083395E6,7.205129E5,7.3061356E5,4.0432315E6,4.071997E6,9.8605056E5,4.380535E6,3.3167248E6,3.666182E6,5.1973195E6,2.2825292E6,4.2468925E6,6.157229E6,3.3399605E6,9.5540556E5,2.4240995E6,7.247446E6,3.1814352E6],"categories":[],"categories_nodes":[],"categories_segments":[],"categories_sizes":[],"default_left":[1,1,1,0,0,1,0,0,1,1,0,1,1,0,1,1,0,1,0,0,0,0,0],"id":20,"left_children":[1,3,5,-1,-1,7,-1,-1,9,11,-1,13,15,-1,17,19,-1,21,-1,-1,-1,-1,-1],"loss_changes":[2.1186805E13,1.27683E11,5.464943E12,0E0,0E0,5.5089666E12,0E0,0E0,2.4046448E12,2.2490865E12,0E0,8.95239E12,1.4355727E13,0E0,1.5093018E13,3.143463E11,0E0,1.5873864E13,0E0,0E0,0E0,0E0,0E0],"parents":[2147483647,0,0,1,1,2,2,5,5,8,8,9,9,11,11,12,12,14,14,15,15,17,17],"right_children":[2,4,6,-1,-1,8,-1,-1,10,12,-1,14,16,-1,18,20,-1,22,-1,-1,-1,-1,-1],"split_conditions":[3.5E0,-8.445335E18,6.75E0,7.281174E3,2.5731031E4,-8.952512E18,7.2051284E3,7.3061353E3,1.2E1,-8.451892E17,9.860506E3,3.5E0,3.5E0,3.666182E4,1.75E0,1.5E0,4.2468926E4,3.5E0,3.3399605E4,9.554056E3,2.4240994E4,7.247446E4,3.1814352E4],"split_indices":[5,0,6,0,0,0,0,0,20,1,0,9,4,0,30,14,0,25,0,0,0,0,0],"split_type":[0,0,0,0,0,0,0,0,0,0,0,0,0,0,0,0,0,0,0,0,0,0,0],"sum_hessian":[9.4E1,2E1,7.4E1,1E0,1.9E1,7.3E1,1E0,1E0,7.2E1,7.1E1,1E0,4.7E1,2.4E1,2.8E1,1.9E1,1.3E1,1.1E1,1.1E1,8E0,2E0,1.1E1,7E0,4E0],"tree_param":{"num_deleted":"0","num_feature":"41","num_nodes":"23","size_leaf_vector":"0"}},{"base_weights":[3.5139692E6,2.3344418E6,3.6890178E6,9.328549E5,2.6071005E6,2.0395681E6,3.8418402E6,2.8513115E6,9.240305E5,2.2605012E6,1.36052E5,4.677284E6,3.3092698E6,1.444412E6,3.247924E6,6.7587106E5,2.390324E6,3.9945288E6,6.74595E6,1.1715376E6,3.3767465E6,4.2049315E6,1.2603339E6,7.269605E5,3.419476E6,4.332655E6,8.890916E5,3.4615062E6,7.850695E5,3.496373E6,9.811203E5],"categories":[],"categories_nodes":[],"categories_segments":[],"categories_sizes":[],"default_left":[1,1,1,0,1,1,1,1,0,1,0,1,1,0,0,0,0,1,0,0,1,1,0,0,1,0,0,1,0,0,0],"id":21,"left_children":[1,3,5,-1,7,9,11,13,-1,15,-1,17,19,-1,-1,-1,-1,21,-1,-1,23,25,-1,-1,27,-1,-1,29,-1,-1,-1],"loss_changes":[1.1003169E13,3.3002797E12,1.2582241E13,0E0,2.2975894E12,3.4773968E12,1.7001762E13,8.8859686E11,0E0,3.021996E10,0E0,9.775278E12,2.967856E12,0E0,0E0,0E0,0E0,7.356608E12,0E0,0E0,2.7224724E12,4.61813E12,0E0,0E0,2.265092E12,0E0,0E0,3.748701E11,0E0,0E0,0E0],"parents":[2147483647,0,0,1,1,2,2,4,4,5,5,6,6,7,7,9,9,11,11,12,12,17,17,20,20,21,21,24,24,27,27],"right_children":[2,4,6,-1,8,10,12,14,-1,16,-1,18,20,-1,-1,-1,-1,22,-1,-1,24,26,-1,-1,28,-1,-1,30,-1,-1,-1],"split_conditions":[1.5E0,-4.663022E18,1.5E0,9.328549E3,4.414947E18,4.5E0,4.5E0,-3.0226298E18,9.240305E3,2.5E0,1.36052E3,4.5E0,-7.2978435E18,1.444412E4,3.247924E4,6.7587104E3,2.390324E4,3.5E0,6.74595E4,1.1715376E4,-8.793188E18,7.393948E18,1.2603339E4,7.269605E3,8.5614506E18,4.332655E4,8.890916E3,1.2E1,7.850695E3,3.496373E4,9.811203E3],"split_indices":[31,0,32,0,1,4,11,1,0,15,0,9,1,0,0,0,0,9,0,0,0,0,0,0,0,0,0,20,0,0,0],"split_type":[0,0,0,0,0,0,0,0,0,0,0,0,0,0,0,0,0,0,0,0,0,0,0,0,0,0,0,0,0,0,0],"sum_hessian":[9.4E1,1.4E1,8E1,3E0,1.1E1,8E0,7.2E1,9E0,2E0,7E0,1E0,2.5E1,4.7E1,3E0,6E0,1E0,6E0,2.1E1,4E0,2E0,4.5E1,1.9E1,2E0,1E0,4.4E1,1.8E1,1E0,4.3E1,1E0,4.2E1,1E0],"tree_param":{"num_deleted":"0","num_feature":"41","num_nodes":"31","size_leaf_vector":"0"}},{"base_weights":[3.4711665E6,3.2355088E6,5.38969E6,1.832872E6,3.3528615E6,1.3380284E6,3.4412998E6,1.3537175E5,1.6048496E6,7.233257E5,3.467895E6,3.6058685E6,2.4430462E6,3.1075265E6,4.214694E6,3.2439408E6,1.8165918E6,4.600874E6,2.509223E6,1.391799E6,3.3782835E6,2.7218192E6,5.2117675E6],"categories":[],"categories_nodes":[],"categories_segments":[],"categories_sizes":[],"default_left":[1,1,0,0,1,1,1,0,0,0,1,1,0,1,1,1,0,1,0,0,0,0,0],"id":22,"left_children":[1,3,-1,-1,5,7,9,-1,-1,-1,11,13,-1,15,17,19,-1,21,-1,-1,-1,-1,-1],"loss_changes":[2.5964688E13,8.339753E12,0E0,0E0,9.650456E12,1.387221E12,2.9852707E12,0E0,0E0,0E0,1.7958332E12,6.320514E12,0E0,9.7505824E11,5.579498E12,3.7580628E12,0E0,8.7725714E12,0E0,0E0,0E0,0E0,0E0],"parents":[2147483647,0,0,1,1,4,4,5,5,6,6,10,10,11,11,13,13,14,14,15,15,17,17],"right_children":[2,4,-1,-1,6,8,10,-1,-1,-1,12,14,-1,16,18,20,-1,22,-1,-1,-1,-1,-1],"split_conditions":[3.5E0,1.5E0,5.38969E4,1.8328719E4,3.5E0,-4.9746145E18,-8.952512E18,1.3537175E3,1.6048496E4,7.233257E3,4.5E0,2.5E0,2.4430463E4,3.4159825E18,7E0,-7.1338695E18,1.8165918E4,2.25E0,2.5092229E4,1.3917989E4,3.3782836E4,2.7218191E4,5.2117676E4],"split_indices":[20,9,0,0,15,3,0,0,0,0,14,31,0,0,23,1,0,32,0,0,0,0,0],"split_type":[0,0,0,0,0,0,0,0,0,0,0,0,0,0,0,0,0,0,0,0,0,0,0],"sum_hessian":[9.5E1,8.7E1,8E0,8E0,7.9E1,4E0,7.5E1,1E0,3E0,1E0,7.4E1,6.3E1,1.1E1,3.8E1,2.5E1,3.3E1,5E0,1.9E1,6E0,3E0,3E1,6E0,1.3E1],"tree_param":{"num_deleted":"0","num_feature":"41","num_nodes":"23","size_leaf_vector":"0"}},{"base_weights":[3.6727612E6,2.8595778E6,4.3304565E6,1.9056879E6,3.085554E6,4.9881555E6,3.405017E6,1.2610579E6,2.3401415E6,1.7778184E6,3.2298225E6,1.0360957E6,5.233442E6,1.9834312E6,3.9266422E6,9.1070525E5,2.341363E6,8.425237E5,3.2780968E6,5.88378E6,3.4744562E6,4.467925E6,1.6257225E6,4.2862075E6,8.01016E6,1.346949E5,4.620942E6,1.4819006E6,8.85122E6,1.2644648E6,4.811125E6],"categories":[],"categories_nodes":[],"categories_segments":[],"categories_sizes":[],"default_left":[1,1,1,1,1,1,1,0,0,1,1,0,1,0,1,0,0,0,0,1,0,0,0,1,1,0,1,0,0,0,0],"id":23,"left_children":[1,3,5,7,9,11,13,-1,-1,15,17,-1,19,-1,21,-1,-1,-1,-1,23,-1,-1,-1,25,27,-1,29,-1,-1,-1,-1],"loss_changes":[4.2703786E13,4.682152E12,1.6491668E13,4.0968703E11,1.4272378E12,2.3659297E13,1.1491688E13,0E0,0E0,7.9965035E11,1.041194E12,0E0,1.1587218E13,0E0,1.5154457E13,0E0,0E0,0E0,0E0,3.0210599E13,0E0,0E0,0E0,1.744312E13,2.5317993E13,0E0,1.5766221E12,0E0,0E0,0E0,0E0],"parents":[2147483647,0,0,1,1,2,2,3,3,4,4,5,5,6,6,9,9,10,10,12,12,14,14,19,19,23,23,24,24,26,26],"right_children":[2,4,6,8,10,12,14,-1,-1,16,18,-1,20,-1,22,-1,-1,-1,-1,24,-1,-1,-1,26,28,-1,30,-1,-1,-1,-1],"split_conditions":[4.75E0,-4.6082885E18,-4.9746145E18,-2.3962833E18,1.5E0,1.5E0,1.5E0,1.2610578E4,2.3401414E4,3.5E0,3E0,1.0360957E4,4.25E0,1.9834312E4,9E0,9.107053E3,2.3413629E4,8.425236E3,3.2780965E4,3.5E0,3.4744562E4,4.467925E4,1.6257225E4,3.5E0,-6.447467E18,1.346949E3,3.5E0,1.4819006E4,8.8512195E4,1.2644647E4,4.811125E4],"split_indices":[5,1,3,0,9,31,20,0,0,14,11,0,6,0,12,0,0,0,0,9,0,0,0,15,0,0,11,0,0,0,0],"split_type":[0,0,0,0,0,0,0,0,0,0,0,0,0,0,0,0,0,0,0,0,0,0,0,0,0,0,0,0,0,0,0],"sum_hessian":[1.02E2,4.8E1,5.4E1,1.1E1,3.7E1,2.9E1,2.5E1,6E0,5E0,5E0,3.2E1,2E0,2.7E1,8E0,1.7E1,3E0,2E0,1E0,3.1E1,1.8E1,9E0,1.3E1,4E0,1.2E1,6E0,1E0,1.1E1,1E0,5E0,1E0,1E1],"tree_param":{"num_deleted":"0","num_feature":"41","num_nodes":"31","size_leaf_vector":"0"}},{"base_weights":[3.5788028E6,4.62523E6,3.180288E6,6.578637E6,2.7600365E6,2.6993845E6,3.5622405E6,2.6700855E6,7.710583E6,3.1743745E6,1.3793532E6,9.4583906E5,2.7747155E6,3.6089062E6,9.411376E5,8.455483E6,1.2481415E6,1.1806104E6,3.5252392E6,6.545503E5,2.819128E6,3.70044E6,1.1096655E7,2.8595918E6,7.6214406E5,2.9853218E6,1.5835855E6],"categories":[],"categories_nodes":[],"categories_segments":[],"categories_sizes":[],"default_left":[1,1,1,1,1,1,1,0,1,1,0,0,1,0,0,1,0,0,0,0,1,0,0,1,0,0,0],"id":24,"left_children":[1,3,5,7,9,11,13,-1,15,17,-1,-1,19,-1,-1,21,-1,-1,-1,-1,23,-1,-1,25,-1,-1,-1],"loss_changes":[2.4907052E13,6.928628E13,3.609249E12,2.8079087E13,3.6303882E12,2.1310252E12,1.1291737E12,0E0,2.7957351E13,2.8334788E12,0E0,0E0,1.3562534E12,0E0,0E0,4.6849705E13,0E0,0E0,0E0,0E0,5.672712E11,0E0,0E0,4.063274E11,0E0,0E0,0E0],"parents":[2147483647,0,0,1,1,2,2,3,3,4,4,5,5,6,6,8,8,9,9,12,12,15,15,20,20,23,23],"right_children":[2,4,6,8,10,12,14,-1,16,18,-1,-1,20,-1,-1,22,-1,-1,-1,-1,24,-1,-1,26,-1,-1,-1],"split_conditions":[4.5E0,2.5E0,2.5E0,-4.1940277E18,1.5E0,-8.363307E18,1.35E1,2.6700854E4,-1.3331092E18,-5.322925E18,1.3793532E4,9.458391E3,3E0,3.6089062E4,9.411376E3,3.5E0,1.2481415E4,1.1806104E4,3.525239E4,6.545503E3,7.9346564E18,3.70044E4,1.1096655E5,4.594962E18,7.6214404E3,2.9853217E4,1.58358545E4],"split_indices":[13,32,26,0,26,0,17,0,1,1,0,0,15,0,0,9,0,0,0,0,0,0,0,1,0,0,0],"split_type":[0,0,0,0,0,0,0,0,0,0,0,0,0,0,0,0,0,0,0,0,0,0,0,0,0,0,0],"sum_hessian":[9.4E1,2.3E1,7.1E1,1E1,1.3E1,3.5E1,3.6E1,3E0,7E0,9E0,4E0,2E0,3.3E1,3.5E1,1E0,6E0,1E0,2E0,7E0,1E0,3.2E1,3E0,3E0,3.1E1,1E0,2.7E1,4E0],"tree_param":{"num_deleted":"0","num_feature":"41","num_nodes":"27","size_leaf_vector":"0"}},{"base_weights":[3.6160665E6,4.748756E6,3.1631162E6,5.2724005E6,2.2990898E6,2.4105332E6,3.3858355E6,2.1784472E6,5.9522245E6,2.5435325E6,5.384382E5,7.006256E5,2.4666045E6,3.7052598E6,2.3934952E6,3.3115882E6,7.344695E6,6.923189E5,3.7715632E6,9.397406E5,2.544862E6,8.233845E5,3.8340572E6,2.6468155E6,6.607092E5],"categories":[],"categories_nodes":[],"categories_segments":[],"categories_sizes":[],"default_left":[1,1,1,1,1,1,1,0,1,0,0,0,0,1,1,0,0,0,1,0,1,0,0,0,0],"id":25,"left_children":[1,3,5,7,9,11,13,-1,15,-1,-1,-1,-1,17,19,-1,-1,-1,21,-1,23,-1,-1,-1,-1],"loss_changes":[3.1666794E13,1.8664384E13,3.2361236E12,2.6996923E13,1.2127348E12,9.349104E10,6.9803285E12,0E0,3.0832496E13,0E0,0E0,0E0,0E0,4.580549E12,9.092496E11,0E0,0E0,0E0,3.2916227E12,0E0,7.4846516E11,0E0,0E0,0E0,0E0],"parents":[2147483647,0,0,1,1,2,2,3,3,4,4,5,5,6,6,8,8,13,13,14,14,18,18,20,20],"right_children":[2,4,6,8,10,12,14,-1,16,-1,-1,-1,-1,18,20,-1,-1,-1,22,-1,24,-1,-1,-1,-1],"split_conditions":[4.5E0,-1.3331092E18,3.5E0,-5.158951E18,2.5E0,-8.2969983E18,2.5E0,2.1784473E4,-4.1940277E18,2.5435324E4,5.384382E3,7.006256E3,2.4666045E4,2.5E0,3.5E0,3.3115883E4,7.3446945E4,6.9231885E3,3E0,9.397406E3,6.75E0,8.233845E3,3.834057E4,2.6468154E4,6.607092E3],"split_indices":[13,1,5,1,4,0,18,0,0,0,0,0,0,6,18,0,0,0,11,0,6,0,0,0,0],"split_type":[0,0,0,0,0,0,0,0,0,0,0,0,0,0,0,0,0,0,0,0,0,0,0,0,0],"sum_hessian":[9E1,2.3E1,6.7E1,1.8E1,5E0,1.8E1,4.9E1,4E0,1.4E1,4E0,1E0,1E0,1.7E1,3.5E1,1.4E1,6E0,8E0,1E0,3.4E1,2E0,1.2E1,1E0,3.3E1,1.1E1,1E0],"tree_param":{"num_deleted":"0","num_feature":"41","num_nodes":"25","size_leaf_vector":"0"}},{"base_weights":[3.371318E6,2.6619358E6,3.8116972E6,4.2836655E6,2.9252585E6,5.4745115E6,3.569288E6,2.0356646E6,3.967123E6,2.7682532E6,6.481609E6,3.6517688E6,7.536346E5,2.1474455E6,8.7272644E5,1.9375395E6,4.5601535E6,8.1374225E6,3.8606362E6,8.450369E5,3.733506E6,3.880937E6,1.4078446E6],"categories":[],"categories_nodes":[],"categories_segments":[],"categories_sizes":[],"default_left":[1,0,1,1,1,1,1,1,1,0,1,1,0,0,0,0,0,0,0,0,1,0,0],"id":26,"left_children":[1,-1,3,5,7,9,11,13,15,-1,17,19,-1,-1,-1,-1,-1,-1,-1,-1,21,-1,-1],"loss_changes":[2.140558E13,0E0,1.2571369E13,1.1936251E13,1.4168342E13,1.4762843E13,3.2860862E12,7.577849E10,3.200556E12,0E0,3.3031318E12,2.580403E12,0E0,0E0,0E0,0E0,0E0,0E0,0E0,0E0,2.7652207E12,0E0,0E0],"parents":[2147483647,0,0,2,2,3,3,4,4,5,5,6,6,7,7,8,8,10,10,11,11,20,20],"right_children":[2,-1,4,6,8,10,12,14,16,-1,18,20,-1,-1,-1,-1,-1,-1,-1,-1,22,-1,-1],"split_conditions":[-1.8718698E18,2.6619357E4,-1.3331092E18,2.25E0,3.5E0,-3.4154075E18,8.466688E18,4.5E0,-1.373703E17,2.7682531E4,3.0487324E18,1.5E0,7.536346E3,2.1474455E4,8.727265E3,1.9375395E4,4.5601535E4,8.137423E4,3.8606363E4,8.450368E3,9E0,3.8809367E4,1.4078446E4],"split_indices":[2,0,1,32,4,0,0,22,0,0,0,4,0,0,0,0,0,0,0,0,18,0,0],"split_type":[0,0,0,0,0,0,0,0,0,0,0,0,0,0,0,0,0,0,0,0,0,0,0],"sum_hessian":[1E2,4.1E1,5.9E1,3.6E1,2.3E1,1.1E1,2.5E1,1.4E1,9E0,4E0,7E0,2.4E1,1E0,1.2E1,2E0,3E0,6E0,3E0,4E0,1E0,2.3E1,2.1E1,2E0],"tree_param":{"num_deleted":"0","num_feature":"41","num_nodes":"23","size_leaf_vector":"0"}},{"base_weights":[3.4837382E6,2.9504618E6,4.072417E6,4.6726812E5,3.0369832E6,5.4825775E6,3.478957E6,6.627935E5,3.8108688E4,8.513159E5,3.1534258E6,3.6156132E6,7.845861E6,1.3523622E6,3.2414872E6,3.348807E6,1.691704E6,3.3939065E6,7.4986644E5,2.3729768E6,3.6068872E6,3.781884E6,1.9055292E6],"categories":[],"categories_nodes":[],"categories_segments":[],"categories_sizes":[],"default_left":[1,1,1,1,1,1,0,0,0,0,1,0,0,0,1,1,0,1,0,0,1,0,0],"id":27,"left_children":[1,3,5,7,9,11,-1,-1,-1,-1,13,-1,-1,-1,15,17,-1,19,-1,-1,21,-1,-1],"loss_changes":[1.8121675E13,1.0182797E13,1.6911903E13,2.2647649E11,1.0549681E13,2.0166214E13,0E0,0E0,0E0,0E0,3.3879574E12,0E0,0E0,0E0,1.9856506E12,2.3778684E12,0E0,3.5591186E11,0E0,0E0,2.3209265E12,0E0,0E0],"parents":[2147483647,0,0,1,1,2,2,3,3,4,4,5,5,10,10,14,14,15,15,17,17,20,20],"right_children":[2,4,6,8,10,12,-1,-1,-1,-1,14,-1,-1,-1,16,18,-1,20,-1,-1,22,-1,-1],"split_conditions":[1.5E0,3.5E0,4.5E0,-1.818683E18,1.5E0,4.5E0,3.478957E4,6.627935E3,3.8108685E2,8.513158E3,-8.298472E18,3.6156133E4,7.845861E4,1.3523622E4,4.5E0,8.466688E18,1.691704E4,-4.6182704E18,7.498664E3,2.3729768E4,4.5E0,3.781884E4,1.9055293E4],"split_indices":[24,15,16,0,9,14,0,0,0,0,0,0,0,0,14,0,0,0,0,0,6,0,0],"split_type":[0,0,0,0,0,0,0,0,0,0,0,0,0,0,0,0,0,0,0,0,0,0,0],"sum_hessian":[9.5E1,5.3E1,4.2E1,2E0,5.1E1,1E1,3.2E1,1E0,1E0,3E0,4.8E1,7E0,3E0,3E0,4.5E1,4.1E1,4E0,4E1,1E0,9E0,3.1E1,2.7E1,4E0],"tree_param":{"num_deleted":"0","num_feature":"41","num_nodes":"23","size_leaf_vector":"0"}},{"base_weights":[3.3908708E6,2.9572115E6,4.299989E6,2.5352958E6,3.533703E6,5.33411E6,2.2987175E6,1.9643344E6,2.8416382E6,1.2762895E6,3.7372568E6,6.9033685E6,2.9175888E6,2.0170359E6,4.815021E5,3.5376188E6,2.055053E6,3.7918125E4,1.6764406E6,3.509577E6,7.644679E6,3.958373E6,1.4961394E6,1.289824E6,2.385208E6,3.5566455E6,9.095922E6,6.694328E5,4.220324E6,2.638548E6,9.1456494E5,9.851734E6,2.658431E6],"categories":[],"categories_nodes":[],"categories_segments":[],"categories_sizes":[],"default_left":[1,1,1,1,1,1,0,1,1,1,0,1,0,0,0,1,1,0,0,0,1,1,0,0,1,0,1,0,0,0,0,0,0],"id":28,"left_children":[1,3,5,7,9,11,-1,13,15,17,-1,19,-1,-1,-1,21,23,-1,-1,-1,25,27,-1,-1,29,-1,31,-1,-1,-1,-1,-1,-1],"loss_changes":[3.025697E13,9.769776E12,5.6033754E13,2.8137404E12,9.015338E12,5.949382E13,0E0,5.917408E11,8.6059904E12,1.9185753E12,0E0,3.3606777E12,0E0,0E0,0E0,6.103182E12,9.658056E11,0E0,0E0,0E0,2.1043595E13,6.651713E12,0E0,0E0,1.3126074E12,0E0,3.003021E12,0E0,0E0,0E0,0E0,0E0,0E0],"parents":[2147483647,0,0,1,1,2,2,3,3,4,4,5,5,7,7,8,8,9,9,11,11,15,15,16,16,20,20,21,21,24,24,26,26],"right_children":[2,4,6,8,10,12,-1,14,16,18,-1,20,-1,-1,-1,22,24,-1,-1,-1,26,28,-1,-1,30,-1,32,-1,-1,-1,-1,-1,-1],"split_conditions":[3.5E0,3.5E0,-8.451892E17,1.5E0,3.5E0,7E0,2.2987174E4,4.5E0,1.5E0,-4.9746145E18,3.7372566E4,4.75E0,2.9175887E4,2.0170357E4,4.815021E3,2.5E0,1.5E0,3.7918124E2,1.6764406E4,3.509577E4,-4.1940277E18,-8.8287463E18,1.4961394E4,1.2898239E4,2.5E0,3.5566453E4,5.7805054E18,6.694328E3,4.220324E4,2.6385479E4,9.145649E3,9.8517336E4,2.6584309E4],"split_indices":[9,4,1,23,15,23,0,5,26,3,0,5,0,0,0,25,24,0,0,0,0,0,0,0,9,0,0,0,0,0,0,0,0],"split_type":[0,0,0,0,0,0,0,0,0,0,0,0,0,0,0,0,0,0,0,0,0,0,0,0,0,0,0,0,0,0,0,0,0],"sum_hessian":[1.08E2,7.6E1,3.2E1,4.7E1,2.9E1,2E1,1.2E1,1.9E1,2.8E1,3E0,2.6E1,1.1E1,9E0,1.8E1,1E0,1.3E1,1.5E1,1E0,2E0,3E0,8E0,1E1,3E0,6E0,9E0,3E0,5E0,1E0,9E0,7E0,2E0,4E0,1E0],"tree_param":{"num_deleted":"0","num_feature":"41","num_nodes":"33","size_leaf_vector":"0"}},{"base_weights":[3.5483032E6,2.9341555E6,4.0629385E6,2.5820475E6,3.8197675E6,5.20163E6,3.331042E6,6.46553E5,2.6188745E6,4.1892375E6,1.4381009E6,5.433103E6,7.490279E5,1.4080504E6,3.5554675E6,6.706019E5,2.656453E6,9.2984256E5,5.671331E6,3.6422612E6,6.0601825E5,5.8804335E6,1.3719479E6],"categories":[],"categories_nodes":[],"categories_segments":[],"categories_sizes":[],"default_left":[1,1,1,1,1,1,1,0,1,0,0,1,0,0,1,0,0,0,1,0,0,0,0],"id":29,"left_children":[1,3,5,7,9,11,13,-1,15,-1,-1,17,-1,-1,19,-1,-1,-1,21,-1,-1,-1,-1],"loss_changes":[1.7472464E13,4.4814293E12,2.2676555E13,8.727843E11,3.65495E12,1.3451636E13,8.803878E12,0E0,7.8102974E11,0E0,0E0,1.1891422E13,0E0,0E0,4.960553E12,0E0,0E0,0E0,5.4174973E12,0E0,0E0,0E0,0E0],"parents":[2147483647,0,0,1,1,2,2,3,3,4,4,5,5,6,6,8,8,11,11,14,14,18,18],"right_children":[2,4,6,8,10,12,14,-1,16,-1,-1,18,-1,-1,20,-1,-1,-1,22,-1,-1,-1,-1],"split_conditions":[4.5E0,2.25E0,4.5E0,2.5E0,3.5E0,-1.3331092E18,3.5E0,6.46553E3,-7.2978435E18,4.1892375E4,1.4381009E4,1.5E0,7.490279E3,1.4080504E4,6.75E0,6.7060186E3,2.656453E4,9.298426E3,4.5E0,3.6422613E4,6.060182E3,5.8804332E4,1.3719479E4],"split_indices":[5,31,13,6,4,1,4,0,1,0,0,31,0,0,6,0,0,0,6,0,0,0,0],"split_type":[0,0,0,0,0,0,0,0,0,0,0,0,0,0,0,0,0,0,0,0,0,0,0],"sum_hessian":[9.2E1,4.5E1,4.7E1,3.5E1,1E1,1.6E1,3.1E1,1E0,3.4E1,8E0,2E0,1.5E1,1E0,4E0,2.7E1,1E0,3.3E1,1E0,1.4E1,2.6E1,1E0,1.3E1,1E0],"tree_param":{"num_deleted":"0","num_feature":"41","num_nodes":"23","size_leaf_vector":"0"}},{"base_weights":[3.5542545E6,4.774219E6,3.120062E6,6.0409725E6,2.6500178E6,2.331988E6,3.7223352E6,2.3030932E6,6.9320265E6,6.361121E5,2.8031058E6,2.0629672E6,3.1987538E6,2.067533E6,4.094698E6,7.9625025E6,1.8734154E6,2.9688168E6,7.387089E5,1.4520966E6,2.2759008E6,6.132074E5,2.1726728E6,4.6949335E6,3.181467E6,4.1469395E6,1.0741331E7,2.3958438E6,8.3759025E5],"categories":[],"categories_nodes":[],"categories_segments":[],"categories_sizes":[],"default_left":[1,1,1,1,1,1,1,0,1,0,1,1,0,1,1,1,0,0,0,0,1,0,0,0,0,0,0,0,0],"id":30,"left_children":[1,3,5,7,9,11,13,-1,15,-1,17,19,-1,21,23,25,-1,-1,-1,-1,27,-1,-1,-1,-1,-1,-1,-1,-1],"loss_changes":[3.3306666E13,4.3189755E13,2.4544127E13,2.7333407E13,1.2999574E12,1.0959381E12,1.4949171E13,0E0,3.721069E13,0E0,8.857531E11,3.3727237E11,0E0,4.3868226E10,1.5078355E12,4.0278707E13,0E0,0E0,0E0,0E0,1.2710503E12,0E0,0E0,0E0,0E0,0E0,0E0,0E0,0E0],"parents":[2147483647,0,0,1,1,2,2,3,3,4,4,5,5,6,6,8,8,10,10,11,11,13,13,14,14,15,15,20,20],"right_children":[2,4,6,8,10,12,14,-1,16,-1,18,20,-1,22,24,26,-1,-1,-1,-1,28,-1,-1,-1,-1,-1,-1,-1,-1],"split_conditions":[4.5E0,2.5E0,2.25E0,-4.1940277E18,1.5E0,2.5E0,2.25E0,2.3030932E4,-1.3331092E18,6.361121E3,4.5E0,1.5E0,3.1987537E4,2.5E0,5.5E0,3.5E0,1.8734154E4,2.9688166E4,7.3870884E3,1.4520966E4,3.5E0,6.1320737E3,2.1726727E4,4.6949332E4,3.181467E4,4.1469395E4,1.07413305E5,2.3958438E4,8.375902E3],"split_indices":[13,32,31,0,14,28,32,0,1,0,23,31,0,15,23,9,0,0,0,0,22,0,0,0,0,0,0,0,0],"split_type":[0,0,0,0,0,0,0,0,0,0,0,0,0,0,0,0,0,0,0,0,0,0,0,0,0,0,0,0,0],"sum_hessian":[9E1,2.1E1,6.9E1,1.2E1,9E0,3.2E1,3.7E1,3E0,9E0,1E0,8E0,2.7E1,5E0,8E0,2.9E1,7E0,2E0,7E0,1E0,9E0,1.8E1,1E0,7E0,1.5E1,1.4E1,4E0,3E0,1.6E1,2E0],"tree_param":{"num_deleted":"0","num_feature":"41","num_nodes":"29","size_leaf_vector":"0"}},{"base_weights":[3.4882105E6,2.4280848E6,3.8422012E6,1.6571551E6,2.6535988E6,4.789625E6,3.4026065E6,1.7460338E6,4.7306297E5,1.0976655E6,2.7654988E6,5.440932E6,1.6172575E6,1.8824901E6,3.626051E6,1.9633675E6,7.293552E5,3.4848832E6,7.205876E6,2.0613754E6,2.2570397E5,1.244999E6,3.7632175E6,4.0396182E6,8.4396194E5,7.7648175E6,1.6466424E6,1.0917875E6,2.4247705E6,3.8248618E6,5.870808E5,4.811996E6,2.0642415E6,-1.24083125E4,1.2783512E6,3.9332258E6,1.8120952E6],"categories":[],"categories_nodes":[],"categories_segments":[],"categories_sizes":[],"default_left":[1,1,1,1,1,1,1,1,0,0,0,1,0,1,1,0,0,1,1,1,0,0,1,1,1,0,0,0,0,1,0,0,0,0,0,0,0],"id":31,"left_children":[1,3,5,7,9,11,13,15,-1,-1,-1,17,-1,19,21,-1,-1,23,25,27,-1,-1,29,31,33,-1,-1,-1,-1,35,-1,-1,-1,-1,-1,-1,-1],"loss_changes":[2.8573612E13,4.705338E11,1.4522492E13,1.2117973E11,4.4657594E11,3.4590459E13,1.151568E13,3.3567434E11,0E0,0E0,0E0,3.3577752E13,0E0,2.2021103E12,1.0338456E13,0E0,0E0,1.1240835E13,1.2072448E13,1.7141282E11,0E0,0E0,6.1734786E12,2.272776E12,1.1318567E12,0E0,0E0,0E0,0E0,2.0333315E12,0E0,0E0,0E0,0E0,0E0,0E0,0E0],"parents":[2147483647,0,0,1,1,2,2,3,3,4,4,5,5,6,6,7,7,11,11,13,13,14,14,17,17,18,18,19,19,22,22,23,23,24,24,29,29],"right_children":[2,4,6,8,10,12,14,16,-1,-1,-1,18,-1,20,22,-1,-1,24,26,28,-1,-1,30,32,34,-1,-1,-1,-1,36,-1,-1,-1,-1,-1,-1,-1],"split_conditions":[3.5E0,1.5E0,2.25E0,2.5E0,2.5E0,-1.3331092E18,1.5E0,5.4994955E18,4.7306294E3,1.0976654E4,2.7654986E4,3.5E0,1.6172574E4,3.8088465E18,3.5E0,1.9633674E4,7.293552E3,3.5E0,4.5E0,-3.8945334E18,2.2570396E3,1.2449989E4,6.75E0,4.5E0,-4.9746145E18,7.764817E4,1.6466424E4,1.0917875E4,2.4247705E4,1.75E1,5.870808E3,4.8119957E4,2.0642414E4,-1.2408312E2,1.2783513E4,3.9332258E4,1.8120951E4],"split_indices":[5,9,32,8,32,1,31,1,0,0,0,9,0,1,11,0,0,14,6,1,0,0,6,25,3,0,0,0,0,35,0,0,0,0,0,0,0],"split_type":[0,0,0,0,0,0,0,0,0,0,0,0,0,0,0,0,0,0,0,0,0,0,0,0,0,0,0,0,0,0,0,0,0,0,0,0,0],"sum_hessian":[1E2,2.7E1,7.3E1,8E0,1.9E1,2E1,5.3E1,7E0,1E0,2E0,1.7E1,1.6E1,4E0,8E0,4.5E1,5E0,2E0,9E0,7E0,7E0,1E0,3E0,4.2E1,7E0,2E0,6E0,1E0,3E0,4E0,4.1E1,1E0,4E0,3E0,1E0,1E0,3.8E1,3E0],"tree_param":{"num_deleted":"0","num_feature":"41","num_nodes":"37","size_leaf_vector":"0"}},{"base_weights":[3.361721E6,4.674825E6,2.91459E6,2.7404578E6,5.652748E6,1.6605445E6,3.0341875E6,2.001416E6,6.798558E6,7.612895E5,1.9832905E6,6.1676425E5,3.060284E6,8.638093E6,2.8634978E6,2.164216E6,5.393312E5,3.0851305E6,6.8536544E5,2.5593735E6,9.22465E6,7.585321E5,3.1085342E6,3.1301485E6,8.409969E5],"categories":[],"categories_nodes":[],"categories_segments":[],"categories_sizes":[],"default_left":[1,1,1,0,1,1,1,0,1,0,1,0,1,1,0,0,0,1,0,0,0,0,1,0,0],"id":32,"left_children":[1,3,5,-1,7,9,11,-1,13,-1,15,-1,17,19,-1,-1,-1,21,-1,-1,-1,-1,23,-1,-1],"loss_changes":[4.567483E13,2.9908777E13,6.660085E12,0E0,4.9149257E13,1.102219E12,2.528595E12,0E0,5.489032E13,0E0,4.0026663E11,0E0,1.9570958E12,1.3493244E12,0E0,0E0,0E0,1.3447945E12,0E0,0E0,0E0,0E0,6.512244E11,0E0,0E0],"parents":[2147483647,0,0,1,1,2,2,4,4,5,5,6,6,8,8,10,10,12,12,13,13,17,17,22,22],"right_children":[2,4,6,-1,8,10,12,-1,14,-1,16,-1,18,20,-1,-1,-1,22,-1,-1,-1,-1,24,-1,-1],"split_conditions":[4.5E0,4.5E0,1.5E0,2.7404576E4,-4.3584355E18,1.5E0,-8.952512E18,2.001416E4,5.583633E18,7.612895E3,6.135194E18,6.1676426E3,8.466688E18,-4.3928005E18,2.8634977E4,2.164216E4,5.3933115E3,2.5E0,6.8536543E3,2.5593734E4,9.22465E4,7.5853213E3,1.05E1,3.1301484E4,8.409969E3],"split_indices":[13,5,9,0,0,31,0,0,0,0,1,0,0,1,0,0,0,11,0,0,0,0,20,0,0],"split_type":[0,0,0,0,0,0,0,0,0,0,0,0,0,0,0,0,0,0,0,0,0,0,0,0,0],"sum_hessian":[1E2,2.3E1,7.7E1,9E0,1.4E1,8E0,6.9E1,4E0,1E1,3E0,5E0,1E0,6.8E1,6E0,4E0,4E0,1E0,6.7E1,1E0,1E0,5E0,1E0,6.6E1,6.5E1,1E0],"tree_param":{"num_deleted":"0","num_feature":"41","num_nodes":"25","size_leaf_vector":"0"}},{"base_weights":[3.2838658E6,1.7868421E6,3.4886435E6,1.1930274E6,2.1253938E6,7.003059E6,3.3538042E6,6.160564E5,2.274274E6,3.3796475E6,6.819386E5,3.5955525E6,2.5845405E6,3.638685E6,5.684946E5,1.2937414E6,2.7362262E6,1.8915696E6,3.734853E6,8.31108E5,2.321508E6,3.8844265E6,2.4079475E6,1.3051315E6,-5.84695E4,3.9200462E6,1.14077E6],"categories":[],"categories_nodes":[],"categories_segments":[],"categories_sizes":[],"default_left":[1,1,1,0,1,0,1,0,0,1,0,1,1,1,0,0,0,1,1,1,0,1,0,0,0,0,0],"id":33,"left_children":[1,3,5,-1,7,-1,9,-1,-1,11,-1,13,15,17,-1,-1,-1,19,21,23,-1,25,-1,-1,-1,-1,-1],"loss_changes":[2.166301E13,7.7829505E10,1.3949718E13,0E0,1.7189097E11,0E0,3.0811693E12,0E0,0E0,3.925533E12,0E0,5.504202E12,3.7594386E11,2.5121532E12,0E0,0E0,0E0,3.5024116E11,1.1654796E12,1.341352E12,0E0,2.362232E10,0E0,0E0,0E0,0E0,0E0],"parents":[2147483647,0,0,1,1,2,2,4,4,6,6,9,9,11,11,12,12,13,13,17,17,18,18,19,19,21,21],"right_children":[2,4,6,-1,8,-1,10,-1,-1,12,-1,14,16,18,-1,-1,-1,20,22,24,-1,26,-1,-1,-1,-1,-1],"split_conditions":[1.5E0,2.5E0,5E-1,1.1930273E4,1.5E0,7.0030586E4,8.8714107E18,6.1605635E3,2.274274E4,4.5E0,6.819386E3,6.75E0,2.75E0,3.5E0,5.6849463E3,1.2937413E4,2.7362262E4,-4.9746145E18,7E0,-4.3533984E18,2.321508E4,4.5E0,2.4079475E4,1.3051314E4,-5.84695E2,3.920046E4,1.14077E4],"split_indices":[31,22,32,0,8,0,0,0,0,14,0,6,31,15,0,0,0,3,23,0,0,17,0,0,0,0,0],"split_type":[0,0,0,0,0,0,0,0,0,0,0,0,0,0,0,0,0,0,0,0,0,0,0,0,0,0,0],"sum_hessian":[9E1,1.2E1,7.8E1,6E0,6E0,1E0,7.7E1,1E0,5E0,7.6E1,1E0,5.7E1,1.9E1,5.6E1,1E0,3E0,1.6E1,4E0,5.2E1,2E0,2E0,4.5E1,7E0,1E0,1E0,4.4E1,1E0],"tree_param":{"num_deleted":"0","num_feature":"41","num_nodes":"27","size_leaf_vector":"0"}},{"base_weights":[3.2214085E6,2.5286865E6,3.7725438E6,1.7741266E6,2.7458528E6,4.3671595E6,2.5452425E6,1.3096765E6,2.6078325E6,6.061912E5,2.7884492E6,6.191352E6,3.2438928E6,1.9704786E6,3.9903912E6,2.0295956E5,1.4000522E6,2.2902935E6,7.1326405E6,4.1543935E6,2.2317568E6,4.3105416E5,4.772462E6,9.0015E6,3.46348E6,2.6737042E6,5.1894655E6,2.3164068E6,5.656522E5,9.772338E6,2.5736552E6,6.753078E5,2.3968895E6,2.4914195E6,6.7852894E5],"categories":[],"categories_nodes":[],"categories_segments":[],"categories_sizes":[],"default_left":[1,1,1,1,1,1,1,1,0,0,0,1,1,0,1,0,0,0,1,1,1,0,0,1,0,0,0,1,0,0,0,0,1,0,0],"id":34,"left_children":[1,3,5,7,9,11,13,15,-1,-1,-1,17,19,-1,21,-1,-1,-1,23,25,27,-1,-1,29,-1,-1,-1,31,-1,-1,-1,-1,33,-1,-1],"loss_changes":[3.0929469E13,3.3217546E12,3.0481517E13,2.0055861E12,1.6819327E12,5.573096E13,9.580034E12,8.1606895E11,0E0,0E0,0E0,3.1400439E13,1.3767165E13,0E0,1.1861072E13,0E0,0E0,0E0,3.739497E13,4.5163427E12,6.642184E11,0E0,0E0,4.578301E12,0E0,0E0,0E0,9.839837E10,0E0,0E0,0E0,0E0,2.5874661E11,0E0,0E0],"parents":[2147483647,0,0,1,1,2,2,3,3,4,4,5,5,6,6,7,7,11,11,12,12,14,14,18,18,19,19,20,20,23,23,27,27,32,32],"right_children":[2,4,6,8,10,12,14,16,-1,-1,-1,18,20,-1,22,-1,-1,-1,24,26,28,-1,-1,30,-1,-1,-1,32,-1,-1,-1,-1,34,-1,-1],"split_conditions":[-1.8718698E18,1.5E0,-1.3331092E18,5E-1,-8.2969983E18,2.25E0,4.0956005E18,-5.200679E18,2.6078324E4,6.0619116E3,2.7884492E4,-3.4154075E18,-4.9746145E18,1.9704785E4,1.5E0,2.0295956E3,1.4000522E4,2.2902934E4,4.5E0,1.5E0,6.75E0,4.3105415E3,4.7724617E4,5.583633E18,3.46348E4,2.6737041E4,5.1894652E4,3.5E0,5.656522E3,9.7723375E4,2.5736553E4,6.753078E3,8.4448716E18,2.4914195E4,6.785289E3],"split_indices":[2,31,1,18,0,32,0,0,0,0,0,0,3,0,22,0,0,0,11,8,6,0,0,0,0,0,0,15,0,0,0,0,0,0,0],"split_type":[0,0,0,0,0,0,0,0,0,0,0,0,0,0,0,0,0,0,0,0,0,0,0,0,0,0,0,0,0,0,0,0,0,0,0],"sum_hessian":[1.05E2,4.9E1,5.6E1,1.3E1,3.6E1,3.6E1,2E1,1E1,3E0,1E0,3.5E1,1.2E1,2.4E1,1.6E1,4E0,1E0,9E0,3E0,9E0,1.1E1,1.3E1,1E0,3E0,5E0,4E0,6E0,5E0,1.2E1,1E0,4E0,1E0,1E0,1.1E1,1E1,1E0],"tree_param":{"num_deleted":"0","num_feature":"41","num_nodes":"35","size_leaf_vector":"0"}},{"base_weights":[2.893955E6,1.8756131E6,3.0996368E6,1.988716E6,9.5429825E5,3.7707045E6,2.7800818E6,1.5001391E6,2.5529878E6,2.9762245E6,6.800428E6,5.649444E5,2.8090325E6,3.5351972E6,1.4331038E6,2.8301832E6,8.12295E5,2.0902412E5,1.8809309E6,4.20575E5,-1.0703881E5],"categories":[],"categories_nodes":[],"categories_segments":[],"categories_sizes":[],"default_left":[1,1,1,1,0,1,1,0,0,1,0,0,1,0,1,0,0,1,0,0,0],"id":35,"left_children":[1,3,5,7,-1,9,11,-1,-1,13,-1,-1,15,-1,17,-1,-1,19,-1,-1,-1],"loss_changes":[1.4712746E13,8.203639E10,6.6726343E12,5.812005E11,0E0,3.5122632E13,2.1325855E12,0E0,0E0,1.2184956E13,0E0,0E0,1.0831371E11,0E0,3.444073E12,0E0,0E0,2.4560805E11,0E0,0E0,0E0],"parents":[2147483647,0,0,1,1,2,2,3,3,5,5,6,6,9,9,12,12,14,14,17,17],"right_children":[2,4,6,8,-1,10,12,-1,-1,14,-1,-1,16,-1,18,-1,-1,20,-1,-1,-1],"split_conditions":[1.5E0,4.5E0,4.5E0,3.5E0,9.542982E3,4.5E0,3E0,1.5001391E4,2.5529877E4,2.5E0,6.800428E4,5.649444E3,1.2E1,3.5351973E4,-4.9746145E18,2.8301832E4,8.1229497E3,4E0,1.8809309E4,4.20575E3,-1.0703881E3],"split_indices":[31,5,13,5,0,31,15,0,0,25,0,0,20,0,3,0,0,4,0,0,0],"split_type":[0,0,0,0,0,0,0,0,0,0,0,0,0,0,0,0,0,0,0,0,0],"sum_hessian":[9.7E1,1.8E1,7.9E1,1.5E1,3E0,2.2E1,5.7E1,1E1,5E0,1.9E1,3E0,1E0,5.6E1,1.3E1,6E0,5.5E1,1E0,2E0,4E0,1E0,1E0],"tree_param":{"num_deleted":"0","num_feature":"41","num_nodes":"21","size_leaf_vector":"0"}},{"base_weights":[3.2537265E6,4.288234E6,2.868721E6,5.513239E6,2.5449028E6,2.10802E6,3.1340332E6,6.376288E6,1.545781E6,3.0201285E6,1.1805159E6,1.3995801E6,2.3747662E6,5.621197E5,3.1692928E6,2.1540725E6,7.544352E6,1.78206E6,4.1847212E5,5.563374E5,3.2585602E6,5.890093E5,2.4545492E6,5.768983E5,3.2052838E6,4.2964115E6,9.283423E6,3.2395258E6,6.609854E5,1.0383069E7,2.442418E6,1.6584671E6,3.3310115E6,3.3653022E6,8.0823356E5],"categories":[],"categories_nodes":[],"categories_segments":[],"categories_sizes":[],"default_left":[1,1,1,1,1,1,1,1,1,1,0,0,1,0,1,0,1,0,0,0,0,0,0,0,1,0,1,1,0,0,0,0,1,0,0],"id":36,"left_children":[1,3,5,7,9,11,13,15,17,19,-1,-1,21,-1,23,-1,25,-1,-1,-1,-1,-1,-1,-1,27,-1,29,31,-1,-1,-1,-1,33,-1,-1],"loss_changes":[3.0315356E13,4.3630258E13,9.741053E12,4.1505322E13,4.8637904E12,1.2116841E12,3.4781853E12,4.2930715E13,3.196951E11,3.4741504E12,0E0,0E0,8.3381925E11,0E0,3.4691256E12,0E0,1.0950187E13,0E0,0E0,0E0,0E0,0E0,0E0,0E0,2.737572E12,0E0,1.2253642E13,2.4310857E12,0E0,0E0,0E0,0E0,1.6919487E12,0E0,0E0],"parents":[2147483647,0,0,1,1,2,2,3,3,4,4,5,5,6,6,7,7,8,8,9,9,12,12,14,14,16,16,24,24,26,26,27,27,32,32],"right_children":[2,4,6,8,10,12,14,16,18,20,-1,-1,22,-1,24,-1,26,-1,-1,-1,-1,-1,-1,-1,28,-1,30,32,-1,-1,-1,-1,34,-1,-1],"split_conditions":[4.5E0,2.5E0,3.5E0,2.5E0,4.5E0,1.5E0,2.5E0,-4.1940277E18,4.5E0,1.5E0,1.1805158E4,1.3995801E4,-8.363307E18,5.621197E3,-8.952512E18,2.1540725E4,3.5E0,1.78206E4,4.184721E3,5.5633735E3,3.2585602E4,5.890093E3,2.4545492E4,5.768983E3,8.466688E18,4.2964113E4,5.7805054E18,3.5E0,6.6098535E3,1.0383069E5,2.442418E4,1.658467E4,1.2E1,3.3653023E4,8.0823354E3],"split_indices":[13,32,5,8,14,23,15,0,5,14,0,0,0,0,0,0,9,0,0,0,0,0,0,0,0,0,0,11,0,0,0,0,20,0,0],"split_type":[0,0,0,0,0,0,0,0,0,0,0,0,0,0,0,0,0,0,0,0,0,0,0,0,0,0,0,0,0,0,0,0,0,0,0],"sum_hessian":[1.06E2,2.6E1,8E1,1.4E1,1.2E1,2.3E1,5.7E1,1.1E1,3E0,8E0,4E0,8E0,1.5E1,1E0,5.6E1,3E0,8E0,2E0,1E0,1E0,7E0,1E0,1.4E1,1E0,5.5E1,4E0,4E0,5.4E1,1E0,3E0,1E0,4E0,5E1,4.9E1,1E0],"tree_param":{"num_deleted":"0","num_feature":"41","num_nodes":"35","size_leaf_vector":"0"}},{"base_weights":[3.2664995E6,2.6034282E6,3.869026E6,1.7948634E6,2.760063E6,6.42442E6,3.3637262E6,1.8883664E6,4.766684E5,5.535557E5,2.8086792E6,6.9760875E6,1.8330412E6,2.0852708E6,3.9451125E6,1.0921294E6,2.8818345E6,2.6440858E6,8.995034E5,4.443057E6,2.5662042E6,2.9571238E6,1.168331E6,5.843779E5,2.828502E6,1.922627E5,1.205058E6,8.526575E5,4.614166E6,1.49837E6,3.0637122E6,3.044665E6,6.5768044E5,4.1637975E5,-1.2798569E5,8.593609E5,4.8071955E6,1.6913802E6,4.596697E5,4.971451E6,1.2538092E6,5.4130295E6,2.5142478E6],"categories":[],"categories_nodes":[],"categories_segments":[],"categories_sizes":[],"default_left":[1,1,1,1,1,1,1,0,0,0,1,0,0,1,1,0,1,1,1,1,0,1,0,0,1,1,0,0,1,1,0,0,0,0,0,0,1,0,0,1,0,0,0],"id":37,"left_children":[1,3,5,7,9,11,13,-1,-1,-1,15,-1,-1,17,19,-1,21,23,25,27,-1,29,-1,-1,31,33,-1,-1,35,37,-1,-1,-1,-1,-1,-1,39,-1,-1,41,-1,-1,-1],"loss_changes":[2.4285825E13,6.1864306E11,3.391333E13,3.3242585E11,2.1997782E12,2.4100303E12,2.001787E13,0E0,0E0,0E0,1.1222112E12,0E0,0E0,6.89838E12,5.763712E12,0E0,6.7337034E11,1.7656803E12,1.0649165E12,6.509627E12,0E0,7.402108E10,0E0,0E0,1.7515917E12,2.6861001E11,0E0,0E0,7.465492E12,2.4443355E10,0E0,0E0,0E0,0E0,0E0,0E0,2.5217162E12,0E0,0E0,1.5809842E12,0E0,0E0,0E0],"parents":[2147483647,0,0,1,1,2,2,3,3,4,4,5,5,6,6,10,10,13,13,14,14,16,16,17,17,18,18,19,19,21,21,24,24,25,25,28,28,29,29,36,36,39,39],"right_children":[2,4,6,8,10,12,14,-1,-1,-1,16,-1,-1,18,20,-1,22,24,26,28,-1,30,-1,-1,32,34,-1,-1,36,38,-1,-1,-1,-1,-1,-1,40,-1,-1,42,-1,-1,-1],"split_conditions":[4.75E0,2.5E0,1.5E0,3E0,3.5E0,5.5E0,2.5E0,1.8883664E4,4.766684E3,5.5355566E3,3.5E0,6.9760875E4,1.8330412E4,1.5E0,4.5E0,1.0921294E4,5.5E0,1.5E0,-4.9746145E18,1.5E0,2.5662041E4,1.5E0,1.168331E4,5.843779E3,4E0,3.5E0,1.205058E4,8.526575E3,2.5E0,-4.9746145E18,3.0637121E4,3.0446648E4,6.576804E3,4.1637974E3,-1.2798568E3,8.593608E3,3E0,1.6913803E4,4.596697E3,2.5E0,1.2538092E4,5.4130293E4,2.5142477E4],"split_indices":[5,10,25,22,15,5,26,0,0,0,11,0,0,8,29,0,14,31,3,31,0,9,0,0,29,6,0,0,22,3,0,0,0,0,0,0,8,0,0,40,0,0,0],"split_type":[0,0,0,0,0,0,0,0,0,0,0,0,0,0,0,0,0,0,0,0,0,0,0,0,0,0,0,0,0,0,0,0,0,0,0,0,0,0,0,0,0,0,0],"sum_hessian":[8.5E1,4.3E1,4.2E1,9E0,3.4E1,5E0,3.7E1,8E0,1E0,1E0,3.3E1,4E0,1E0,1.3E1,2.4E1,2E0,3.1E1,8E0,5E0,1.6E1,8E0,2.9E1,2E0,1E0,7E0,2E0,3E0,1E0,1.5E1,3E0,2.6E1,6E0,1E0,1E0,1E0,1E0,1.4E1,2E0,1E0,1.3E1,1E0,1E1,3E0],"tree_param":{"num_deleted":"0","num_feature":"41","num_nodes":"43","size_leaf_vector":"0"}},{"base_weights":[3.098456E6,4.407386E6,2.6224122E6,3.637247E6,8.0725175E6,1.0715118E6,2.703874E6,2.102934E6,5.278859E6,2.7307425E6,5.190155E5,1.0834851E6,2.9418022E6,6.7391725E5,5.770237E6,5.532838E5,2.7573682E6,1.3065145E6,-1.2734575E5,5.570747E5,2.7847552E6,2.8097718E6,6.54392E5,7.064246E5,2.8338568E6],"categories":[],"categories_nodes":[],"categories_segments":[],"categories_sizes":[],"default_left":[1,1,1,1,0,0,1,1,1,1,0,1,0,0,0,0,1,0,0,0,1,1,0,0,0],"id":38,"left_children":[1,3,5,7,-1,-1,9,11,13,15,-1,17,-1,-1,-1,-1,19,-1,-1,-1,21,23,-1,-1,-1],"loss_changes":[4.327542E13,3.2736811E13,5.5674856E12,3.9273835E13,0E0,0E0,2.2810638E12,7.074801E12,1.647625E13,2.0689327E12,0E0,2.0567357E12,0E0,0E0,0E0,0E0,2.1244989E12,0E0,0E0,0E0,1.358921E12,9.8697006E11,0E0,0E0,0E0],"parents":[2147483647,0,0,1,1,2,2,3,3,6,6,7,7,8,8,9,9,11,11,16,16,20,20,21,21],"right_children":[2,4,6,8,-1,-1,10,12,14,16,-1,18,-1,-1,-1,-1,20,-1,-1,-1,22,24,-1,-1,-1],"split_conditions":[4.5E0,4E0,-6.7130886E18,4.5E0,8.072517E4,1.0715117E4,6.75E0,1.5E0,3.5E0,2.5E0,5.190155E3,-1.7448856E18,2.9418021E4,6.7391724E3,5.7702367E4,5.532838E3,2.5E0,1.3065145E4,-1.2734575E3,5.5707466E3,8.466688E18,2.5E0,6.54392E3,7.064246E3,2.8338566E4],"split_indices":[13,24,0,12,0,0,6,24,11,15,0,0,0,0,0,0,6,0,0,0,0,11,0,0,0],"split_type":[0,0,0,0,0,0,0,0,0,0,0,0,0,0,0,0,0,0,0,0,0,0,0,0,0],"sum_hessian":[8.7E1,2.1E1,6.6E1,1.9E1,2E0,4E0,6.2E1,1.1E1,8E0,6.1E1,1E0,6E0,5E0,1E0,7E0,1E0,6E1,5E0,1E0,1E0,5.9E1,5.8E1,1E0,1E0,5.7E1],"tree_param":{"num_deleted":"0","num_feature":"41","num_nodes":"25","size_leaf_vector":"0"}},{"base_weights":[2.9688168E6,1.9907985E6,3.133626E6,6.579998E5,2.269165E6,1.7917085E6,3.2755885E6,7.8208944E5,1.4286547E5,2.3714192E6,5.721838E5,2.0473492E6,-1.26709E5,3.3030655E6,7.860038E5,9.355468E5,2.5865522E6,2.182537E6,5.505174E5,9.2142894E5,3.3270035E6],"categories":[],"categories_nodes":[],"categories_segments":[],"categories_sizes":[],"default_left":[1,1,1,1,1,1,1,0,0,1,0,1,0,1,0,0,0,0,0,0,0],"id":39,"left_children":[1,3,5,7,9,11,13,-1,-1,15,-1,17,-1,19,-1,-1,-1,-1,-1,-1,-1],"loss_changes":[7.4625057E12,4.0719813E12,7.6567187E12,1.4395769E11,7.253965E11,4.6732474E12,1.7133564E12,0E0,0E0,9.780991E11,0E0,4.173018E11,0E0,4.6909096E11,0E0,0E0,0E0,0E0,0E0,0E0,0E0],"parents":[2147483647,0,0,1,1,2,2,3,3,4,4,5,5,6,6,9,9,11,11,13,13],"right_children":[2,4,6,8,10,12,14,-1,-1,16,-1,18,-1,20,-1,-1,-1,-1,-1,-1,-1],"split_conditions":[1.5E0,-5.558856E18,1.5E0,-6.726543E18,4.925701E18,4.5E0,1.2E1,7.820894E3,1.4286547E3,-5.584054E18,5.721838E3,2.5E0,-1.26709E3,-7.92255E18,7.860038E3,9.355468E3,2.5865521E4,2.182537E4,5.505174E3,9.214289E3,3.3270035E4],"split_indices":[31,0,32,0,0,4,17,0,0,1,0,8,0,1,0,0,0,0,0,0,0],"split_type":[0,0,0,0,0,0,0,0,0,0,0,0,0,0,0,0,0,0,0,0,0],"sum_hessian":[8.4E1,1.4E1,7E1,3E0,1.1E1,8E0,6.2E1,2E0,1E0,1E1,1E0,7E0,1E0,6.1E1,1E0,2E0,8E0,6E0,1E0,1E0,6E1],"tree_param":{"num_deleted":"0","num_feature":"41","num_nodes":"21","size_leaf_vector":"0"}},{"base_weights":[3.2245955E6,2.3998452E6,4.0135482E6,2.4949518E6,1.3499764E6,5.4746525E6,3.3606148E6,2.1253248E6,2.9939502E6,2.0991328E6,7.5858615E6,3.750923E6,2.0878135E6,8.6394525E5,2.2469995E6,1.6810479E6,3.4822965E6,-1.2607544E5,2.5693895E6,1.189695E6,8.453607E6,3.4531838E5,3.883979E6,2.3261992E6,7.5618025E5,9.198977E6,2.3633768E6,1.00288906E6,3.9693518E6],"categories":[],"categories_nodes":[],"categories_segments":[],"categories_sizes":[],"default_left":[1,1,1,1,0,1,1,1,1,1,1,1,1,0,0,0,0,0,0,0,1,0,1,0,0,0,0,0,0],"id":40,"left_children":[1,3,5,7,-1,9,11,13,15,17,19,21,23,-1,-1,-1,-1,-1,-1,-1,25,-1,27,-1,-1,-1,-1,-1,-1],"loss_changes":[4.827939E13,1.2249549E12,2.3577961E13,1.1990676E12,0E0,6.95934E13,8.562655E12,2.202622E12,3.7633644E12,6.602453E12,2.87945E13,9.534089E12,1.4153972E12,0E0,0E0,0E0,0E0,0E0,0E0,0E0,5.496216E12,0E0,1.676413E12,0E0,0E0,0E0,0E0,0E0,0E0],"parents":[2147483647,0,0,1,1,2,2,3,3,5,5,6,6,7,7,8,8,9,9,10,10,11,11,12,12,20,20,22,22],"right_children":[2,4,6,8,-1,10,12,14,16,18,20,22,24,-1,-1,-1,-1,-1,-1,-1,26,-1,28,-1,-1,-1,-1,-1,-1],"split_conditions":[4.75E0,2.5E0,4.5E0,-2.1922061E18,1.3499764E4,3.5E0,4.5E0,-4.6082885E18,3.5E0,2.5E0,-5.4307007E18,1.5E0,3.772139E18,8.639452E3,2.2469994E4,1.6810479E4,3.4822965E4,-1.2607544E3,2.5693895E4,1.189695E4,5.7805054E18,3.4531836E3,3.5E0,2.3261992E4,7.5618022E3,9.1989766E4,2.3633768E4,1.0028891E4,3.9693516E4],"split_indices":[5,25,13,0,0,9,29,1,5,9,0,31,0,0,0,0,0,0,0,0,0,0,11,0,0,0,0,0,0],"split_type":[0,0,0,0,0,0,0,0,0,0,0,0,0,0,0,0,0,0,0,0,0,0,0,0,0,0,0,0,0],"sum_hessian":[8.8E1,4.5E1,4.3E1,4E1,5E0,1.1E1,3.2E1,2.6E1,1.4E1,5E0,6E0,2.3E1,9E0,3E0,2.3E1,5E0,9E0,1E0,4E0,1E0,5E0,1E0,2.2E1,7E0,2E0,4E0,1E0,1E0,2.1E1],"tree_param":{"num_deleted":"0","num_feature":"41","num_nodes":"29","size_leaf_vector":"0"}},{"base_weights":[3.300616E6,2.0934876E6,3.6791735E6,1.3748365E6,2.3508038E6,2.798595E6,4.0428135E6,3.995486E5,1.446804E6,5.3238294E5,2.8739788E6,4.690813E6,2.806877E6,1.258381E6,3.0533995E6,6.2903505E6,3.4336935E6,1.8395699E6,3.677266E6,1.3091616E5,1.590564E6,8.8743844E5,3.1206902E6,1.9348998E6,7.527179E6,3.5564972E6,6.116138E5,5.2791806E5,4.0049448E6,8.3115325E6,3.1879608E6,3.6750625E6,7.7044275E5,9.424841E6,3.6855065E6],"categories":[],"categories_nodes":[],"categories_segments":[],"categories_sizes":[],"default_left":[1,1,1,1,0,1,1,0,0,0,1,1,1,1,1,1,1,0,1,0,0,0,0,0,1,1,0,0,0,1,0,0,0,0,0],"id":41,"left_children":[1,3,5,7,-1,9,11,-1,-1,-1,13,15,17,19,21,23,25,-1,27,-1,-1,-1,-1,-1,29,31,-1,-1,-1,33,-1,-1,-1,-1,-1],"loss_changes":[3.5709566E13,1.3910325E12,1.1420989E13,5.3631517E10,0E0,2.5700178E12,2.5276017E13,0E0,0E0,0E0,2.824696E12,3.872517E13,9.23215E12,1.2898675E12,1.4555913E11,5.0078983E13,4.409472E12,0E0,7.1734846E12,0E0,0E0,0E0,0E0,0E0,4.1344764E12,3.1145056E12,0E0,0E0,0E0,1.3160384E12,0E0,0E0,0E0,0E0,0E0],"parents":[2147483647,0,0,1,1,2,2,3,3,5,5,6,6,10,10,11,11,12,12,13,13,14,14,15,15,16,16,18,18,24,24,25,25,29,29],"right_children":[2,4,6,8,-1,10,12,-1,-1,-1,14,16,18,20,22,24,26,-1,28,-1,-1,-1,-1,-1,30,32,-1,-1,-1,34,-1,-1,-1,-1,-1],"split_conditions":[3.5E0,1.5E0,-1.8718698E18,-4.6082885E18,2.3508037E4,-8.576726E18,-1.3331092E18,3.9954858E3,1.446804E4,5.323829E3,1.5E0,2.25E0,1.2930334E18,-5.558856E18,3.5E0,-3.4154075E18,6.3083276E18,1.83957E4,3E0,1.3091615E3,1.590564E4,8.874384E3,3.1206902E4,1.9348996E4,5.583633E18,1.35E1,6.116138E3,5.2791807E3,4.0049445E4,4.5E0,3.1879607E4,3.6750625E4,7.7044272E3,9.424841E4,3.6855062E4],"split_indices":[5,31,2,1,0,0,1,0,0,0,31,32,0,0,11,0,0,0,15,0,0,0,0,0,0,17,0,0,0,11,0,0,0,0,0],"split_type":[0,0,0,0,0,0,0,0,0,0,0,0,0,0,0,0,0,0,0,0,0,0,0,0,0,0,0,0,0,0,0,0,0,0,0],"sum_hessian":[9.4E1,2.4E1,7E1,8E0,1.6E1,2.3E1,4.7E1,1E0,7E0,1E0,2.2E1,2.9E1,1.8E1,3E0,1.9E1,1.1E1,1.8E1,1E1,8E0,1E0,2E0,1E0,1.8E1,3E0,8E0,1.7E1,1E0,1E0,7E0,6E0,2E0,1.6E1,1E0,4E0,2E0],"tree_param":{"num_deleted":"0","num_feature":"41","num_nodes":"35","size_leaf_vector":"0"}},{"base_weights":[2.9905298E6,3.4431775E6,2.2999078E6,4.6005015E6,2.9055568E6,1.9985381E6,2.9119015E6,6.006728E6,2.6831078E6,1.9629249E6,3.3404338E6,8.24954E5,2.0492786E6,1.5498746E6,7.058704E6,5.0769716E5,2.891572E6,1.054631E6,2.2799102E6,3.820223E6,2.382363E6,1.6830186E6,2.5289078E6,3.3582435E6,9.943713E5,1.5008326E6,4.0294195E6,2.5120998E6,4.776292E5,1.7717489E6,5.8963075E5,2.6560515E6,6.28736E5],"categories":[],"categories_nodes":[],"categories_segments":[],"categories_sizes":[],"default_left":[1,1,1,1,1,1,0,1,1,1,1,0,1,0,0,0,1,0,0,1,1,1,1,0,0,0,0,0,0,0,0,0,0],"id":42,"left_children":[1,3,5,7,9,11,-1,13,15,17,19,-1,21,-1,-1,-1,23,-1,-1,25,27,29,31,-1,-1,-1,-1,-1,-1,-1,-1,-1,-1],"loss_changes":[2.3654465E13,2.3342879E13,2.1112281E12,2.9720234E13,1.1069909E13,2.1497486E11,0E0,3.1256423E13,2.6134163E12,2.2021858E12,3.7696727E12,0E0,1.0138723E12,0E0,0E0,0E0,3.7436135E12,0E0,0E0,2.2010533E12,1.7655168E12,8.956517E11,9.875824E11,0E0,0E0,0E0,0E0,0E0,0E0,0E0,0E0,0E0,0E0],"parents":[2147483647,0,0,1,1,2,2,3,3,4,4,5,5,7,7,8,8,9,9,10,10,12,12,16,16,19,19,20,20,21,21,22,22],"right_children":[2,4,6,8,10,12,-1,14,16,18,20,-1,22,-1,-1,-1,24,-1,-1,26,28,30,32,-1,-1,-1,-1,-1,-1,-1,-1,-1,-1],"split_conditions":[-8.451892E17,4.5E0,3.5E0,2.5E0,2.75E0,1.5E0,2.9119014E4,-5.4307007E18,1.5E0,-3.0409322E18,2.5E0,8.24954E3,-4.9746145E18,1.5498746E4,7.058704E4,5.0769717E3,4.5E0,1.054631E4,2.2799102E4,1.75E0,4.8843594E18,5.6112625E18,4.5E0,3.3582434E4,9.943713E3,1.5008326E4,4.0294195E4,2.5120996E4,4.776292E3,1.7717488E4,5.896307E3,2.6560514E4,6.28736E3],"split_indices":[1,13,4,32,31,32,0,0,14,0,17,0,3,0,0,0,14,0,0,32,0,1,14,0,0,0,0,0,0,0,0,0,0],"split_type":[0,0,0,0,0,0,0,0,0,0,0,0,0,0,0,0,0,0,0,0,0,0,0,0,0,0,0,0,0,0,0,0,0],"sum_hessian":[1E2,5.8E1,4.2E1,1.6E1,4.2E1,3.1E1,1.1E1,8E0,8E0,1.5E1,2.7E1,2E0,2.9E1,2E0,6E0,1E0,7E0,5E0,1E1,1.6E1,1.1E1,1.9E1,1E1,5E0,2E0,2E0,1.4E1,1E1,1E0,1.7E1,2E0,9E0,1E0],"tree_param":{"num_deleted":"0","num_feature":"41","num_nodes":"33","size_leaf_vector":"0"}},{"base_weights":[2.9951408E6,2.4699525E6,3.5238742E6,1.4546548E6,2.6014045E6,3.7614045E6,1.9848128E6,1.6466898E6,5.856999E5,2.7812288E6,1.6130425E6,3.2134905E6,5.6505365E6,2.1325742E6,4.7524103E5,1.8191166E6,3.922777E5,1.1264531E6,3.0194762E6,1.9360061E6,7.253365E5,9.709073E5,3.4190922E6,6.267587E6,9.7411725E5,2.0657188E6,4.1635406E5,-2.0786275E5,1.4331182E6,3.77591E6,1.8092229E6,3.9459042E6,1.3839781E6,3.270788E5,2.0017338E6,4.1358668E6,1.4908271E6,4.2639765E6,9.790025E5],"categories":[],"categories_nodes":[],"categories_segments":[],"categories_sizes":[],"default_left":[1,1,1,1,1,1,1,1,0,1,1,1,1,0,0,1,0,0,0,0,0,1,1,0,0,0,0,0,0,1,1,1,0,0,0,1,0,0,0],"id":43,"left_children":[1,3,5,7,9,11,13,15,-1,17,19,21,23,-1,-1,25,-1,-1,-1,-1,-1,27,29,-1,-1,-1,-1,-1,-1,31,33,35,-1,-1,-1,37,-1,-1,-1],"loss_changes":[1.712088E13,2.889003E12,8.619563E12,3.704923E11,3.1562305E12,2.0140075E13,7.709655E11,5.841669E11,0E0,1.039731E13,1.1760157E12,1.0973843E13,1.4093734E13,0E0,0E0,8.695505E11,0E0,0E0,0E0,0E0,0E0,2.4772535E12,9.252568E12,0E0,0E0,0E0,0E0,0E0,0E0,3.4844935E12,1.3425778E12,3.1615992E12,0E0,0E0,0E0,3.1051942E12,0E0,0E0,0E0],"parents":[2147483647,0,0,1,1,2,2,3,3,4,4,5,5,6,6,7,7,9,9,10,10,11,11,12,12,15,15,21,21,22,22,29,29,30,30,31,31,35,35],"right_children":[2,4,6,8,10,12,14,16,-1,18,20,22,24,-1,-1,26,-1,-1,-1,-1,-1,28,30,-1,-1,-1,-1,-1,-1,32,34,36,-1,-1,-1,38,-1,-1,-1],"split_conditions":[2.75E0,1.5E0,1.5E1,5.4994955E18,3.123077E18,4.5E0,2.325523E18,2.5E0,5.8569985E3,-7.1181987E18,8.4223525E17,3.5E0,-1.3331092E18,2.1325742E4,4.75241E3,-4.9746145E18,3.9227769E3,1.1264531E4,3.0194762E4,1.936006E4,7.2533647E3,-4.9746145E18,4.5E0,6.2675867E4,9.741172E3,2.0657188E4,4.1635405E3,-2.0786274E3,1.4331183E4,7E0,3.5E0,4.5E0,1.3839781E4,3.270788E3,2.0017338E4,4.414947E18,1.49082705E4,4.2639766E4,9.790024E3],"split_indices":[31,9,37,1,0,24,0,8,0,1,1,15,1,0,0,3,0,0,0,0,0,3,14,0,0,0,0,0,0,23,6,25,0,0,0,1,0,0,0],"split_type":[0,0,0,0,0,0,0,0,0,0,0,0,0,0,0,0,0,0,0,0,0,0,0,0,0,0,0,0,0,0,0,0,0,0,0,0,0,0,0],"sum_hessian":[9.2E1,4.9E1,4.3E1,7E0,4.2E1,3.6E1,7E0,5E0,2E0,3.4E1,8E0,3E1,6E0,6E0,1E0,4E0,1E0,5E0,2.9E1,5E0,3E0,3E0,2.7E1,5E0,1E0,3E0,1E0,1E0,2E0,2.1E1,6E0,1.9E1,2E0,1E0,5E0,1.7E1,2E0,1.6E1,1E0],"tree_param":{"num_deleted":"0","num_feature":"41","num_nodes":"39","size_leaf_vector":"0"}},{"base_weights":[3.0897115E6,2.4641162E6,3.691524E6,2.5588948E6,1.279405E6,5.0003565E6,3.0072782E6,5.093505E5,2.5909822E6,2.9937985E6,7.1525315E6,3.1372975E6,1.1828004E6,2.6144678E6,7.4358206E5,7.031572E5,3.1701855E6,1.8746216E6,8.888771E6,3.205784E6,4.728648E5,2.1437892E6,2.9121775E6,9.97146E6,2.2790068E6,5.1084212E5,2.1972228E6,1.3854848E6,3.051073E6,1.8533561E6,3.195317E6,4.1427228E5,1.5711315E6,8.683494E5,3.1108172E6,3.6505405E6,2.356836E6],"categories":[],"categories_nodes":[],"categories_segments":[],"categories_sizes":[],"default_left":[1,1,1,1,0,1,1,0,1,1,1,1,0,1,0,0,0,0,1,0,0,1,1,0,0,0,1,1,1,0,0,0,0,0,1,0,0],"id":44,"left_children":[1,3,5,7,-1,9,11,-1,13,15,17,19,-1,21,-1,-1,-1,-1,23,-1,-1,25,27,-1,-1,-1,29,31,33,-1,-1,-1,-1,-1,35,-1,-1],"loss_changes":[3.0058731E13,2.7895477E12,3.063627E13,1.9027376E12,0E0,4.7682156E13,4.8290196E12,0E0,1.385127E11,1.8112599E12,4.748291E13,4.505857E12,0E0,3.4279208E11,0E0,0E0,0E0,0E0,1.30566E13,0E0,0E0,7.97161E11,1.2861078E12,0E0,0E0,0E0,1.2853864E12,7.0333235E10,2.9803047E11,0E0,0E0,0E0,0E0,0E0,3.4898287E11,0E0,0E0],"parents":[2147483647,0,0,1,1,2,2,3,3,5,5,6,6,8,8,9,9,10,10,11,11,13,13,18,18,21,21,22,22,26,26,27,27,28,28,34,34],"right_children":[2,4,6,8,-1,10,12,-1,14,16,18,20,-1,22,-1,-1,-1,-1,24,-1,-1,26,28,-1,-1,-1,30,32,34,-1,-1,-1,-1,-1,36,-1,-1],"split_conditions":[4.75E0,2.5E0,2.25E0,-8.952512E18,1.279405E4,3.5E0,7.070058E18,5.093505E3,5E0,3.5E0,-4.1940277E18,2.25E1,1.1828004E4,1.5E0,7.4358203E3,7.031572E3,3.1701854E4,1.8746217E4,5.7805054E18,3.205784E4,4.728648E3,2.5E0,2.5E0,9.97146E4,2.2790066E4,5.108421E3,2.5E0,-6.8396814E18,3.5E0,1.853356E4,3.195317E4,4.1427227E3,1.5711314E4,8.683493E3,2.5E0,3.6505402E4,2.356836E4],"split_indices":[5,25,32,0,0,9,0,0,4,4,0,33,0,23,0,0,0,0,0,0,0,6,5,0,0,0,9,0,11,0,0,0,0,0,9,0,0],"split_type":[0,0,0,0,0,0,0,0,0,0,0,0,0,0,0,0,0,0,0,0,0,0,0,0,0,0,0,0,0,0,0,0,0,0,0,0,0],"sum_hessian":[1.03E2,5.3E1,5E1,4.8E1,5E0,1.5E1,3.5E1,1E0,4.7E1,9E0,6E0,3.2E1,3E0,4.6E1,1E0,1E0,8E0,2E0,4E0,3.1E1,1E0,2.1E1,2.5E1,3E0,1E0,1E0,2E1,3E0,2.2E1,1.7E1,3E0,1E0,2E0,1E0,2.1E1,1E1,1.1E1],"tree_param":{"num_deleted":"0","num_feature":"41","num_nodes":"37","size_leaf_vector":"0"}},{"base_weights":[2.9245028E6,1.7595981E6,3.1534195E6,5.891716E5,1.9314868E6,6.556863E6,3.040234E6,7.208697E5,9.703869E4,2.116229E6,8.020174E5,3.199357E6,2.243681E6,2.3054768E6,6.5382825E5,2.581685E6,3.588344E6,9.6093606E5,2.5415412E6,5.082879E5,2.4226495E6,7.116011E6,3.2249762E6,2.7558612E5,1.063377E6,1.0785814E6,2.6954862E6,3.3972152E6,1.3743074E6,3.568963E6,1.1739294E6,3.0992098E6,4.8039085E6],"categories":[],"categories_nodes":[],"categories_segments":[],"categories_sizes":[],"default_left":[1,1,1,1,1,0,1,0,0,1,0,1,1,1,0,0,1,1,1,0,0,0,1,0,0,0,0,1,0,1,0,0,0],"id":45,"left_children":[1,3,5,7,9,-1,11,-1,-1,13,-1,15,17,19,-1,-1,21,23,25,-1,-1,-1,27,-1,-1,-1,-1,29,-1,31,-1,-1,-1],"loss_changes":[2.325114E13,2.8856853E12,1.4350224E13,1.8929956E11,1.8499775E12,0E0,3.9755962E12,0E0,0E0,2.3672023E12,0E0,7.794963E12,4.4351577E12,1.2955744E12,0E0,0E0,2.9606518E13,5.7987826E10,2.4571072E11,0E0,0E0,0E0,7.762717E12,0E0,0E0,0E0,0E0,9.174855E12,0E0,3.6754854E12,0E0,0E0,0E0],"parents":[2147483647,0,0,1,1,2,2,3,3,4,4,6,6,9,9,11,11,12,12,13,13,16,16,17,17,18,18,22,22,27,27,29,29],"right_children":[2,4,6,8,10,-1,12,-1,-1,14,-1,16,18,20,-1,-1,22,24,26,-1,-1,-1,28,-1,-1,-1,-1,30,-1,32,-1,-1,-1],"split_conditions":[1.5E0,-5.558856E18,5E-1,-6.726543E18,4.5E0,6.5568625E4,2.5E0,7.208697E3,9.7038684E2,4.414947E18,8.0201733E3,4.5E0,3.5E0,2.5E0,6.538282E3,2.581685E4,1.5E0,3.5E0,-5.638233E18,5.082879E3,2.4226494E4,7.116011E4,1.5E1,2.755861E3,1.063377E4,1.0785813E4,2.6954861E4,7.4771744E18,1.3743073E4,3.5E0,1.1739294E4,3.0992098E4,4.8039082E4],"split_indices":[31,0,32,0,5,0,8,0,0,1,0,5,8,6,0,0,22,6,1,0,0,0,37,0,0,0,0,0,0,17,0,0,0],"split_type":[0,0,0,0,0,0,0,0,0,0,0,0,0,0,0,0,0,0,0,0,0,0,0,0,0,0,0,0,0,0,0,0,0],"sum_hessian":[1.07E2,1.9E1,8.8E1,3E0,1.6E1,1E0,8.7E1,2E0,1E0,1.3E1,3E0,7E1,1.7E1,1.1E1,2E0,3E1,4E1,4E0,1.3E1,1E0,1E1,2E0,3.8E1,1E0,3E0,2E0,1.1E1,3.4E1,4E0,3.1E1,3E0,2.5E1,6E0],"tree_param":{"num_deleted":"0","num_feature":"41","num_nodes":"33","size_leaf_vector":"0"}},{"base_weights":[2.935289E6,1.8287678E6,3.2305542E6,5.0003834E5,1.8647978E6,3.4237368E6,2.2438408E6,4.536641E6,2.9350698E6,1.1341626E6,2.6451342E6,2.5145612E6,6.7499205E6,3.091202E6,1.5789802E6,7.344712E5,2.7627532E6,-2.3817044E5,2.8136515E6,2.4275362E6,8.857844E6,4.938953E5,3.1425048E6,1.6876008E6,4.6362897E5,1.8402921E6,3.8136178E6,9.850482E6,2.4436445E6,5.0574647E5,3.19578E6,3.2472215E6,5.947828E5,1.5057345E6,3.3505192E6],"categories":[],"categories_nodes":[],"categories_segments":[],"categories_sizes":[],"default_left":[1,1,1,0,0,1,1,1,1,0,1,1,1,1,1,0,0,0,1,0,1,0,1,0,0,0,0,0,0,0,1,1,0,0,0],"id":46,"left_children":[1,3,5,-1,-1,7,9,11,13,-1,15,17,19,21,23,-1,-1,-1,25,-1,27,-1,29,-1,-1,-1,-1,-1,-1,-1,31,33,-1,-1,-1],"loss_changes":[2.7743945E13,2.1651836E11,7.566927E12,0E0,0E0,2.2034256E13,4.1248883E12,6.3584575E13,5.2820716E12,0E0,4.4287656E11,9.726595E12,5.1387304E13,4.0444164E12,6.5628275E10,0E0,0E0,0E0,2.7150904E12,0E0,7.7638245E12,0E0,4.143167E12,0E0,0E0,0E0,0E0,0E0,0E0,0E0,3.4205724E12,1.9708196E12,0E0,0E0,0E0],"parents":[2147483647,0,0,1,1,2,2,5,5,6,6,7,7,8,8,10,10,11,11,12,12,13,13,14,14,18,18,20,20,22,22,30,30,31,31],"right_children":[2,4,6,-1,-1,8,10,12,14,-1,16,18,20,22,24,-1,-1,-1,26,-1,28,-1,30,-1,-1,-1,-1,-1,-1,-1,32,34,-1,-1,-1],"split_conditions":[3.5E0,-8.445335E18,2.5E0,5.0003833E3,1.8647977E4,4.5E0,3.5E0,3.5E0,4E0,1.1341626E4,2.75E0,1.5E0,-4.1940277E18,-8.793188E18,3.772139E18,7.344712E3,2.7627531E4,-2.3817043E3,4.5E0,2.4275361E4,2.5E0,4.938953E3,2.5E0,1.6876008E4,4.6362896E3,1.840292E4,3.8136176E4,9.850482E4,2.4436445E4,5.0574644E3,8.466688E18,3.5E0,5.947828E3,1.5057345E4,3.350519E4],"split_indices":[5,0,8,0,0,13,8,9,32,0,31,32,0,0,0,0,0,0,22,0,32,0,6,0,0,0,0,0,0,0,0,11,0,0,0],"split_type":[0,0,0,0,0,0,0,0,0,0,0,0,0,0,0,0,0,0,0,0,0,0,0,0,0,0,0,0,0,0,0,0,0,0,0],"sum_hessian":[1.02E2,2.3E1,7.9E1,1E0,2.2E1,6.4E1,1.5E1,1.7E1,4.7E1,5E0,1E1,1E1,7E0,4.1E1,6E0,1E0,9E0,1E0,9E0,3E0,4E0,1E0,4E1,5E0,1E0,6E0,3E0,3E0,1E0,1E0,3.9E1,3.8E1,1E0,3E0,3.5E1],"tree_param":{"num_deleted":"0","num_feature":"41","num_nodes":"35","size_leaf_vector":"0"}},{"base_weights":[2.8351512E6,2.4374062E6,3.5408385E6,1.5436375E6,2.6111192E6,3.0038022E6,5.725387E6,1.6070539E6,3.5961228E5,1.1042835E6,2.7022872E6,1.132183E6,3.2391465E6,8.63291E5,6.525148E6,1.668272E6,4.3621784E5,1.4988442E6,-2.3697956E5,1.0789109E6,2.7766248E6,3.728832E6,2.1878915E6,4.914258E5,2.8125002E6,4.1198245E6,1.9664852E6,5.7543325E5,2.291594E6,3.5703755E6,2.533772E6,2.4147025E6,5.918089E5,1.2553928E6,2.640942E6],"categories":[],"categories_nodes":[],"categories_segments":[],"categories_sizes":[],"default_left":[1,1,1,1,1,1,1,1,0,1,1,0,1,0,0,0,0,0,0,0,1,1,1,0,1,0,0,0,1,0,1,0,0,0,0],"id":47,"left_children":[1,3,5,7,9,11,13,15,-1,17,19,-1,21,-1,-1,-1,-1,-1,-1,-1,23,25,27,-1,29,-1,-1,-1,31,-1,33,-1,-1,-1,-1],"loss_changes":[2.1122045E13,6.9928107E12,2.5036606E13,4.7329575E11,4.983672E12,9.987426E12,1.7697983E13,2.0406547E11,0E0,3.0012437E12,3.520833E12,0E0,5.740895E12,0E0,0E0,0E0,0E0,0E0,0E0,0E0,2.7989765E12,3.6125205E12,5.2071865E11,0E0,1.515553E12,0E0,0E0,0E0,6.635347E11,0E0,2.1647474E12,0E0,0E0,0E0,0E0],"parents":[2147483647,0,0,1,1,2,2,3,3,4,4,5,5,6,6,7,7,9,9,10,10,12,12,20,20,21,21,22,22,24,24,28,28,30,30],"right_children":[2,4,6,8,10,12,14,16,-1,18,20,-1,22,-1,-1,-1,-1,-1,-1,-1,24,26,28,-1,30,-1,-1,-1,32,-1,34,-1,-1,-1,-1],"split_conditions":[1.9255053E18,1.5E0,4.5E0,2.5E0,3.5E0,3.5E0,-5.1814804E18,4.8951846E18,3.5961228E3,-1.818683E18,3.5E0,1.132183E4,5.7690655E18,8.63291E3,6.525148E4,1.6682719E4,4.362178E3,1.4988442E4,-2.3697957E3,1.0789108E4,-8.940592E18,2.5E0,3.5E0,4.914258E3,-7.795174E18,4.1198242E4,1.9664852E4,5.7543325E3,8.8714107E18,3.5703754E4,-6.5157257E18,2.4147025E4,5.9180884E3,1.2553927E4,2.640942E4],"split_indices":[0,31,24,8,15,5,1,1,0,0,11,0,0,0,0,0,0,0,0,0,0,19,15,0,0,0,0,0,0,0,0,0,0,0,0],"split_type":[0,0,0,0,0,0,0,0,0,0,0,0,0,0,0,0,0,0,0,0,0,0,0,0,0,0,0,0,0,0,0,0,0,0,0],"sum_hessian":[1.05E2,7E1,3.5E1,1.3E1,5.7E1,3E1,5E0,1.2E1,1E0,4E0,5.3E1,4E0,2.6E1,1E0,4E0,1.1E1,1E0,3E0,1E0,3E0,5E1,1.6E1,1E1,1E0,4.9E1,1.2E1,4E0,1E0,9E0,1E1,3.9E1,8E0,1E0,4E0,3.5E1],"tree_param":{"num_deleted":"0","num_feature":"41","num_nodes":"35","size_leaf_vector":"0"}},{"base_weights":[2.8716792E6,2.19625E6,3.2879808E6,4.606555E5,2.2289408E6,3.955042E6,2.57941E6,1.551094E6,2.3805915E6,2.504799E6,5.679966E6,1.734212E6,3.0934855E6,1.701939E6,6.318094E5,6.1888556E5,2.4199992E6,2.6908235E6,-2.3579469E5,5.890338E6,1.6829342E6,8.173546E5,1.9099591E6,3.736445E6,1.549343E6,8.7660075E5,2.0218218E6,2.5121082E6,1.2162908E6,2.5369088E5,2.8363862E6,2.0947274E6,7.190014E5,1.657074E6,4.5147838E5,3.0646502E6,1.4424976E6,3.7914725E6,2.0038525E6,7.9879694E5,2.3261155E6],"categories":[],"categories_nodes":[],"categories_segments":[],"categories_sizes":[],"default_left":[1,1,1,0,1,1,1,1,1,1,1,1,1,1,0,0,1,1,0,0,0,0,1,0,1,0,0,0,0,0,1,0,0,0,0,1,0,0,1,0,0],"id":48,"left_children":[1,3,5,-1,7,9,11,13,15,17,19,21,23,25,-1,-1,27,29,-1,-1,-1,-1,31,-1,33,-1,-1,-1,-1,-1,35,-1,-1,-1,-1,37,-1,-1,39,-1,-1],"loss_changes":[2.0053404E13,1.2427387E12,1.7212618E13,0E0,3.1653573E11,5.5816455E13,8.1046033E12,3.1139352E11,5.850215E11,9.301372E12,1.7733517E11,6.947739E11,1.2081743E13,3.397617E11,0E0,0E0,1.5985331E11,4.9565265E12,0E0,0E0,0E0,0E0,9.1445474E11,0E0,7.97851E10,0E0,0E0,0E0,0E0,0E0,3.5186855E11,0E0,0E0,0E0,0E0,1.6545858E12,0E0,0E0,8.6031886E11,0E0,0E0],"parents":[2147483647,0,0,1,1,2,2,4,4,5,5,6,6,7,7,8,8,9,9,10,10,11,11,12,12,13,13,16,16,17,17,22,22,24,24,30,30,35,35,38,38],"right_children":[2,4,6,-1,8,10,12,14,16,18,20,22,24,26,-1,-1,28,30,-1,-1,-1,-1,32,-1,34,-1,-1,-1,-1,-1,36,-1,-1,-1,-1,38,-1,-1,40,-1,-1],"split_conditions":[-1.8718698E18,3.5E0,-4.9746145E18,4.6065547E3,1.5E0,3.5E0,1.5E0,4.414947E18,3E0,4.5E0,-1.3331092E18,2.5E0,7.5E0,-5.584054E18,6.3180938E3,6.1888555E3,2.5E0,3.5E0,-2.3579468E3,5.890338E4,1.6829342E4,8.173546E3,2.5E0,3.736445E4,6.75E0,8.766007E3,2.0218217E4,2.5121082E4,1.2162907E4,2.5369087E3,3.5E0,2.0947273E4,7.1900137E3,1.657074E4,4.5147837E3,4.5E0,1.4424976E4,3.7914723E4,1.5E0,7.987969E3,2.3261154E4],"split_indices":[2,15,3,0,31,9,20,1,11,4,1,9,4,1,0,0,17,7,0,0,0,0,18,0,6,0,0,0,0,0,31,0,0,0,0,11,0,0,22,0,0],"split_type":[0,0,0,0,0,0,0,0,0,0,0,0,0,0,0,0,0,0,0,0,0,0,0,0,0,0,0,0,0,0,0,0,0,0,0,0,0,0,0,0,0],"sum_hessian":[9.6E1,3.9E1,5.7E1,1E0,3.8E1,2.7E1,3E1,9E0,2.9E1,1.6E1,1.1E1,1.3E1,1.7E1,7E0,2E0,1E0,2.8E1,1.5E1,1E0,1E1,1E0,3E0,1E1,1.1E1,6E0,3E0,4E0,2.5E1,3E0,1E0,1.4E1,8E0,2E0,5E0,1E0,1.1E1,3E0,5E0,6E0,2E0,4E0],"tree_param":{"num_deleted":"0","num_feature":"41","num_nodes":"41","size_leaf_vector":"0"}},{"base_weights":[2.7583935E6,1.3948891E6,2.9551485E6,1.6399225E6,3.7232525E5,3.2281705E6,2.0513974E6,3.868444E5,1.7265458E6,3.954349E6,2.7299138E6,1.2796042E6,2.4010218E6,3.2954648E6,6.260182E6,2.0100461E6,3.1745965E6,6.671353E5,2.4830795E6,3.486197E6,1.6609874E6,4.7640812E5,2.0722361E6,3.5699458E6,1.459449E6,3.585507E6,9.4861875E5,1.8906116E6,4.860572E5,2.128594E6,5.852549E5,2.3273962E6,4.832208E6,9.984534E5,3.6914135E6,4.80442E5,2.4640475E6,2.897048E6,1.4516374E6],"categories":[],"categories_nodes":[],"categories_segments":[],"categories_sizes":[],"default_left":[1,1,1,1,0,1,1,0,0,1,1,0,1,1,0,1,1,0,0,1,1,0,1,1,0,1,0,0,0,0,0,1,0,0,0,0,1,0,0],"id":49,"left_children":[1,3,5,7,-1,9,11,-1,-1,13,15,-1,17,19,-1,21,23,-1,-1,25,27,-1,29,31,-1,33,-1,-1,-1,-1,-1,35,-1,-1,-1,-1,37,-1,-1],"loss_changes":[2.1632475E13,2.8972847E12,1.3857511E13,5.2609994E11,0E0,1.1637952E13,2.864072E12,0E0,0E0,1.4313146E13,6.4234256E12,0E0,3.3535977E11,4.4441167E11,0E0,7.2955724E11,1.0385734E13,0E0,0E0,8.828339E11,1.6022451E11,0E0,1.7888707E11,1.6985153E13,0E0,6.980832E11,0E0,0E0,0E0,0E0,0E0,1.592443E12,0E0,0E0,0E0,0E0,1.7827889E11,0E0,0E0],"parents":[2147483647,0,0,1,1,2,2,3,3,5,5,6,6,9,9,10,10,12,12,13,13,15,15,16,16,19,19,20,20,22,22,23,23,25,25,31,31,36,36],"right_children":[2,4,6,8,-1,10,12,-1,-1,14,16,-1,18,20,-1,22,24,-1,-1,26,28,-1,30,32,-1,34,-1,-1,-1,-1,-1,36,-1,-1,-1,-1,38,-1,-1],"split_conditions":[1.5E0,3.49613E18,4.5E0,1.5E0,3.7232524E3,4.5E0,2.5E0,3.868444E3,1.7265457E4,4.5E0,2.5E0,1.2796042E4,4.5E0,3.5E0,6.260182E4,2.5E0,7E0,6.671353E3,2.4830795E4,4.5E0,-1.5792085E18,4.764081E3,2.5E0,1.5E0,1.4594489E4,-7.198977E18,9.4861875E3,1.8906115E4,4.860572E3,2.128594E4,5.852549E3,1.5E0,4.832208E4,9.984533E3,3.6914133E4,4.80442E3,3.5E0,2.8970479E4,1.4516373E4],"split_indices":[31,1,14,9,0,11,24,0,0,9,31,0,22,24,0,32,23,0,0,17,1,0,18,8,0,1,0,0,0,0,0,23,0,0,0,0,9,0,0],"split_type":[0,0,0,0,0,0,0,0,0,0,0,0,0,0,0,0,0,0,0,0,0,0,0,0,0,0,0,0,0,0,0,0,0,0,0,0,0,0,0],"sum_hessian":[9.5E1,1.3E1,8.2E1,1E1,3E0,6.1E1,2.1E1,1E0,9E0,2.2E1,3.9E1,8E0,1.3E1,1.9E1,3E0,1.7E1,2.2E1,1E0,1.2E1,1.6E1,3E0,1E0,1.6E1,1.7E1,5E0,1.5E1,1E0,2E0,1E0,1.5E1,1E0,1E1,7E0,1E0,1.4E1,1E0,9E0,5E0,4E0],"tree_param":{"num_deleted":"0","num_feature":"41","num_nodes":"39","size_leaf_vector":"0"}},{"base_weights":[2.7165035E6,1.549946E6,2.9635512E6,1.8145418E6,4.9908894E5,3.3137708E6,2.370867E6,3.1275042E6,1.4729674E6,5.948875E4,5.9411675E5,6.400333E6,3.0931452E6,1.4532691E6,2.738615E6,1.5380861E6,3.457709E5,3.1390618E6,5.823286E5,6.093931E5,2.8146065E6,8.4047775E5,3.1746252E6,3.294964E6,1.8613959E6,1.068206E6,3.633495E6],"categories":[],"categories_nodes":[],"categories_segments":[],"categories_sizes":[],"default_left":[1,1,1,1,1,1,1,0,1,0,0,0,1,0,1,0,0,1,0,0,1,0,0,1,0,0,0],"id":50,"left_children":[1,3,5,7,9,11,13,-1,15,-1,-1,-1,17,-1,19,-1,-1,21,-1,-1,23,-1,-1,25,-1,-1,-1],"loss_changes":[2.1632408E13,4.0993198E12,7.5036434E12,1.6719293E12,1.7352819E11,1.0165684E13,6.480837E12,0E0,4.2239787E11,0E0,0E0,0E0,3.129387E12,0E0,1.6826709E12,0E0,0E0,7.651417E11,0E0,0E0,3.0243952E12,0E0,0E0,5.1645975E12,0E0,0E0,0E0],"parents":[2147483647,0,0,1,1,2,2,3,3,4,4,5,5,6,6,8,8,12,12,14,14,17,17,20,20,23,23],"right_children":[2,4,6,8,10,12,14,-1,16,-1,-1,-1,18,-1,20,-1,-1,22,-1,-1,24,-1,-1,26,-1,-1,-1],"split_conditions":[1.5E0,3.49613E18,-1.3331092E18,1.5E0,-3.5518893E18,5E-1,2.25E0,3.1275041E4,2.5E0,5.948875E2,5.9411675E3,6.400333E4,8.466688E18,1.4532691E4,3E0,1.5380861E4,3.457709E3,-8.5101914E18,5.823286E3,6.093931E3,3.5E0,8.404777E3,3.1746252E4,1.5E0,1.8613959E4,1.068206E4,3.633495E4],"split_indices":[31,1,1,32,0,32,32,0,8,0,0,0,0,0,11,0,0,1,0,0,9,0,0,23,0,0,0],"split_type":[0,0,0,0,0,0,0,0,0,0,0,0,0,0,0,0,0,0,0,0,0,0,0,0,0,0,0],"sum_hessian":[9E1,1.7E1,7.3E1,1.3E1,4E0,4.3E1,3E1,1E0,1.2E1,1E0,3E0,1E0,4.2E1,1E1,2E1,1.1E1,1E0,4.1E1,1E0,1E0,1.9E1,1E0,4E1,1.1E1,8E0,2E0,9E0],"tree_param":{"num_deleted":"0","num_feature":"41","num_nodes":"27","size_leaf_vector":"0"}},{"base_weights":[2.626861E6,2.240849E6,3.3265998E6,2.3007365E6,2.7618553E5,5.3877365E6,2.6164178E6,1.6111068E6,2.4539465E6,6.832242E5,-2.6894588E5,1.879001E6,6.41543E6,6.5653325E5,2.670724E6,1.8360774E6,5.896609E5,4.5815294E5,2.4866622E6,1.059079E6,7.489748E6,1.0925684E6,2.5097745E6,2.5550518E6,1.1127148E6,2.6831155E6,1.6433752E6,2.1258812E6,6.2939894E5],"categories":[],"categories_nodes":[],"categories_segments":[],"categories_sizes":[],"default_left":[1,1,1,1,1,1,1,1,1,0,0,0,1,0,0,1,0,0,1,0,0,0,0,1,0,0,1,0,0],"id":51,"left_children":[1,3,5,7,9,11,13,15,17,-1,-1,-1,19,-1,-1,21,-1,-1,23,-1,-1,-1,-1,25,-1,-1,27,-1,-1],"loss_changes":[1.7665536E13,6.7770893E12,3.1280683E13,2.4915843E12,8.4941904E11,1.3186741E13,9.074125E11,2.1344729E12,1.9948445E12,0E0,0E0,0E0,2.0839886E13,0E0,0E0,2.7678002E12,0E0,0E0,1.5732331E12,0E0,0E0,0E0,0E0,7.277285E11,0E0,0E0,2.5759696E12,0E0,0E0],"parents":[2147483647,0,0,1,1,2,2,3,3,4,4,5,5,6,6,7,7,8,8,12,12,15,15,18,18,23,23,26,26],"right_children":[2,4,6,8,10,12,14,16,18,-1,-1,-1,20,-1,-1,22,-1,-1,24,-1,-1,-1,-1,26,-1,-1,28,-1,-1],"split_conditions":[3.5E0,4.5E0,4.5E0,1.5E0,-2.9147333E18,3.5E0,3.5E0,2.7858285E18,-8.952512E18,6.8322417E3,-2.6894587E3,1.879001E4,-6.447467E18,6.5653325E3,2.670724E4,2.5E0,5.8966084E3,4.5815293E3,7.4469125E18,1.059079E4,7.489748E4,1.0925684E4,2.5097744E4,2.5E0,1.1127147E4,2.6831154E4,4.5E0,2.1258812E4,6.2939893E3],"split_indices":[31,4,26,31,0,9,4,1,0,0,0,0,0,0,0,14,0,0,0,0,0,0,0,8,0,0,5,0,0],"split_type":[0,0,0,0,0,0,0,0,0,0,0,0,0,0,0,0,0,0,0,0,0,0,0,0,0,0,0,0,0],"sum_hessian":[9.2E1,6.2E1,3E1,6E1,2E0,6E0,2.4E1,1.3E1,4.7E1,1E0,1E0,2E0,4E0,1E0,2.3E1,1E1,3E0,1E0,4.6E1,1E0,3E0,6E0,4E0,4.3E1,3E0,3.6E1,7E0,4E0,3E0],"tree_param":{"num_deleted":"0","num_feature":"41","num_nodes":"29","size_leaf_vector":"0"}},{"base_weights":[2.8284165E6,2.4021678E6,3.5822878E6,1.5019114E6,2.5776615E6,4.33883E6,1.6747638E6,5.2143753E5,1.7439098E6,2.1736002E6,3.0898688E6,6.5329995E6,2.9705685E6,1.8711672E6,8.6326575E5,6.577547E5,5.6243E4,2.0250824E6,8.158801E5,1.8004984E6,2.8516852E6,4.741938E6,2.277226E6,2.4096498E6,8.525079E6,3.0804808E6,6.609424E5,2.3010662E5,9.9761656E5,8.131452E5,2.017531E6,9.594486E6,2.1237252E6,1.1170092E6,3.2966295E6,8.7791744E5,2.4464194E5,3.3857922E5,2.0919961E6,4.6870738E5,2.1599128E6,2.2231755E6,5.738534E5],"categories":[],"categories_nodes":[],"categories_segments":[],"categories_sizes":[],"default_left":[1,1,1,1,1,1,1,1,1,1,1,1,1,0,1,0,0,0,0,1,0,0,0,0,1,1,0,0,0,1,1,0,0,0,0,0,0,0,1,0,1,0,0],"id":52,"left_children":[1,3,5,7,9,11,13,15,17,19,21,23,25,-1,27,-1,-1,-1,-1,29,-1,-1,-1,-1,31,33,-1,-1,-1,35,37,-1,-1,-1,-1,-1,-1,-1,39,-1,41,-1,-1],"loss_changes":[2.2564416E13,6.3978907E12,4.0356553E13,2.1752101E12,4.25289E12,4.9643816E13,1.3787726E11,2.1666202E11,9.571402E11,3.2143636E12,1.739492E13,4.5169903E13,2.025681E12,0E0,1.1070367E11,0E0,0E0,0E0,0E0,3.5023613E12,0E0,0E0,0E0,0E0,1.3852175E13,2.68365E12,0E0,0E0,0E0,6.164054E9,1.6671352E12,0E0,0E0,0E0,0E0,0E0,0E0,0E0,9.7209706E11,0E0,4.2998327E11,0E0,0E0],"parents":[2147483647,0,0,1,1,2,2,3,3,4,4,5,5,6,6,7,7,8,8,9,9,10,10,11,11,12,12,14,14,19,19,24,24,25,25,29,29,30,30,38,38,40,40],"right_children":[2,4,6,8,10,12,14,16,18,20,22,24,26,-1,28,-1,-1,-1,-1,30,-1,-1,-1,-1,32,34,-1,-1,-1,36,38,-1,-1,-1,-1,-1,-1,-1,40,-1,42,-1,-1],"split_conditions":[3.5E0,-5.500707E18,-1.3331092E18,1.5E0,2.25E0,4.5E0,2.5E0,-6.726543E18,2.5E0,3.5E0,2.5E0,-3.4154075E18,9E0,1.8711672E4,-1.3608419E18,6.577547E3,5.6243E2,2.0250824E4,8.1588013E3,1.5E0,2.8516852E4,4.741938E4,2.277226E4,2.4096496E4,5.7805054E18,4.5E0,6.609424E3,2.3010662E3,9.976165E3,3.098233E18,-4.1301736E18,9.594486E4,2.1237252E4,1.1170092E4,3.2966293E4,8.779174E3,2.4464194E3,3.385792E3,2.5E0,4.6870737E3,7.9346564E18,2.2231754E4,5.7385337E3],"split_indices":[9,0,1,31,31,11,25,0,31,21,23,0,27,0,0,0,0,0,0,14,0,0,0,0,0,9,0,0,0,0,0,0,0,0,0,0,0,0,6,0,0,0,0],"split_type":[0,0,0,0,0,0,0,0,0,0,0,0,0,0,0,0,0,0,0,0,0,0,0,0,0,0,0,0,0,0,0,0,0,0,0,0,0,0,0,0,0,0,0],"sum_hessian":[9.6E1,6.4E1,3.2E1,1.2E1,5.2E1,2.2E1,1E1,3E0,9E0,3.2E1,2E1,7E0,1.5E1,7E0,3E0,2E0,1E0,6E0,3E0,2.3E1,9E0,5E0,1.5E1,3E0,4E0,1.4E1,1E0,1E0,2E0,5E0,1.8E1,3E0,1E0,2E0,1.2E1,4E0,1E0,1E0,1.7E1,1E0,1.6E1,1.5E1,1E0],"tree_param":{"num_deleted":"0","num_feature":"41","num_nodes":"43","size_leaf_vector":"0"}},{"base_weights":[2.657883E6,2.2778625E6,3.479291E6,1.5162722E6,2.4457875E6,5.829511E6,2.9152025E6,5.4916106E5,1.7928791E6,4.4573675E5,2.472586E6,7.3908765E6,2.3249752E6,8.173367E5,2.9644535E6,6.5847044E5,5.5961812E4,2.0044469E6,4.900271E5,2.6209162E6,1.6855776E6,8.560542E5,3.0145475E6,2.1356118E6,4.1198128E5,2.6530672E6,5.709841E5,2.7143752E6,1.129726E6,1.5405851E6,2.7511605E6,7.0367556E5,3.0411312E6,1.948829E6,4.8273153E5,2.7799692E6,7.994061E5],"categories":[],"categories_nodes":[],"categories_segments":[],"categories_sizes":[],"default_left":[1,1,1,1,1,1,1,1,1,0,1,0,0,0,1,0,0,1,0,1,0,0,0,1,0,1,0,1,0,1,1,0,0,0,0,0,0],"id":53,"left_children":[1,3,5,7,9,11,13,15,17,-1,19,-1,-1,-1,21,-1,-1,23,-1,25,-1,-1,-1,27,-1,29,-1,31,-1,33,35,-1,-1,-1,-1,-1,-1],"loss_changes":[2.453849E13,5.7553904E12,2.410349E13,3.295578E12,2.0601415E12,1.01757E13,3.6673316E11,2.327072E11,2.3254647E12,0E0,2.3530045E12,0E0,0E0,0E0,1.6544013E11,0E0,0E0,1.2089242E12,0E0,1.5827626E12,0E0,0E0,0E0,2.173027E12,0E0,7.8144917E11,0E0,1.1450702E12,0E0,1.6504114E12,8.298011E10,0E0,0E0,0E0,0E0,0E0,0E0],"parents":[2147483647,0,0,1,1,2,2,3,3,4,4,5,5,6,6,7,7,8,8,10,10,14,14,17,17,19,19,23,23,25,25,27,27,29,29,30,30],"right_children":[2,4,6,8,10,12,14,16,18,-1,20,-1,-1,-1,22,-1,-1,24,-1,26,-1,-1,-1,28,-1,30,-1,32,-1,34,36,-1,-1,-1,-1,-1,-1],"split_conditions":[3.5E0,1.5E0,4.5E0,-3.5307297E18,-8.874417E18,5.7805054E18,-8.5101914E18,1.6532188E18,4.1907174E18,4.457367E3,4.5E0,7.3908766E4,2.3249752E4,8.1733667E3,3.5E0,6.584704E3,5.596181E2,5.227618E18,4.900271E3,8.466688E18,1.6855775E4,8.560542E3,3.0145475E4,1.5E0,4.1198125E3,2.5E0,5.7098413E3,-2.8009993E18,1.129726E4,1.5E0,2.5E0,7.0367554E3,3.0411312E4,1.948829E4,4.8273154E3,2.7799691E4,7.994061E3],"split_indices":[31,31,13,0,0,0,1,1,0,0,14,0,0,0,11,0,0,1,0,0,0,0,0,26,0,5,0,0,0,26,24,0,0,0,0,0,0],"split_type":[0,0,0,0,0,0,0,0,0,0,0,0,0,0,0,0,0,0,0,0,0,0,0,0,0,0,0,0,0,0,0,0,0,0,0,0,0],"sum_hessian":[1.03E2,7.3E1,3E1,1.5E1,5.8E1,4E0,2.6E1,4E0,1.1E1,1E0,5.7E1,2E0,2E0,1E0,2.5E1,3E0,1E0,9E0,2E0,4.6E1,1.1E1,1E0,2.4E1,8E0,1E0,4.5E1,1E0,4E0,4E0,5E0,4E1,1E0,3E0,3E0,2E0,3.9E1,1E0],"tree_param":{"num_deleted":"0","num_feature":"41","num_nodes":"37","size_leaf_vector":"0"}},{"base_weights":[2.640293E6,6.245956E6,2.5343618E6,1.6467261E6,2.6708195E6,1.2375208E6,2.462661E6,3.7372085E6,2.4980262E6,2.2181492E6,7.9448415E6,2.1022198E6,2.9688878E6,8.733681E5,2.520848E6,1.5195567E5,2.1959342E6,3.6495592E6,2.2336945E6,2.7670905E6,6.44818E5,-2.9288712E5,5.2082062E5,2.3339062E6,1.2120785E6,1.3066182E6,3.9311645E6,9.2068844E5,2.3473828E6,9.177695E5,2.4413465E6,2.2052819E5,1.3405822E6,2.423258E6,6.4256494E5,2.0319091E6,3.2164252E6],"categories":[],"categories_nodes":[],"categories_segments":[],"categories_sizes":[],"default_left":[1,0,1,1,1,0,0,1,1,1,0,1,1,0,1,1,1,1,1,0,0,0,0,1,1,0,0,0,1,0,1,0,0,0,0,0,0],"id":54,"left_children":[1,-1,3,5,7,-1,-1,9,11,13,-1,15,17,-1,19,21,23,25,27,-1,-1,-1,-1,29,31,-1,-1,-1,33,-1,35,-1,-1,-1,-1,-1,-1],"loss_changes":[2.0074073E13,0E0,6.866512E12,1.9606777E12,5.221271E12,0E0,0E0,3.9901957E13,6.990999E12,1.05488423E12,0E0,7.3425486E12,6.8607573E12,0E0,9.874776E11,6.448024E11,2.6009215E12,4.1004355E12,3.764304E11,0E0,0E0,0E0,0E0,2.9324896E12,5.962885E11,0E0,0E0,0E0,3.832084E11,0E0,3.3022594E12,0E0,0E0,0E0,0E0,0E0,0E0],"parents":[2147483647,0,0,2,2,3,3,4,4,7,7,8,8,9,9,11,11,12,12,14,14,15,15,16,16,17,17,18,18,23,23,24,24,28,28,30,30],"right_children":[2,-1,4,6,8,-1,-1,10,12,14,-1,16,18,-1,20,22,24,26,28,-1,-1,-1,-1,30,32,-1,-1,-1,34,-1,36,-1,-1,-1,-1,-1,-1],"split_conditions":[5E-1,6.245956E4,1.5E0,2E0,1.5E0,1.2375207E4,2.462661E4,3.5E0,3.5E0,2.5E0,7.9448414E4,3.5E0,7.5E0,8.733681E3,2.5E0,3.3455404E18,3.5E0,3.5E0,5.25E0,2.7670904E4,6.4481797E3,-2.928871E3,5.208206E3,3.5E0,3.5E0,1.3066183E4,3.9311645E4,9.206884E3,1.2E1,9.177694E3,2.25E0,2.2052817E3,1.3405822E4,2.423258E4,6.4256494E3,2.031909E4,3.2164252E4],"split_indices":[32,0,31,17,22,0,0,23,31,32,0,15,23,0,23,0,9,11,7,0,0,0,0,11,6,0,0,0,20,0,31,0,0,0,0,0,0],"split_type":[0,0,0,0,0,0,0,0,0,0,0,0,0,0,0,0,0,0,0,0,0,0,0,0,0,0,0,0,0,0,0,0,0,0,0,0,0],"sum_hessian":[9.3E1,1E0,9.2E1,1.4E1,7.8E1,1.1E1,3E0,8E0,7E1,7E0,1E0,4.1E1,2.9E1,2E0,5E0,2E0,3.9E1,1.3E1,1.6E1,4E0,1E0,1E0,1E0,3.3E1,6E0,2E0,1.1E1,2E0,1.4E1,3E0,3E1,1E0,5E0,1.3E1,1E0,2.2E1,