{"learner":{"attributes":{"best_iteration":"999","best_ntree_limit":"1000","scikit_learn":"{\"n_estimators\": 1000, \"objective\": \"reg:squarederror\", \"max_depth\": 8, \"max_leaves\": null, \"max_bin\": null, \"grow_policy\": null, \"learning_rate\": null, \"verbosity\": null, \"booster\": null, \"tree_method\": null, \"gamma\": null, \"min_child_weight\": null, \"max_delta_step\": null, \"subsample\": 0.7, \"sampling_method\": null, \"colsample_bytree\": 0.8, \"colsample_bylevel\": null, \"colsample_bynode\": null, \"reg_alpha\": null, \"reg_lambda\": null, \"scale_pos_weight\": null, \"base_score\": null, \"missing\": NaN, \"num_parallel_tree\": null, \"random_state\": null, \"n_jobs\": null, \"monotone_constraints\": null, \"interaction_constraints\": null, \"importance_type\": null, \"gpu_id\": null, \"validate_parameters\": null, \"predictor\": null, \"enable_categorical\": false, \"max_cat_to_onehot\": null, \"eval_metric\": null, \"early_stopping_rounds\": null, \"callbacks\": null, \"kwargs\": {\"eta\": 0.01}, \"_estimator_type\": \"regressor\"}"},"feature_names":["Open Date","City","City Group","Type","P1","P2","P3","P4","P5","P6","P7","P8","P9","P10","P11","P12","P13","P14","P15","P16","P17","P18","P19","P20","P21","P22","P23","P24","P25","P26","P27","P28","P29","P30","P31","P32","P33","P34","P35","P36","P37"],"feature_types":["int","int","int","int","int","float","float","float","int","int","int","int","int","int","int","int","float","int","int","int","int","int","int","int","int","int","int","int","int","float","float","float","float","int","int","int","int","int","int","int","int"],"gradient_booster":{"model":{"gbtree_model_param":{"num_parallel_tree":"1","num_trees":"1000","size_leaf_vector":"0"},"tree_info":[0,0,0,0,0,0,0,0,0,0,0,0,0,0,0,0,0,0,0,0,0,0,0,0,0,0,0,0,0,0,0,0,0,0,0,0,0,0,0,0,0,0,0,0,0,0,0,0,0,0,0,0,0,0,0,0,0,0,0,0,0,0,0,0,0,0,0,0,0,0,0,0,0,0,0,0,0,0,0,0,0,0,0,0,0,0,0,0,0,0,0,0,0,0,0,0,0,0,0,0,0,0,0,0,0,0,0,0,0,0,0,0,0,0,0,0,0,0,0,0,0,0,0,0,0,0,0,0,0,0,0,0,0,0,0,0,0,0,0,0,0,0,0,0,0,0,0,0,0,0,0,0,0,0,0,0,0,0,0,0,0,0,0,0,0,0,0,0,0,0,0,0,0,0,0,0,0,0,0,0,0,0,0,0,0,0,0,0,0,0,0,0,0,0,0,0,0,0,0,0,0,0,0,0,0,0,0,0,0,0,0,0,0,0,0,0,0,0,0,0,0,0,0,0,0,0,0,0,0,0,0,0,0,0,0,0,0,0,0,0,0,0,0,0,0,0,0,0,0,0,0,0,0,0,0,0,0,0,0,0,0,0,0,0,0,0,0,0,0,0,0,0,0,0,0,0,0,0,0,0,0,0,0,0,0,0,0,0,0,0,0,0,0,0,0,0,0,0,0,0,0,0,0,0,0,0,0,0,0,0,0,0,0,0,0,0,0,0,0,0,0,0,0,0,0,0,0,0,0,0,0,0,0,0,0,0,0,0,0,0,0,0,0,0,0,0,0,0,0,0,0,0,0,0,0,0,0,0,0,0,0,0,0,0,0,0,0,0,0,0,0,0,0,0,0,0,0,0,0,0,0,0,0,0,0,0,0,0,0,0,0,0,0,0,0,0,0,0,0,0,0,0,0,0,0,0,0,0,0,0,0,0,0,0,0,0,0,0,0,0,0,0,0,0,0,0,0,0,0,0,0,0,0,0,0,0,0,0,0,0,0,0,0,0,0,0,0,0,0,0,0,0,0,0,0,0,0,0,0,0,0,0,0,0,0,0,0,0,0,0,0,0,0,0,0,0,0,0,0,0,0,0,0,0,0,0,0,0,0,0,0,0,0,0,0,0,0,0,0,0,0,0,0,0,0,0,0,0,0,0,0,0,0,0,0,0,0,0,0,0,0,0,0,0,0,0,0,0,0,0,0,0,0,0,0,0,0,0,0,0,0,0,0,0,0,0,0,0,0,0,0,0,0,0,0,0,0,0,0,0,0,0,0,0,0,0,0,0,0,0,0,0,0,0,0,0,0,0,0,0,0,0,0,0,0,0,0,0,0,0,0,0,0,0,0,0,0,0,0,0,0,0,0,0,0,0,0,0,0,0,0,0,0,0,0,0,0,0,0,0,0,0,0,0,0,0,0,0,0,0,0,0,0,0,0,0,0,0,0,0,0,0,0,0,0,0,0,0,0,0,0,0,0,0,0,0,0,0,0,0,0,0,0,0,0,0,0,0,0,0,0,0,0,0,0,0,0,0,0,0,0,0,0,0,0,0,0,0,0,0,0,0,0,0,0,0,0,0,0,0,0,0,0,0,0,0,0,0,0,0,0,0,0,0,0,0,0,0,0,0,0,0,0,0,0,0,0,0,0,0,0,0,0,0,0,0,0,0,0,0,0,0,0,0,0,0,0,0,0,0,0,0,0,0,0,0,0,0,0,0,0,0,0,0,0,0,0,0,0,0,0,0,0,0,0,0,0,0,0,0,0,0,0,0,0,0,0,0,0,0,0,0,0,0,0,0,0,0,0,0,0,0,0,0,0,0,0,0,0,0,0,0,0,0,0,0,0,0,0,0,0,0,0,0,0,0,0,0,0,0,0,0,0,0,0,0,0,0,0,0,0,0,0,0,0,0,0,0,0,0,0,0,0,0,0,0,0,0,0,0,0,0,0,0,0,0,0,0,0,0,0,0,0,0,0,0,0,0,0,0,0,0,0,0,0,0,0,0,0,0,0,0,0,0,0,0,0,0,0,0,0,0,0,0,0,0,0,0,0,0,0,0,0,0,0,0,0,0,0,0,0,0,0,0,0,0,0,0,0,0,0,0,0,0,0,0,0,0,0,0,0,0,0,0,0,0,0,0,0,0,0,0,0,0,0,0,0,0,0,0,0,0,0,0,0,0,0,0,0,0,0,0,0,0,0,0,0,0,0,0,0,0,0,0,0,0,0,0,0,0,0,0,0,0,0,0,0,0,0,0],"trees":[{"base_weights":[4.4255585E6,2.4201258E6,4.655825E6,3.93062E6,5.0777385E6,1.02932175E6,3.9798825E6,5.3733995E6,3.3797258E6,5.727139E6,3.282789E6,3.5329158E6,9.2391275E5,1.6294182E6,5.79385E6],"categories":[],"categories_nodes":[],"categories_segments":[],"categories_sizes":[],"default_left":[1,0,1,1,1,0,0,1,1,1,0,0,0,0,0],"id":0,"left_children":[1,-1,3,5,7,-1,-1,9,11,13,-1,-1,-1,-1,-1],"loss_changes":[3.7681493E13,0E0,8.802804E12,1.4775359E12,9.953452E12,0E0,0E0,1.5217472E13,8.7416006E11,9.471745E11,0E0,0E0,0E0,0E0,0E0],"parents":[2147483647,0,0,2,2,3,3,4,4,7,7,8,8,9,9],"right_children":[2,-1,4,6,8,-1,-1,10,12,14,-1,-1,-1,-1,-1],"split_conditions":[1.5E0,2.4201258E4,2.75E0,-8.641139E18,4.5E0,1.0293217E4,3.9798824E4,2.5E0,6.75E0,3.5E0,3.282789E4,3.5329156E4,9.239127E3,1.6294183E4,5.79385E4],"split_indices":[31,0,31,0,35,0,0,8,6,5,0,0,0,0,0],"split_type":[0,0,0,0,0,0,0,0,0,0,0,0,0,0,0],"sum_hessian":[1.05E2,1.2E1,9.3E1,3.8E1,5.5E1,1E0,3.7E1,4.5E1,1E1,3.7E1,8E0,9E0,1E0,1E0,3.6E1],"tree_param":{"num_deleted":"0","num_feature":"41","num_nodes":"15","size_leaf_vector":"0"}},{"base_weights":[4.3782835E6,3.5363205E6,5.179977E6,3.1105802E6,4.2199985E6,6.0600925E6,4.0363795E6,1.0241751E6,4.364775E6,5.17406E6,9.196738E6,1.104743E6,5.322289E6,2.175138E6,5.5511315E6],"categories":[],"categories_nodes":[],"categories_segments":[],"categories_sizes":[],"default_left":[1,1,1,0,1,1,0,0,0,1,0,0,1,0,0],"id":1,"left_children":[1,3,5,-1,7,9,-1,-1,-1,11,-1,-1,13,-1,-1],"loss_changes":[4.513165E13,1.1357504E12,2.183803E13,0E0,2.9325902E12,1.9115624E13,0E0,0E0,0E0,6.787189E12,0E0,0E0,2.32955E12,0E0,0E0],"parents":[2147483647,0,0,1,1,2,2,4,4,5,5,9,9,12,12],"right_children":[2,4,6,-1,8,10,-1,-1,-1,12,-1,-1,14,-1,-1],"split_conditions":[2.75E0,5E-1,4.5E0,3.1105803E4,-8.5762506E18,4E0,4.0363793E4,1.0241751E4,4.364775E4,3.5E0,9.1967375E4,1.104743E4,-7.6938194E18,2.1751379E4,5.5511312E4],"split_indices":[31,17,26,0,0,24,0,0,0,11,0,0,0,0,0],"split_type":[0,0,0,0,0,0,0,0,0,0,0,0,0,0,0],"sum_hessian":[9.3E1,4.8E1,4.5E1,3.3E1,1.5E1,2.3E1,2.2E1,1E0,1.4E1,2E1,3E0,1E0,1.9E1,2E0,1.7E1],"tree_param":{"num_deleted":"0","num_feature":"41","num_nodes":"15","size_leaf_vector":"0"}},{"base_weights":[4.1460112E6,3.5101695E6,4.940503E6,3.5609152E6,1.3759446E6,5.3794555E6,3.394833E6,4.7091015E6,7.9234765E6,3.5399795E6,8.991113E5,1.01905425E6,4.811832E6,9.941492E6,3.2643022E6,1.3413722E6,4.8969955E6],"categories":[],"categories_nodes":[],"categories_segments":[],"categories_sizes":[],"default_left":[1,1,1,0,0,1,1,1,1,0,0,0,1,0,0,0,0],"id":2,"left_children":[1,3,5,-1,-1,7,9,11,13,-1,-1,-1,15,-1,-1,-1,-1],"loss_changes":[3.3175133E13,1.4902865E12,1.0233632E13,0E0,0E0,1.5554828E13,1.1641039E12,5.331598E12,1.4559369E13,0E0,0E0,0E0,1.1158191E12,0E0,0E0,0E0,0E0],"parents":[2147483647,0,0,1,1,2,2,5,5,6,6,7,7,8,8,12,12],"right_children":[2,4,6,-1,-1,8,10,12,14,-1,-1,-1,16,-1,-1,-1,-1],"split_conditions":[3.5E0,8.3709954E18,7E0,3.5609152E4,1.3759446E4,4.5E0,6.75E0,-8.278094E18,4.5E0,3.5399793E4,8.991113E3,1.0190542E4,2.5E0,9.9414914E4,3.2643021E4,1.3413723E4,4.8969953E4],"split_indices":[4,0,23,0,0,24,6,0,16,0,0,0,6,0,0,0,0],"split_type":[0,0,0,0,0,0,0,0,0,0,0,0,0,0,0,0,0],"sum_hessian":[9.9E1,5.8E1,4.1E1,5.6E1,2E0,3E1,1.1E1,2.6E1,4E0,1E1,1E0,1E0,2.5E1,2E0,2E0,1E0,2.4E1],"tree_param":{"num_deleted":"0","num_feature":"41","num_nodes":"17","size_leaf_vector":"0"}},{"base_weights":[4.4630385E6,3.6061438E6,5.1681905E6,2.3683028E6,3.7597188E6,4.1694892E6,6.159613E6,9.577099E5,3.8058262E6,2.8681075E6,4.9193995E6,6.56954E6,2.467592E6,3.9647632E6,2.24439E6,5.4115515E6,2.655924E6,6.8972995E6,2.303883E6],"categories":[],"categories_nodes":[],"categories_segments":[],"categories_sizes":[],"default_left":[1,1,1,0,1,1,1,0,1,0,1,1,0,0,0,0,0,0,0],"id":3,"left_children":[1,3,5,-1,7,9,11,-1,13,-1,15,17,-1,-1,-1,-1,-1,-1,-1],"loss_changes":[4.1182562E13,2.2072105E11,2.5804566E13,0E0,1.652086E12,1.4192317E13,2.0112057E13,0E0,1.0283091E12,0E0,4.564879E12,1.3469756E13,0E0,0E0,0E0,0E0,0E0,0E0,0E0],"parents":[2147483647,0,0,1,1,2,2,4,4,5,5,6,6,8,8,10,10,11,11],"right_children":[2,4,6,-1,8,10,12,-1,14,-1,16,18,-1,-1,-1,-1,-1,-1,-1],"split_conditions":[4.75E0,1.5E0,-5.041564E18,2.3683027E4,3.5E0,1.5E0,2.5E0,9.577099E3,2.5E0,2.8681074E4,1.05E1,7E0,2.467592E4,3.9647633E4,2.24439E4,5.4115516E4,2.655924E4,6.897299E4,2.303883E4],"split_indices":[5,9,3,0,15,20,8,0,25,0,21,23,0,0,0,0,0,0,0],"split_type":[0,0,0,0,0,0,0,0,0,0,0,0,0,0,0,0,0,0,0],"sum_hessian":[9.8E1,4.7E1,5.1E1,7E0,4E1,2.8E1,2.3E1,1E0,3.9E1,1.2E1,1.6E1,2E1,3E0,3.4E1,5E0,1.2E1,4E0,1.8E1,2E0],"tree_param":{"num_deleted":"0","num_feature":"41","num_nodes":"19","size_leaf_vector":"0"}},{"base_weights":[4.0557142E6,3.3767298E6,4.6418615E6,2.5202928E6,3.7056325E6,4.8811975E6,2.982605E6,9.9961844E5,3.7573415E6,4.506703E6,7.4058435E6,3.138541E6,8.67558E5,3.2026608E6,5.161022E6,3.4691342E6,8.915647E5,1.9574472E6,5.5088985E6],"categories":[],"categories_nodes":[],"categories_segments":[],"categories_sizes":[],"default_left":[1,1,1,0,1,1,1,0,0,1,0,0,0,1,1,0,0,0,0],"id":4,"left_children":[1,3,5,-1,7,9,11,-1,-1,13,-1,-1,-1,15,17,-1,-1,-1,-1],"loss_changes":[2.412416E13,4.744932E12,5.6944555E12,0E0,1.0015327E12,7.279097E12,2.4544228E11,0E0,0E0,1.760138E13,0E0,0E0,0E0,6.7605805E12,1.7077797E13,0E0,0E0,0E0,0E0],"parents":[2147483647,0,0,1,1,2,2,4,4,5,5,6,6,9,9,13,13,14,14],"right_children":[2,4,6,-1,8,10,12,-1,-1,14,-1,-1,-1,16,18,-1,-1,-1,-1],"split_conditions":[2.75E0,1.5E0,7E0,2.5202928E4,-8.6924476E18,3.5E0,6.75E0,9.996185E3,3.7573414E4,2.25E0,7.405843E4,3.138541E4,8.67558E3,5.0646144E17,4.5E0,3.469134E4,8.915646E3,1.9574473E4,5.5088984E4],"split_indices":[31,23,19,0,0,17,6,0,0,32,0,0,0,0,13,0,0,0,0],"split_type":[0,0,0,0,0,0,0,0,0,0,0,0,0,0,0,0,0,0,0],"sum_hessian":[9.9E1,4.9E1,5E1,1.6E1,3.3E1,4.2E1,8E0,1E0,3.2E1,3.9E1,3E0,7E0,1E0,1.5E1,2.4E1,1.3E1,2E0,3E0,2.1E1],"tree_param":{"num_deleted":"0","num_feature":"41","num_nodes":"19","size_leaf_vector":"0"}},{"base_weights":[4.2062765E6,3.0149595E6,4.572961E6,3.0763628E6,7.399402E5,3.8099098E6,5.212419E6,3.1529445E6,4.7802345E6,2.070499E6,5.4287505E6,3.212382E6,8.632202E5,5.5908965E6,2.3649955E6,4.573146E6,6.802E6,9.403199E5,3.270284E6,1.6159022E6,5.885783E6,4.5478056E5,4.7324325E6,8.003996E6,2.697509E6,8.688233E6,1.6071692E6],"categories":[],"categories_nodes":[],"categories_segments":[],"categories_sizes":[],"default_left":[1,1,1,0,0,1,1,1,1,0,1,1,0,1,0,1,1,0,0,0,0,0,0,1,0,0,0],"id":5,"left_children":[1,3,5,-1,-1,7,9,11,13,-1,15,17,-1,19,-1,21,23,-1,-1,-1,-1,-1,-1,25,-1,-1,-1],"loss_changes":[2.9022839E13,1.3556997E12,1.5760785E13,0E0,0E0,8.5145713E12,1.3908513E13,6.2939726E11,1.2230792E13,0E0,8.842063E12,8.224191E10,0E0,1.038711E12,0E0,1.3591793E13,3.267856E13,0E0,0E0,0E0,0E0,0E0,0E0,2.1052084E13,0E0,0E0,0E0],"parents":[2147483647,0,0,1,1,2,2,5,5,6,6,7,7,8,8,10,10,11,11,13,13,15,15,16,16,23,23],"right_children":[2,4,6,-1,-1,8,10,12,14,-1,16,18,-1,20,-1,22,24,-1,-1,-1,-1,-1,-1,26,-1,-1,-1],"split_conditions":[3.5E0,7.450431E18,-5.041564E18,3.0763627E4,7.399402E3,3.5E0,-2.601864E18,8.75E0,9E0,2.070499E4,3.5E0,-8.041716E18,8.632202E3,3E0,2.3649955E4,3.5E0,2.6193182E18,9.403198E3,3.270284E4,1.6159022E4,5.885783E4,4.5478057E3,4.7324324E4,6.25E0,2.697509E4,8.688233E4,1.6071692E4],"split_indices":[5,1,3,0,0,17,1,31,12,0,9,1,0,27,0,15,1,0,0,0,0,0,0,5,0,0,0],"split_type":[0,0,0,0,0,0,0,0,0,0,0,0,0,0,0,0,0,0,0,0,0,0,0,0,0,0,0],"sum_hessian":[9.7E1,2.5E1,7.2E1,2.4E1,1E0,3.6E1,3.6E1,2.4E1,1.2E1,3E0,3.3E1,2.3E1,1E0,8E0,4E0,2.3E1,1E1,1E0,2.2E1,1E0,7E0,1E0,2.2E1,7E0,3E0,6E0,1E0],"tree_param":{"num_deleted":"0","num_feature":"41","num_nodes":"27","size_leaf_vector":"0"}},{"base_weights":[4.0271185E6,2.3217212E6,4.2848905E6,2.9126512E6,4.493417E6,6.765906E6,4.14764E6,1.0565586E6,7.5413705E6,3.7758535E6,5.5918095E6,3.8178542E6,8.5890406E5,2.3394858E6,6.6514505E6,1.6633606E6,7.205572E6],"categories":[],"categories_nodes":[],"categories_segments":[],"categories_sizes":[],"default_left":[1,0,1,0,1,1,1,0,0,1,1,0,0,0,1,0,0],"id":6,"left_children":[1,-1,3,-1,5,7,9,-1,-1,11,13,-1,-1,-1,15,-1,-1],"loss_changes":[2.9615947E13,0E0,8.945612E12,0E0,2.3012837E13,2.302391E13,1.0564613E13,0E0,0E0,2.8466238E12,1.8901983E13,0E0,0E0,0E0,7.3625806E12,0E0,0E0],"parents":[2147483647,0,0,2,2,4,4,5,5,6,6,9,9,10,10,14,14],"right_children":[2,-1,4,-1,6,8,10,-1,-1,12,14,-1,-1,-1,16,-1,-1],"split_conditions":[1.5E0,2.3217213E4,3.5E0,2.9126512E4,1.5E0,-5.088244E18,5.777194E18,1.0565586E4,7.54137E4,6.75E0,3.5E0,3.8178543E4,8.58904E3,2.3394857E4,2.5E0,1.6633605E4,7.205572E4],"split_indices":[31,0,5,0,22,0,0,0,0,6,4,0,0,0,31,0,0],"split_type":[0,0,0,0,0,0,0,0,0,0,0,0,0,0,0,0,0],"sum_hessian":[8.9E1,1.3E1,7.6E1,1.2E1,6.4E1,6E0,5.8E1,1E0,5E0,4.9E1,9E0,4.8E1,1E0,3E0,6E0,1E0,5E0],"tree_param":{"num_deleted":"0","num_feature":"41","num_nodes":"17","size_leaf_vector":"0"}},{"base_weights":[4.1832325E6,2.7682885E6,4.4197895E6,2.8461638E6,7.6114225E5,4.477262E6,1.3756112E6,4.8684525E6,3.676644E6,4.2236305E6,7.479977E6,1.8551335E6,3.8777888E6,8.41074E5,8.2047055E6],"categories":[],"categories_nodes":[],"categories_segments":[],"categories_sizes":[],"default_left":[1,1,1,0,0,1,0,1,1,0,1,0,0,0,0],"id":7,"left_children":[1,3,5,-1,-1,7,-1,9,11,-1,13,-1,-1,-1,-1],"loss_changes":[2.1236332E13,4.9089295E11,8.537321E12,0E0,0E0,7.7823465E12,0E0,5.597376E13,4.164172E12,0E0,3.6401895E13,0E0,0E0,0E0,0E0],"parents":[2147483647,0,0,1,1,2,2,5,5,7,7,8,8,10,10],"right_children":[2,4,6,-1,-1,8,-1,10,12,-1,14,-1,-1,-1,-1],"split_conditions":[1.5E0,8.3709954E18,2.25E1,2.8461637E4,7.6114224E3,1.9008257E18,1.3756112E4,-1.7395355E17,3.5E0,4.2236305E4,3.5E0,1.8551334E4,3.8777887E4,8.41074E3,8.2047055E4],"split_indices":[31,0,33,0,0,0,0,0,11,0,6,0,0,0,0],"split_type":[0,0,0,0,0,0,0,0,0,0,0,0,0,0,0],"sum_hessian":[9.9E1,1.6E1,8.3E1,1.5E1,1E0,8.1E1,2E0,5.1E1,3E1,4.3E1,8E0,4E0,2.6E1,1E0,7E0],"tree_param":{"num_deleted":"0","num_feature":"41","num_nodes":"15","size_leaf_vector":"0"}},{"base_weights":[4.1740455E6,2.298668E6,4.501033E6,2.4173722E6,9.784917E5,5.730996E6,4.044142E6,3.1012182E6,7.3616325E6,2.9852708E6,4.4878535E6,3.2650178E6,8.954108E5,3.4536925E6,1.0042634E7,5.0621085E6,3.379369E6,3.7394028E6,1.01257056E6,1.0924341E7,2.8170508E6,2.5670545E6,5.285659E6,3.484613E6,8.477315E5,1.2075636E7,3.1595788E6,2.99156E6,5.629261E6],"categories":[],"categories_nodes":[],"categories_segments":[],"categories_sizes":[],"default_left":[1,1,1,0,0,1,1,1,1,0,1,0,0,1,1,1,1,0,0,1,0,0,1,0,0,0,0,0,0],"id":8,"left_children":[1,3,5,-1,-1,7,9,11,13,-1,15,-1,-1,17,19,21,23,-1,-1,25,-1,-1,27,-1,-1,-1,-1,-1,-1],"loss_changes":[4.7296717E13,1.4198558E11,2.1217675E13,0E0,0E0,5.8646034E13,1.5262368E13,3.28263E11,8.0565E13,0E0,8.991917E12,0E0,0E0,3.983079E11,7.4506945E12,3.7567542E11,1.5754645E12,0E0,0E0,6.5437853E12,0E0,0E0,5.0143743E11,0E0,0E0,0E0,0E0,0E0,0E0],"parents":[2147483647,0,0,1,1,2,2,5,5,6,6,7,7,8,8,10,10,13,13,14,14,15,15,16,16,19,19,22,22],"right_children":[2,4,6,-1,-1,8,10,12,14,-1,16,-1,-1,18,20,22,24,-1,-1,26,-1,-1,28,-1,-1,-1,-1,-1,-1],"split_conditions":[1.5E0,7.450431E18,4.5E0,2.4173723E4,9.784917E3,-8.0318754E17,2.5E0,-1.1409206E18,3.5E0,2.9852707E4,2.5E0,3.2650178E4,8.954108E3,2.6193182E18,4.5E0,-5.70263E18,6.75E0,3.7394027E4,1.0125705E4,4.5E0,2.8170508E4,2.5670545E4,-2.601864E18,3.484613E4,8.477314E3,1.2075636E5,3.1595787E4,2.99156E4,5.629261E4],"split_indices":[31,1,13,0,0,0,31,0,9,0,35,0,0,1,35,0,6,0,0,26,0,0,1,0,0,0,0,0,0],"split_type":[0,0,0,0,0,0,0,0,0,0,0,0,0,0,0,0,0,0,0,0,0,0,0,0,0,0,0,0,0],"sum_hessian":[9.3E1,1.5E1,7.8E1,1.3E1,2E0,1.8E1,6E1,8E0,1E1,2E1,4E1,7E0,1E0,5E0,5E0,2.4E1,1.6E1,4E0,1E0,4E0,1E0,3E0,2.1E1,1.5E1,1E0,3E0,1E0,4E0,1.7E1],"tree_param":{"num_deleted":"0","num_feature":"41","num_nodes":"29","size_leaf_vector":"0"}},{"base_weights":[4.0857702E6,3.1774335E6,4.6940625E6,1.9171368E6,3.334229E6,4.9627535E6,2.9618095E6,6.013247E6,4.1670322E6,1.5857351E6,3.614903E6,3.7594408E6,8.360575E6,2.2494055E6,4.375536E6,1.8421598E6,4.5918645E6,8.956869E6,2.0932602E6,4.460687E6,1.1233808E6,2.1158512E6,3.736968E5],"categories":[],"categories_nodes":[],"categories_segments":[],"categories_sizes":[],"default_left":[1,1,1,0,0,1,1,1,1,0,0,1,1,0,1,1,0,0,0,0,0,0,0],"id":9,"left_children":[1,3,5,-1,-1,7,9,11,13,-1,-1,15,17,-1,19,21,-1,-1,-1,-1,-1,-1,-1],"loss_changes":[3.868088E13,1.9074352E12,1.1365826E13,0E0,0E0,1.4230032E13,3.2547715E12,6.3796505E13,2.152651E12,0E0,0E0,9.096942E12,1.1148192E13,0E0,2.1889569E12,1.2188427E12,0E0,0E0,0E0,0E0,0E0,0E0,0E0],"parents":[2147483647,0,0,1,1,2,2,5,5,6,6,7,7,8,8,11,11,12,12,14,14,15,15],"right_children":[2,4,6,-1,-1,8,10,12,14,-1,-1,16,18,-1,20,22,-1,-1,-1,-1,-1,-1,-1],"split_conditions":[1.362887E18,1.5E0,2.5E0,1.9171367E4,3.334229E4,2.25E0,3.5E0,3.5E0,1.5E0,1.5857351E4,3.6149027E4,1.5E0,4.5E0,2.2494055E4,1.35E1,4.5E0,4.5918645E4,8.956869E4,2.0932602E4,4.4606867E4,1.1233808E4,2.1158512E4,3.736968E3],"split_indices":[2,10,8,0,0,32,8,9,23,0,0,32,6,0,19,4,0,0,0,0,0,0,0],"split_type":[0,0,0,0,0,0,0,0,0,0,0,0,0,0,0,0,0,0,0,0,0,0,0],"sum_hessian":[9.6E1,4.1E1,5.5E1,6E0,3.5E1,4.6E1,9E0,1.7E1,2.9E1,4E0,5E0,1E1,7E0,4E0,2.5E1,4E0,6E0,6E0,1E0,2.4E1,1E0,3E0,1E0],"tree_param":{"num_deleted":"0","num_feature":"41","num_nodes":"23","size_leaf_vector":"0"}},{"base_weights":[4.2080735E6,3.2745885E6,4.985833E6,2.8789255E6,4.4506485E6,6.7723055E6,4.2625E6,2.5145912E6,3.5446015E6,4.8824255E6,1.8156929E6,4.023906E6,9.30812E6,1.088924E6,4.4046145E6,2.153532E6,3.2901215E6,1.4558492E6,5.163958E6,4.3172625E6,9.852043E5,1.6915898E6,1.0493109E7,4.806839E6,2.6191552E6,1.0116217E6,4.6995995E6],"categories":[],"categories_nodes":[],"categories_segments":[],"categories_sizes":[],"default_left":[1,1,1,1,1,1,1,1,0,1,0,1,1,0,1,0,0,0,0,1,0,0,0,0,0,0,0],"id":10,"left_children":[1,3,5,7,9,11,13,15,-1,17,-1,19,21,-1,23,-1,-1,-1,-1,25,-1,-1,-1,-1,-1,-1,-1],"loss_changes":[5.409793E13,9.057113E12,3.703604E13,3.028623E11,2.5121532E12,5.314767E13,1.2793097E13,7.549747E11,0E0,1.9959854E11,0E0,2.8780056E12,3.6402935E13,0E0,1.398193E13,0E0,0E0,0E0,0E0,4.0928522E12,0E0,0E0,0E0,0E0,0E0,0E0,0E0],"parents":[2147483647,0,0,1,1,2,2,3,3,4,4,5,5,6,6,7,7,9,9,11,11,12,12,14,14,19,19],"right_children":[2,4,6,8,10,12,14,16,-1,18,-1,20,22,-1,24,-1,-1,-1,-1,26,-1,-1,-1,-1,-1,-1,-1],"split_conditions":[4.75E0,2.75E0,4.5E0,1.5E0,4.5E0,3.5E0,1.5E0,1.5E0,3.5446016E4,3.5E0,1.8156928E4,2.6193182E18,-1.4239911E18,1.088924E4,4.5E0,2.153532E4,3.2901215E4,1.4558492E4,5.163958E4,-7.6938194E18,9.852043E3,1.6915896E4,1.04931086E5,4.806839E4,2.6191553E4,1.0116217E4,4.6995992E4],"split_indices":[5,31,13,19,14,9,31,24,0,5,0,1,0,0,29,0,0,0,0,0,0,0,0,0,0,0,0],"split_type":[0,0,0,0,0,0,0,0,0,0,0,0,0,0,0,0,0,0,0,0,0,0,0,0,0,0,0],"sum_hessian":[9.6E1,4.6E1,5E1,3.7E1,9E0,1.2E1,3.8E1,2.7E1,1E1,7E0,2E0,7E0,5E0,2E0,3.6E1,2.1E1,6E0,1E0,6E0,6E0,1E0,1E0,4E0,2.8E1,8E0,1E0,5E0],"tree_param":{"num_deleted":"0","num_feature":"41","num_nodes":"27","size_leaf_vector":"0"}},{"base_weights":[4.1758135E6,3.280748E6,4.8045115E6,2.2212688E6,3.608638E6,5.5654875E6,3.4706985E6,1.9546064E6,3.7751208E6,7.559545E6,4.419649E6,4.204835E6,2.0958374E6,4.1492962E6,9.70987E6,8.8773594E5,4.534613E6,2.699606E6,4.996306E6,1.0227616E6,4.6477535E6],"categories":[],"categories_nodes":[],"categories_segments":[],"categories_sizes":[],"default_left":[1,1,1,0,1,1,1,0,0,1,1,1,0,0,0,0,1,0,0,0,0],"id":11,"left_children":[1,3,5,-1,7,9,11,-1,-1,13,15,17,-1,-1,-1,-1,19,-1,-1,-1,-1],"loss_changes":[3.994749E13,7.2695006E12,3.7523787E13,0E0,1.4329085E12,4.4275006E13,1.4402066E13,0E0,0E0,4.0375444E13,5.719487E12,3.1907916E12,0E0,0E0,0E0,0E0,4.385128E12,0E0,0E0,0E0,0E0],"parents":[2147483647,0,0,1,1,2,2,4,4,5,5,6,6,9,9,10,10,11,11,16,16],"right_children":[2,4,6,-1,8,10,12,-1,-1,14,16,18,-1,-1,-1,-1,20,-1,-1,-1,-1],"split_conditions":[1.362887E18,1.5E0,2.6193182E18,2.2212688E4,-5.3119936E18,2.25E0,3.5E0,1.9546062E4,3.7751207E4,-8.3241345E17,-8.5762506E18,1.5E0,2.0958373E4,4.149296E4,9.7098695E4,8.877359E3,1.5E0,2.6996059E4,4.996306E4,1.0227616E4,4.6477535E4],"split_indices":[2,31,1,0,1,32,22,0,0,0,0,22,0,0,0,0,4,0,0,0,0],"split_type":[0,0,0,0,0,0,0,0,0,0,0,0,0,0,0,0,0,0,0,0,0],"sum_hessian":[9.8E1,4.3E1,5.5E1,1.2E1,3.1E1,3.3E1,2.2E1,4E0,2.7E1,1E1,2.3E1,1.3E1,9E0,5E0,5E0,1E0,2.2E1,6E0,7E0,1E0,2.1E1],"tree_param":{"num_deleted":"0","num_feature":"41","num_nodes":"21","size_leaf_vector":"0"}},{"base_weights":[3.996306E6,2.413496E6,4.2863245E6,2.666895E6,9.23225E5,5.482793E6,3.7878132E6,1.4971341E6,3.150414E6,6.177122E6,2.0255164E6,3.8534878E6,1.2773941E6,3.3742482E6,6.798697E5,2.584462E6,7.083751E6,2.410887E6,4.0398128E6,2.085374E6,7.3265015E6,9.982231E5,4.0823828E6,4.1232238E6,1.0814294E6,3.3692568E6,4.6026105E6,1.3937359E6,3.497122E6,5.271038E6,3.3835248E6],"categories":[],"categories_nodes":[],"categories_segments":[],"categories_sizes":[],"default_left":[1,1,1,1,0,1,1,0,1,1,0,1,0,0,0,0,1,0,1,0,0,0,1,1,0,1,1,0,0,0,0],"id":12,"left_children":[1,3,5,7,-1,9,11,-1,13,15,-1,17,-1,-1,-1,-1,19,-1,21,-1,-1,-1,23,25,-1,27,29,-1,-1,-1,-1],"loss_changes":[3.3264253E13,3.9576278E12,2.635204E13,3.201831E12,0E0,3.789832E13,4.8049276E12,0E0,2.682895E12,3.7064897E13,0E0,5.5816455E12,0E0,0E0,0E0,0E0,4.951292E11,0E0,2.2694205E12,0E0,0E0,0E0,1.4240501E12,1.4803544E12,0E0,6.8315146E11,3.3519535E12,0E0,0E0,0E0,0E0],"parents":[2147483647,0,0,1,1,2,2,3,3,5,5,6,6,8,8,9,9,11,11,16,16,18,18,22,22,23,23,25,25,26,26],"right_children":[2,4,6,8,-1,10,12,-1,14,16,-1,18,-1,-1,-1,-1,20,-1,22,-1,-1,-1,24,26,-1,28,30,-1,-1,-1,-1],"split_conditions":[1.5E0,4.56917E18,4.5E0,-8.662337E17,9.23225E3,3.1582334E18,2.25E1,1.4971341E4,1.5E0,-1.5528037E18,2.0255164E4,2.25E0,1.2773941E4,3.374248E4,6.798697E3,2.584462E4,-5.509367E18,2.410887E4,3E0,2.085374E4,7.3265016E4,9.982231E3,1.35E1,2.5E0,1.0814294E4,-4.6948892E17,5.5E0,1.3937358E4,3.497122E4,5.271038E4,3.3835246E4],"split_indices":[31,1,13,1,0,1,33,0,26,0,0,32,0,0,0,0,1,0,11,0,0,0,17,31,0,1,5,0,0,0,0],"split_type":[0,0,0,0,0,0,0,0,0,0,0,0,0,0,0,0,0,0,0,0,0,0,0,0,0,0,0,0,0,0,0],"sum_hessian":[9.4E1,1.6E1,7.8E1,1.3E1,3E0,2E1,5.8E1,5E0,8E0,1.6E1,4E0,5.6E1,2E0,7E0,1E0,4E0,1.2E1,8E0,4.8E1,1E0,1.1E1,1E0,4.7E1,4.6E1,1E0,2.1E1,2.5E1,2E0,1.9E1,1.4E1,1.1E1],"tree_param":{"num_deleted":"0","num_feature":"41","num_nodes":"31","size_leaf_vector":"0"}},{"base_weights":[3.8375045E6,3.3195865E6,5.0513075E6,2.9696172E6,4.407357E6,9.363924E6,4.2691705E6,3.1831318E6,1.865005E6,4.392454E6,7.784679E5,2.1430258E6,3.4736985E6,1.9988758E6,2.631485E5,1.6496079E6,4.584258E6,2.8380362E6,4.2966325E6,2.3179818E6,4.0386138E6],"categories":[],"categories_nodes":[],"categories_segments":[],"categories_sizes":[],"default_left":[1,1,1,1,0,0,1,1,1,1,0,0,1,0,0,0,0,1,0,0,0],"id":13,"left_children":[1,3,5,7,-1,-1,9,11,13,15,-1,-1,17,-1,-1,-1,-1,19,-1,-1,-1],"loss_changes":[3.981032E13,1.2037116E13,4.4350168E13,6.563549E12,0E0,0E0,6.478589E12,5.551245E12,1.8328605E12,4.0117343E12,0E0,0E0,4.545451E12,0E0,0E0,0E0,0E0,3.7502446E12,0E0,0E0,0E0],"parents":[2147483647,0,0,1,1,2,2,3,3,6,6,7,7,8,8,9,9,12,12,17,17],"right_children":[2,4,6,8,-1,-1,10,12,14,16,-1,-1,18,-1,-1,-1,-1,20,-1,-1,-1],"split_conditions":[3.5E0,1.5E0,3.5E0,4.5E0,4.407357E4,9.3639234E4,6.75E0,2.5E0,4.5E0,3.5E0,7.7846787E3,2.1430258E4,2.5E0,1.9988758E4,2.6314849E3,1.6496078E4,4.584258E4,2.5E0,4.2966324E4,2.3179816E4,4.0386137E4],"split_indices":[31,20,15,23,0,0,6,5,4,11,0,0,14,0,0,0,0,31,0,0,0],"split_type":[0,0,0,0,0,0,0,0,0,0,0,0,0,0,0,0,0,0,0,0,0],"sum_hessian":[8.9E1,6.5E1,2.4E1,5.2E1,1.3E1,2E0,2.2E1,4.2E1,1E1,2.1E1,1E0,1.1E1,3.1E1,9E0,1E0,2E0,1.9E1,2E1,1.1E1,1.6E1,4E0],"tree_param":{"num_deleted":"0","num_feature":"41","num_nodes":"21","size_leaf_vector":"0"}},{"base_weights":[4.1823682E6,3.299025E6,4.824678E6,2.9869732E6,4.521731E6,5.242667E6,3.1031225E6,2.6420115E6,3.9503285E6,1.3440856E6,4.827324E6,4.3054905E6,6.8094855E6,1.8067542E6,2.9015825E6,2.2172502E6,4.7538465E6,7.977031E6,1.8963636E6,2.9619428E6,8.170097E5,2.4995145E6,2.6183275E5,1.9900776E6,8.3767185E6,1.6425281E6,3.175774E6],"categories":[],"categories_nodes":[],"categories_segments":[],"categories_sizes":[],"default_left":[1,1,1,1,1,1,0,1,0,0,0,1,1,0,1,1,0,1,0,1,0,0,0,0,0,0,0],"id":14,"left_children":[1,3,5,7,9,11,-1,13,-1,-1,-1,15,17,-1,19,21,-1,23,-1,25,-1,-1,-1,-1,-1,-1,-1],"loss_changes":[3.91191E13,3.2817912E12,2.258938E13,2.1913728E12,3.0913698E11,3.2353989E13,0E0,1.4786264E12,0E0,0E0,0E0,1.6611491E13,6.518076E13,0E0,3.482279E11,3.2091543E12,0E0,9.651664E12,0E0,7.084683E11,0E0,0E0,0E0,0E0,0E0,0E0,0E0],"parents":[2147483647,0,0,1,1,2,2,3,3,4,4,5,5,7,7,11,11,12,12,14,14,15,15,17,17,19,19],"right_children":[2,4,6,8,10,12,-1,14,-1,-1,-1,16,18,-1,20,22,-1,24,-1,26,-1,-1,-1,-1,-1,-1,-1],"split_conditions":[4.75E0,2.75E0,7.5E0,2.5E0,2E0,3.5E0,3.1031225E4,1.5E0,3.9503285E4,1.3440855E4,4.827324E4,1.5E0,2.6193182E18,1.8067543E4,7.656414E18,4.5E0,4.7538465E4,-3.0693818E18,1.8963637E4,1.5E0,8.1700967E3,2.4995145E4,2.6183274E3,1.9900775E4,8.376718E4,1.6425281E4,3.175774E4],"split_indices":[5,31,23,28,32,9,0,31,0,0,0,32,1,0,0,4,0,0,0,14,0,0,0,0,0,0,0],"split_type":[0,0,0,0,0,0,0,0,0,0,0,0,0,0,0,0,0,0,0,0,0,0,0,0,0,0,0],"sum_hessian":[9.6E1,4.3E1,5.3E1,3.7E1,6E0,4.1E1,1.2E1,3E1,7E0,1E0,5E0,2.8E1,1.3E1,9E0,2.1E1,6E0,2.2E1,1E1,3E0,2E1,1E0,5E0,1E0,1E0,9E0,4E0,1.6E1],"tree_param":{"num_deleted":"0","num_feature":"41","num_nodes":"27","size_leaf_vector":"0"}},{"base_weights":[3.913846E6,3.3731888E6,5.008432E6,2.1669345E6,3.561356E6,5.945327E6,2.7645018E6,2.2470925E6,6.425984E5,1.403899E6,3.6518645E6,6.727615E6,2.096482E6,7.5905994E5,2.88914E6,3.085847E6,4.107673E6,9.142958E6,4.5789775E6,8.288736E5,3.1368505E6,2.4339668E6,4.3656975E6,1.0431446E7,3.9478255E6,1.5320725E6,4.562611E6,1.1591035E7,2.8965442E6,2.0375851E6,2.605236E5,4.657005E6,1.3373652E6],"categories":[],"categories_nodes":[],"categories_segments":[],"categories_sizes":[],"default_left":[1,1,1,1,1,1,1,0,0,0,1,1,0,0,0,1,1,1,0,0,0,0,1,1,0,1,1,0,0,0,0,0,0],"id":15,"left_children":[1,3,5,7,9,11,13,-1,-1,-1,15,17,-1,-1,-1,19,21,23,-1,-1,-1,-1,25,27,-1,29,31,-1,-1,-1,-1,-1,-1],"loss_changes":[4.2285027E13,8.1712424E12,4.8736336E13,2.2275949E10,6.3939983E12,4.9124695E13,5.564667E11,0E0,0E0,0E0,1.7720767E12,4.6359407E13,0E0,0E0,0E0,7.3824784E11,1.4660602E12,5.675531E12,0E0,0E0,0E0,0E0,5.8432695E12,1.0113004E13,0E0,1.3975127E12,1.6522202E11,0E0,0E0,0E0,0E0,0E0,0E0],"parents":[2147483647,0,0,1,1,2,2,3,3,4,4,5,5,6,6,10,10,11,11,15,15,16,16,17,17,22,22,23,23,25,25,26,26],"right_children":[2,4,6,8,10,12,14,-1,-1,-1,16,18,-1,-1,-1,20,22,24,-1,-1,-1,-1,26,28,-1,30,32,-1,-1,-1,-1,-1,-1],"split_conditions":[3.5E0,2.5E0,7E0,5.943878E18,-7.891265E18,2.6193182E18,5.25E0,2.2470924E4,6.4259834E3,1.4038989E4,2.5E0,4.5E0,2.096482E4,7.590599E3,2.8891398E4,-4.2839659E18,3.5E0,2.5E0,4.5789773E4,8.288736E3,3.1368504E4,2.4339666E4,3.5E0,4.5E0,3.9478254E4,-2.1470889E18,4.5E0,1.1591034E5,2.8965441E4,2.0375852E4,2.6052358E3,4.657005E4,1.3373652E4],"split_indices":[9,5,19,1,1,1,7,0,0,0,14,13,0,0,0,1,11,32,0,0,0,0,15,26,0,1,35,0,0,0,0,0,0],"split_type":[0,0,0,0,0,0,0,0,0,0,0,0,0,0,0,0,0,0,0,0,0,0,0,0,0,0,0,0,0,0,0,0,0],"sum_hessian":[9.9E1,6.9E1,3E1,1.1E1,5.8E1,2E1,1E1,1E1,1E0,3E0,5.5E1,1.6E1,4E0,1E0,9E0,2.8E1,2.7E1,6E0,1E1,1E0,2.7E1,5E0,2.2E1,4E0,2E0,2E0,2E1,3E0,1E0,1E0,1E0,1.9E1,1E0],"tree_param":{"num_deleted":"0","num_feature":"41","num_nodes":"33","size_leaf_vector":"0"}},{"base_weights":[3.812822E6,5.217464E6,3.3057378E6,3.6132518E6,6.7848735E6,2.1137298E6,3.4181972E6,4.2921775E6,1.5327495E6,2.5153292E6,8.86528E6,3.4678988E6,1.2185019E6,1.9745622E6,5.003361E6,2.5922097E5,1.7863264E6,2.6415402E6,9.462314E6,3.583383E6,2.0156152E6,7.5984794E5,3.619588E6],"categories":[],"categories_nodes":[],"categories_segments":[],"categories_sizes":[],"default_left":[1,1,1,1,1,0,1,1,1,0,1,1,0,0,0,0,0,0,0,1,0,0,0],"id":16,"left_children":[1,3,5,7,9,-1,11,13,15,-1,17,19,-1,-1,-1,-1,-1,-1,-1,21,-1,-1,-1],"loss_changes":[5.1842805E13,3.583157E13,2.6947564E12,1.319627E13,7.540714E13,0E0,2.9899683E12,6.6030425E12,1.1516332E12,0E0,1.0153571E12,3.5110687E12,0E0,0E0,0E0,0E0,0E0,0E0,0E0,3.1788127E12,0E0,0E0,0E0],"parents":[2147483647,0,0,1,1,2,2,3,3,4,4,6,6,7,7,8,8,10,10,11,11,19,19],"right_children":[2,4,6,8,10,-1,12,14,16,-1,18,20,-1,-1,-1,-1,-1,-1,-1,22,-1,-1,-1],"split_conditions":[4.5E0,3.5E0,1.5E0,1.3449465E18,-6.803156E17,2.1137297E4,2.25E1,2.5E0,1.9667323E18,2.5153291E4,2.5E0,8.2700273E18,1.2185019E4,1.9745621E4,5.003361E4,2.5922097E3,1.7863264E4,2.6415402E4,9.462314E4,2.5E0,2.0156152E4,7.598479E3,3.619588E4],"split_indices":[16,9,9,0,0,0,33,22,0,0,4,0,0,0,0,0,0,0,0,15,0,0,0],"split_type":[0,0,0,0,0,0,0,0,0,0,0,0,0,0,0,0,0,0,0,0,0,0,0],"sum_hessian":[9.6E1,2.3E1,7.3E1,1.3E1,1E1,8E0,6.5E1,9E0,4E0,4E0,6E0,6.3E1,2E0,3E0,6E0,1E0,3E0,1E0,5E0,5.7E1,6E0,1E0,5.6E1],"tree_param":{"num_deleted":"0","num_feature":"41","num_nodes":"23","size_leaf_vector":"0"}},{"base_weights":[3.7291562E6,2.6987128E6,4.0272318E6,2.75582E6,7.2117725E5,3.2169235E6,4.7190915E6,2.3712568E6,3.836891E6,4.9471815E6,1.7716245E6,3.9744525E6,7.491721E5,4.4160065E6,7.4286105E6],"categories":[],"categories_nodes":[],"categories_segments":[],"categories_sizes":[],"default_left":[1,1,1,0,0,1,1,0,1,1,0,0,0,0,0],"id":17,"left_children":[1,3,5,-1,-1,7,9,-1,11,13,-1,-1,-1,-1,-1],"loss_changes":[1.6467978E13,6.09986E11,2.2380538E13,0E0,0E0,8.7274407E12,1.4093197E13,0E0,4.667975E12,8.0554796E12,0E0,0E0,0E0,0E0,0E0],"parents":[2147483647,0,0,1,1,2,2,5,5,6,6,8,8,9,9],"right_children":[2,4,6,-1,-1,8,10,-1,12,14,-1,-1,-1,-1,-1],"split_conditions":[3.5E0,2.5E0,-5.041564E18,2.75582E4,7.2117725E3,2.5E0,2.5E0,2.3712566E4,6.75E0,4.5E0,1.7716244E4,3.9744523E4,7.491721E3,4.4160062E4,7.42861E4],"split_indices":[5,25,3,0,0,28,8,0,6,14,0,0,0,0,0],"split_type":[0,0,0,0,0,0,0,0,0,0,0,0,0,0,0],"sum_hessian":[8.8E1,2.2E1,6.6E1,2.1E1,1E0,3.3E1,3.3E1,1.6E1,1.7E1,3E1,3E0,1.6E1,1E0,2.7E1,3E0],"tree_param":{"num_deleted":"0","num_feature":"41","num_nodes":"15","size_leaf_vector":"0"}},{"base_weights":[3.5948665E6,2.872396E6,4.334545E6,2.2151232E6,3.1523495E6,5.085727E6,3.4602248E6,1.7415334E6,3.2916972E6,1.3185384E6,5.2081595E6,3.5279468E6,9.851694E5],"categories":[],"categories_nodes":[],"categories_segments":[],"categories_sizes":[],"default_left":[1,1,1,0,1,1,1,0,0,0,0,0,0],"id":18,"left_children":[1,3,5,-1,7,9,11,-1,-1,-1,-1,-1,-1],"loss_changes":[3.6179597E13,2.0334321E12,1.0643533E13,0E0,5.5841286E11,2.8186058E12,3.7953418E11,0E0,0E0,0E0,0E0,0E0,0E0],"parents":[2147483647,0,0,1,1,2,2,4,4,5,5,6,6],"right_children":[2,4,6,-1,8,10,12,-1,-1,-1,-1,-1,-1],"split_conditions":[2.75E0,-3.1883666E17,4.75E0,2.2151232E4,1.5E0,-2.601864E18,1.35E1,1.7415334E4,3.2916973E4,1.3185384E4,5.2081594E4,3.5279465E4,9.851693E3],"split_indices":[31,1,6,0,9,1,17,0,0,0,0,0,0],"split_type":[0,0,0,0,0,0,0,0,0,0,0,0,0],"sum_hessian":[9E1,4.8E1,4.2E1,1.7E1,3.1E1,2E1,2.2E1,4E0,2.7E1,1E0,1.9E1,2.1E1,1E0],"tree_param":{"num_deleted":"0","num_feature":"41","num_nodes":"13","size_leaf_vector":"0"}},{"base_weights":[3.7592152E6,2.838746E6,4.3609475E6,2.2686792E6,3.5436275E6,3.5397322E6,5.1144025E6,1.921896E6,3.3407902E6,2.7424382E6,5.4891475E6,6.179783E5,5.2580485E6,2.798389E6,7.2778656E5,3.1290652E6,5.7173265E6,3.3783235E6,8.167581E5,5.853969E6,1.4922348E6],"categories":[],"categories_nodes":[],"categories_segments":[],"categories_sizes":[],"default_left":[1,1,1,1,0,1,1,0,0,1,0,0,1,0,0,1,1,0,0,0,0],"id":19,"left_children":[1,3,5,7,-1,9,11,-1,-1,13,-1,-1,15,-1,-1,17,19,-1,-1,-1,-1],"loss_changes":[4.245414E13,8.837499E12,1.778385E13,3.2458964E12,0E0,3.312829E13,1.4835622E13,0E0,0E0,6.686895E11,0E0,0E0,8.510545E12,0E0,0E0,1.2752572E12,3.3884608E12,0E0,0E0,0E0,0E0],"parents":[2147483647,0,0,1,1,2,2,3,3,5,5,6,6,9,9,12,12,15,15,16,16],"right_children":[2,4,6,8,-1,10,12,-1,-1,14,-1,-1,16,-1,-1,18,20,-1,-1,-1,-1],"split_conditions":[1.362887E18,1.5E0,-3.4706513E18,5E-1,3.5436273E4,4E0,3.5E0,1.9218959E4,3.3407902E4,1.75E1,5.4891473E4,6.179783E3,-5.70263E18,2.7983889E4,7.277865E3,-6.0596846E18,8.9390867E18,3.3783234E4,8.167581E3,5.8539688E4,1.4922347E4],"split_indices":[2,24,3,17,0,20,7,0,0,33,0,0,0,0,0,0,0,0,0,0,0],"split_type":[0,0,0,0,0,0,0,0,0,0,0,0,0,0,0,0,0,0,0,0,0],"sum_hessian":[9.8E1,4.1E1,5.7E1,2.5E1,1.6E1,3E1,2.7E1,2.1E1,4E0,2.3E1,7E0,1E0,2.6E1,2.2E1,1E0,6E0,2E1,5E0,1E0,1.9E1,1E0],"tree_param":{"num_deleted":"0","num_feature":"41","num_nodes":"21","size_leaf_vector":"0"}},{"base_weights":[3.6890155E6,2.514634E6,3.9686555E6,4.361456E6,3.108808E6,4.7888595E6,3.0734172E6,1.342489E6,3.2736608E6,4.997303E6,1.9240989E6,3.1894975E6,7.241476E5,1.4131542E6,3.4721542E6,4.325185E6,6.77984E6,4.4837495E6,1.8053422E5,7.419875E6,1.4698138E6,2.813318E6,4.863185E6,8.0525995E6,2.1281272E6,7.7409E5,3.0241745E6],"categories":[],"categories_nodes":[],"categories_segments":[],"categories_sizes":[],"default_left":[1,0,1,1,1,1,1,0,1,1,0,0,0,0,0,1,1,1,0,1,0,1,0,0,0,0,0],"id":20,"left_children":[1,-1,3,5,7,9,11,-1,13,15,-1,-1,-1,-1,-1,17,19,21,-1,23,-1,25,-1,-1,-1,-1,-1],"loss_changes":[2.121875E13,0E0,1.1772103E13,1.2256964E13,3.467062E12,1.1284624E13,1.7808847E12,0E0,3.956487E12,9.014331E12,0E0,0E0,0E0,0E0,0E0,1.627759E13,1.2884399E13,2.1638247E12,0E0,2.9523538E12,0E0,6.689076E11,0E0,0E0,0E0,0E0,0E0],"parents":[2147483647,0,0,2,2,3,3,4,4,5,5,6,6,8,8,9,9,15,15,16,16,17,17,19,19,21,21],"right_children":[2,-1,4,6,8,10,12,-1,14,16,-1,-1,-1,-1,-1,18,20,22,-1,24,-1,26,-1,-1,-1,-1,-1],"split_conditions":[3.5E0,2.514634E4,1.9008257E18,4.5E0,2.5679243E18,2.5E0,6.75E0,1.342489E4,1.5E0,3.5E0,1.9240988E4,3.1894975E4,7.241476E3,1.4131542E4,3.4721543E4,1.3449465E18,4.5E0,2.5E0,1.8053422E3,3E0,1.4698137E4,-1.997157E18,4.8631848E4,8.052599E4,2.1281271E4,7.7409E3,3.0241744E4],"split_indices":[5,0,0,6,0,8,6,0,22,9,0,0,0,0,0,0,7,22,0,30,0,1,0,0,0,0,0],"split_type":[0,0,0,0,0,0,0,0,0,0,0,0,0,0,0,0,0,0,0,0,0,0,0,0,0,0,0],"sum_hessian":[9.4E1,2E1,7.4E1,4.8E1,2.6E1,3.4E1,1.4E1,3E0,2.3E1,3.1E1,3E0,1.3E1,1E0,3E0,2E1,2.5E1,6E0,2.4E1,1E0,5E0,1E0,6E0,1.8E1,4E0,1E0,1E0,5E0],"tree_param":{"num_deleted":"0","num_feature":"41","num_nodes":"27","size_leaf_vector":"0"}},{"base_weights":[3.5035682E6,3.8223998E6,2.722032E6,1.7685924E6,4.0012852E6,3.4865428E5,2.8736908E6,3.6218248E6,4.9622785E6,1.1915555E6,3.0219542E6,3.7080465E6,1.1499614E6,6.5093765E6,2.9882832E6,1.2190266E6,3.1214055E6,1.9609269E6,6.94063E6,3.647055E6,1.4177476E6],"categories":[],"categories_nodes":[],"categories_segments":[],"categories_sizes":[],"default_left":[1,1,1,0,1,0,1,1,1,0,1,0,0,1,1,0,0,0,0,0,0],"id":21,"left_children":[1,3,5,-1,7,-1,9,11,13,-1,15,-1,-1,17,19,-1,-1,-1,-1,-1,-1],"loss_changes":[1.3267288E13,1.6804127E13,1.0156323E13,0E0,3.5423414E12,0E0,3.6317472E12,5.5398367E12,2.3303654E13,0E0,8.568124E11,0E0,0E0,1.2069529E11,3.1063938E12,0E0,0E0,0E0,0E0,0E0,0E0],"parents":[2147483647,0,0,1,1,2,2,4,4,6,6,7,7,8,8,10,10,13,13,14,14],"right_children":[2,4,6,-1,8,-1,10,12,14,-1,16,-1,-1,18,20,-1,-1,-1,-1,-1,-1],"split_conditions":[1.3449465E18,2.5E0,1.9709024E18,1.7685924E4,-2.679275E16,3.4865427E3,2.25E0,2.25E1,4.5E0,1.1915555E4,-8.27075E18,3.7080465E4,1.1499613E4,-2.1470889E18,2.6193182E18,1.2190266E4,3.1214055E4,1.9609268E4,6.94063E4,3.647055E4,1.4177476E4],"split_indices":[0,5,0,0,0,0,32,33,23,0,1,0,0,1,1,0,0,0,0,0,0],"split_type":[0,0,0,0,0,0,0,0,0,0,0,0,0,0,0,0,0,0,0,0,0],"sum_hessian":[9.4E1,6.4E1,3E1,6E0,5.8E1,2E0,2.8E1,4.5E1,1.3E1,3E0,2.5E1,4.3E1,2E0,6E0,7E0,2E0,2.3E1,1E0,5E0,4E0,3E0],"tree_param":{"num_deleted":"0","num_feature":"41","num_nodes":"21","size_leaf_vector":"0"}},{"base_weights":[3.4701205E6,3.230402E6,5.428467E6,1.8365166E6,3.346834E6,2.0147494E6,8.0846806E5,1.3741785E6,3.4325768E6,2.1587728E6,5.753044E5,1.628779E6,1.7788828E5,3.5635848E6,2.436902E6,3.0695885E6,4.186518E6,3.222911E6,1.8863668E6,2.3761612E6,4.610817E6,5.0275875E6,2.3549878E6,1.2712229E6,5.1932635E6],"categories":[],"categories_nodes":[],"categories_segments":[],"categories_sizes":[],"default_left":[1,1,0,1,1,1,0,1,1,0,0,0,0,1,0,1,1,0,0,0,1,1,0,0,0],"id":22,"left_children":[1,3,-1,5,7,9,-1,11,13,-1,-1,-1,-1,15,-1,17,19,-1,-1,-1,21,23,-1,-1,-1],"loss_changes":[2.7531277E13,8.135272E12,0E0,2.0227031E10,8.81428E12,2.0924544E11,0E0,1.23314E12,1.2294344E12,0E0,0E0,0E0,0E0,7.151389E12,0E0,1.1769888E12,9.015371E12,0E0,0E0,0E0,6.9633835E12,3.3556445E12,0E0,0E0,0E0],"parents":[2147483647,0,0,1,1,3,3,4,4,5,5,7,7,8,8,13,13,15,15,16,16,20,20,21,21],"right_children":[2,4,-1,6,8,10,-1,12,14,-1,-1,-1,-1,16,-1,18,20,-1,-1,-1,22,24,-1,-1,-1],"split_conditions":[3.5E0,1.5E0,5.4284668E4,2E0,3.5E0,2.5E0,8.0846807E3,-5.041564E18,4.5E0,2.1587727E4,5.7530435E3,1.628779E4,1.7788828E3,2.5E0,2.436902E4,6.9995614E18,-5.70263E18,3.222911E4,1.8863668E4,2.3761611E4,7E0,3.5E0,2.3549877E4,1.2712229E4,5.1932633E4],"split_indices":[20,9,0,23,15,8,0,3,14,0,0,0,0,31,0,0,0,0,0,0,23,5,0,0,0],"split_type":[0,0,0,0,0,0,0,0,0,0,0,0,0,0,0,0,0,0,0,0,0,0,0,0,0],"sum_hessian":[9.5E1,8.7E1,8E0,8E0,7.9E1,6E0,2E0,4E0,7.5E1,5E0,1E0,3E0,1E0,6.4E1,1.1E1,3.9E1,2.5E1,3.3E1,6E0,6E0,1.9E1,1.5E1,4E0,1E0,1.4E1],"tree_param":{"num_deleted":"0","num_feature":"41","num_nodes":"25","size_leaf_vector":"0"}},{"base_weights":[3.664974E6,2.8576065E6,4.317629E6,9.006223E5,2.9217202E6,3.390755E6,4.976999E6,7.3556475E5,2.9532548E6,1.9419885E6,3.926763E6,1.0630014E6,5.218606E6,8.447589E5,2.981338E6,4.4735485E6,1.6104109E6,5.8682275E6,3.4624645E6,1.9360168E6,4.7351355E6,4.281604E6,7.976496E6,1.7699884E5,4.6089045E6,1.2004539E6,4.8096315E6],"categories":[],"categories_nodes":[],"categories_segments":[],"categories_sizes":[],"default_left":[1,1,1,0,1,1,1,0,1,0,1,0,1,0,0,1,0,1,0,0,0,1,0,0,1,0,0],"id":23,"left_children":[1,3,5,-1,7,9,11,-1,13,-1,15,-1,17,-1,-1,19,-1,21,-1,-1,-1,23,-1,-1,25,-1,-1],"loss_changes":[4.1935926E13,3.5166387E12,1.6737622E13,0E0,1.06783624E12,1.2564591E13,2.2822114E13,0E0,2.0528601E11,0E0,1.5593617E13,0E0,1.1624665E13,0E0,0E0,1.256949E11,0E0,2.940328E13,0E0,0E0,0E0,1.6648937E13,0E0,0E0,2.4362866E12,0E0,0E0],"parents":[2147483647,0,0,1,1,2,2,4,4,5,5,6,6,8,8,10,10,12,12,15,15,17,17,21,21,24,24],"right_children":[2,4,6,-1,8,10,12,-1,14,-1,16,-1,18,-1,-1,20,-1,22,-1,-1,-1,24,-1,-1,26,-1,-1],"split_conditions":[4.75E0,-8.27075E18,-5.041564E18,9.006223E3,2.5E0,1.5E0,1.5E0,7.3556475E3,3E0,1.9419885E4,9E0,1.0630014E4,4.25E0,8.447589E3,2.9813379E4,3.5E0,1.6104108E4,3.5E0,3.4624645E4,1.9360168E4,4.7351355E4,3.5E0,7.976496E4,1.7699884E3,3.5E0,1.2004538E4,4.8096312E4],"split_indices":[5,1,3,0,6,20,31,0,11,0,12,0,6,0,0,35,0,9,0,0,0,15,0,0,11,0,0],"split_type":[0,0,0,0,0,0,0,0,0,0,0,0,0,0,0,0,0,0,0,0,0,0,0,0,0,0,0],"sum_hessian":[1.02E2,4.8E1,5.4E1,2E0,4.6E1,2.5E1,2.9E1,1E0,4.5E1,8E0,1.7E1,2E0,2.7E1,1E0,4.4E1,1.3E1,4E0,1.8E1,9E0,2E0,1.1E1,1.2E1,6E0,1E0,1.1E1,1E0,1E1],"tree_param":{"num_deleted":"0","num_feature":"41","num_nodes":"27","size_leaf_vector":"0"}},{"base_weights":[3.5733712E6,4.6121025E6,3.1774972E6,6.556965E6,2.7545605E6,2.6916942E6,3.5642922E6,3.0027855E6,9.018317E6,3.1863012E6,1.340167E6,1.4917494E6,2.8819582E6,3.6135622E6,8.9528394E5,1.2802934E6,3.5027665E6,3.0067802E6,1.3189201E6,3.148565E6,1.4043774E6],"categories":[],"categories_nodes":[],"categories_segments":[],"categories_sizes":[],"default_left":[1,1,1,1,1,1,1,0,0,1,0,0,1,0,0,0,0,1,0,0,0],"id":24,"left_children":[1,3,5,7,9,11,13,-1,-1,15,-1,-1,17,-1,-1,-1,-1,19,-1,-1,-1],"loss_changes":[2.4409776E13,6.8642335E13,3.9352638E12,6.9148873E13,4.278945E12,3.9198623E12,1.6304099E12,0E0,0E0,1.5472871E12,0E0,0E0,1.8873529E12,0E0,0E0,0E0,0E0,1.7125175E12,0E0,0E0,0E0],"parents":[2147483647,0,0,1,1,2,2,3,3,4,4,5,5,6,6,9,9,12,12,17,17],"right_children":[2,4,6,8,10,12,14,-1,-1,16,-1,-1,18,-1,-1,-1,-1,20,-1,-1,-1],"split_conditions":[4.5E0,2.5E0,2.5E0,-3.4258253E17,1.5E0,-1.7567015E18,1.35E1,3.0027854E4,9.018317E4,-7.359305E18,1.340167E4,1.4917493E4,2.5E0,3.613562E4,8.952839E3,1.2802934E4,3.5027664E4,8.2700273E18,1.3189201E4,3.1485648E4,1.4043773E4],"split_indices":[13,32,26,0,26,1,17,0,0,1,0,0,18,0,0,0,0,0,0,0,0],"split_type":[0,0,0,0,0,0,0,0,0,0,0,0,0,0,0,0,0,0,0,0,0],"sum_hessian":[9.4E1,2.3E1,7.1E1,1E1,1.3E1,3.5E1,3.6E1,5E0,5E0,9E0,4E0,6E0,2.9E1,3.5E1,1E0,2E0,7E0,2.6E1,3E0,2.3E1,3E0],"tree_param":{"num_deleted":"0","num_feature":"41","num_nodes":"21","size_leaf_vector":"0"}},{"base_weights":[3.6057188E6,4.7325055E6,3.155004E6,5.0833835E6,1.7072682E6,2.1251692E6,3.3597802E6,2.5644808E6,5.919979E6,1.9829026E6,4.4018272E5,6.009878E5,2.196184E6,3.6738472E6,2.5100952E6,7.325996E5,2.7476942E6,2.7838038E6,6.4720395E6,2.31036E6,3.9604318E6,8.903207E5,2.656922E6,4.21164E6,1.862062E6,2.7438132E6,6.767764E5,4.282708E6,1.2174728E6],"categories":[],"categories_nodes":[],"categories_segments":[],"categories_sizes":[],"default_left":[1,1,1,1,1,1,1,1,1,0,0,0,0,1,1,0,0,0,0,0,1,0,1,1,0,0,0,0,0],"id":25,"left_children":[1,3,5,7,9,11,13,15,17,-1,-1,-1,-1,19,21,-1,-1,-1,-1,-1,23,-1,25,27,-1,-1,-1,-1,-1],"loss_changes":[3.128414E13,1.6797047E13,7.20011E12,2.9071728E13,5.241695E11,1.9547554E11,5.455481E12,3.3642093E11,7.953474E12,0E0,0E0,0E0,0E0,5.69865E12,1.9153541E12,0E0,0E0,0E0,0E0,0E0,7.9715264E12,0E0,8.9597044E11,3.18398E11,0E0,0E0,0E0,0E0,0E0],"parents":[2147483647,0,0,1,1,2,2,3,3,4,4,5,5,6,6,7,7,8,8,13,13,14,14,20,20,22,22,23,23],"right_children":[2,4,6,8,10,12,14,16,18,-1,-1,-1,-1,20,22,-1,-1,-1,-1,-1,24,-1,26,28,-1,-1,-1,-1,-1],"split_conditions":[4.5E0,3.1582334E18,7.7908095E16,-1.997157E18,-4.1995582E17,2.5E0,2.5E0,-8.0318754E17,-1.5528037E18,1.9829025E4,4.401827E3,6.009878E3,2.196184E4,3.5E0,3.5E0,7.325996E3,2.7476941E4,2.7838037E4,6.4720395E4,2.31036E4,8.2700273E18,8.903207E3,6.75E0,9E0,1.862062E4,2.7438133E4,6.7677637E3,4.282708E4,1.2174728E4],"split_indices":[13,1,1,1,0,10,18,0,0,0,0,0,0,5,18,0,0,0,0,0,0,0,6,11,0,0,0,0,0],"split_type":[0,0,0,0,0,0,0,0,0,0,0,0,0,0,0,0,0,0,0,0,0,0,0,0,0,0,0,0,0],"sum_hessian":[9E1,2.3E1,6.7E1,2E1,3E0,1.3E1,5.4E1,6E0,1.4E1,2E0,1E0,1E0,1.2E1,3.7E1,1.7E1,1E0,5E0,3E0,1.1E1,8E0,2.9E1,2E0,1.5E1,2.5E1,4E0,1.4E1,1E0,2.4E1,1E0],"tree_param":{"num_deleted":"0","num_feature":"41","num_nodes":"29","size_leaf_vector":"0"}},{"base_weights":[3.359177E6,2.6596272E6,3.7928755E6,4.26563E6,2.906009E6,4.572671E6,2.2965018E6,2.0001748E6,3.9741592E6,6.7463675E5,4.6801175E6,2.454788E6,6.733925E5,2.298599E6,1.1694384E6,1.1549702E6,4.1590725E6,8.2773275E5,4.784416E6,4.3897765E6,1.15672E6,5.6194025E6,3.7547768E6,3.0902565E6,6.3220355E6,8.2494035E6,4.317534E6],"categories":[],"categories_nodes":[],"categories_segments":[],"categories_sizes":[],"default_left":[1,0,1,1,1,1,1,1,1,0,1,0,0,0,0,0,1,0,1,0,0,1,0,0,1,0,0],"id":26,"left_children":[1,-1,3,5,7,9,11,13,15,-1,17,-1,-1,-1,-1,-1,19,-1,21,-1,-1,23,-1,-1,25,-1,-1],"loss_changes":[2.0555177E13,0E0,1.2760214E13,1.1869209E13,1.5272602E13,9.826348E12,1.4537458E11,1.0306076E12,4.0944796E11,0E0,8.0937317E12,0E0,0E0,0E0,0E0,0E0,1.1561347E12,0E0,3.8327214E12,0E0,0E0,5.342134E12,0E0,0E0,3.0170468E12,0E0,0E0],"parents":[2147483647,0,0,2,2,3,3,4,4,5,5,6,6,7,7,8,8,10,10,16,16,18,18,21,21,24,24],"right_children":[2,-1,4,6,8,10,12,14,16,-1,18,-1,-1,-1,-1,-1,20,-1,22,-1,-1,24,-1,-1,26,-1,-1],"split_conditions":[1.362887E18,2.6596271E4,2.6193182E18,6.25E0,3.5E0,-8.5762506E18,6.75E0,-1.1537151E18,3.5E0,6.746367E3,1.5E0,2.4547879E4,6.733925E3,2.298599E4,1.1694384E4,1.1549702E4,1.05E1,8.277327E3,4.4108263E17,4.3897766E4,1.15672E4,4.5E0,3.7547766E4,3.0902564E4,2.5E0,8.249403E4,4.317534E4],"split_indices":[2,0,1,29,4,0,6,0,11,0,4,0,0,0,0,0,4,0,0,0,0,12,0,0,32,0,0],"split_type":[0,0,0,0,0,0,0,0,0,0,0,0,0,0,0,0,0,0,0,0,0,0,0,0,0,0,0],"sum_hessian":[1E2,4.1E1,5.9E1,3.6E1,2.3E1,3E1,6E0,1.4E1,9E0,1E0,2.9E1,5E0,1E0,9E0,5E0,1E0,8E0,1E0,2.8E1,7E0,1E0,1.3E1,1.5E1,4E0,9E0,3E0,6E0],"tree_param":{"num_deleted":"0","num_feature":"41","num_nodes":"27","size_leaf_vector":"0"}},{"base_weights":[3.4749262E6,2.9277928E6,4.0812118E6,8.443904E5,3.0337892E6,5.5024925E6,3.4837785E6,5.303511E5,3.125147E6,3.804654E6,8.761844E6,7.156385E5,7.988819E4,3.2699145E6,1.5426598E6,3.393532E6,1.6269928E6,6.712636E5,3.4461218E6,1.8176735E6,4.3213462E5,2.197027E6,3.6507042E6,2.3358278E6,6.127111E5],"categories":[],"categories_nodes":[],"categories_segments":[],"categories_sizes":[],"default_left":[1,1,1,0,1,1,0,1,1,0,0,0,0,1,0,1,1,0,1,0,0,1,0,0,0],"id":27,"left_children":[1,3,5,-1,7,9,-1,11,13,-1,-1,-1,-1,15,-1,17,19,-1,21,-1,-1,23,-1,-1,-1],"loss_changes":[1.9896033E13,9.363297E12,1.734281E13,0E0,1.0006703E13,2.7536579E13,0E0,1.9322425E11,6.1811626E12,0E0,0E0,0E0,0E0,3.414868E12,0E0,3.4133246E12,3.5370356E11,0E0,1.9454524E12,0E0,0E0,3.280449E11,0E0,0E0,0E0],"parents":[2147483647,0,0,1,1,2,2,4,4,5,5,7,7,8,8,13,13,15,15,16,16,18,18,21,21],"right_children":[2,4,6,-1,8,10,-1,12,14,-1,-1,-1,-1,16,-1,18,20,-1,22,-1,-1,24,-1,-1,-1],"split_conditions":[1.5E0,1.5E0,4.5E0,8.443903E3,3.5E0,1.5608821E18,3.4837785E4,2.6991007E17,8.2700273E18,3.804654E4,8.761844E4,7.156385E3,7.9888184E2,4.5E0,1.5426597E4,-8.6924476E18,4.5E0,6.712636E3,2.5E0,1.8176734E4,4.321346E3,2.5E0,3.6507043E4,2.3358277E4,6.1271113E3],"split_indices":[24,9,16,0,15,0,0,0,0,0,0,0,0,14,0,0,5,0,5,0,0,25,0,0,0],"split_type":[0,0,0,0,0,0,0,0,0,0,0,0,0,0,0,0,0,0,0,0,0,0,0,0,0],"sum_hessian":[9.5E1,5.3E1,4.2E1,3E0,5E1,1E1,3.2E1,2E0,4.8E1,8E0,2E0,1E0,1E0,4.3E1,5E0,3.9E1,4E0,1E0,3.8E1,3E0,1E0,7E0,3.1E1,6E0,1E0],"tree_param":{"num_deleted":"0","num_feature":"41","num_nodes":"25","size_leaf_vector":"0"}},{"base_weights":[3.3788312E6,2.6753222E6,3.9087745E6,4.398788E6,2.9292405E6,3.1902415E6,5.439427E6,1.4445242E6,3.6247878E6,1.36289E6,3.3175645E6,7.2686735E6,3.0662375E6,4.37647E6,2.1405122E6,1.339745E6,7.778583E6,3.2186205E6,8.473956E5,2.170345E6,8.2083195E6],"categories":[],"categories_nodes":[],"categories_segments":[],"categories_sizes":[],"default_left":[1,0,1,1,1,1,1,0,1,0,0,1,1,0,0,0,1,0,0,0,0],"id":28,"left_children":[1,-1,3,5,7,9,11,-1,13,-1,-1,15,17,-1,-1,-1,19,-1,-1,-1,-1],"loss_changes":[3.0180064E13,0E0,1.5914062E13,3.0437963E13,1.8515789E13,1.3180181E11,6.019437E13,0E0,7.367664E12,0E0,0E0,1.9810805E13,6.536823E11,0E0,0E0,0E0,3.8757382E12,0E0,0E0,0E0,0E0],"parents":[2147483647,0,0,2,2,3,3,4,4,5,5,6,6,8,8,11,11,12,12,16,16],"right_children":[2,-1,4,6,8,10,12,-1,14,-1,-1,16,18,-1,-1,-1,20,-1,-1,-1,-1],"split_conditions":[4.25E0,2.6753223E4,2.1390856E18,3.5E0,3.5E0,1.5E0,7E0,1.4445242E4,3.5E0,1.3628899E4,3.3175645E4,-7.3977094E17,9E0,4.37647E4,2.1405121E4,1.3397449E4,-1.9188119E18,3.2186205E4,8.473956E3,2.170345E4,8.2083195E4],"split_indices":[5,0,1,9,4,14,23,0,24,0,0,0,18,0,0,0,1,0,0,0,0],"split_type":[0,0,0,0,0,0,0,0,0,0,0,0,0,0,0,0,0,0,0,0,0],"sum_hessian":[1.08E2,4.9E1,5.9E1,3.7E1,2.2E1,1.9E1,1.8E1,8E0,1.4E1,2E0,1.7E1,9E0,9E0,8E0,6E0,1E0,8E0,8E0,1E0,1E0,7E0],"tree_param":{"num_deleted":"0","num_feature":"41","num_nodes":"21","size_leaf_vector":"0"}},{"base_weights":[3.551297E6,2.933693E6,4.069182E6,2.5927045E6,3.782956E6,5.1967215E6,3.3430148E6,6.68519E5,2.6285808E6,4.1611582E6,1.3873634E6,5.434004E6,7.000984E5,1.4503219E6,3.5616022E6,2.73198E6,1.4617888E6,9.378246E5,5.671228E6,3.6463642E6,6.3651356E5,5.882272E6,1.3583042E6],"categories":[],"categories_nodes":[],"categories_segments":[],"categories_sizes":[],"default_left":[1,1,1,1,1,1,1,0,1,0,0,1,0,0,1,0,0,0,1,0,0,0,0],"id":29,"left_children":[1,3,5,7,9,11,13,-1,15,-1,-1,17,-1,-1,19,-1,-1,-1,21,-1,-1,-1,-1],"loss_changes":[1.7808142E13,3.5129813E12,2.1928828E13,7.2792985E11,4.19318E12,1.4334151E13,8.073532E12,0E0,2.29009E11,0E0,0E0,1.174697E13,0E0,0E0,4.6212506E12,0E0,0E0,0E0,5.6633506E12,0E0,0E0,0E0,0E0],"parents":[2147483647,0,0,1,1,2,2,3,3,4,4,5,5,6,6,8,8,11,11,14,14,18,18],"right_children":[2,4,6,8,10,12,14,-1,16,-1,-1,18,-1,-1,20,-1,-1,-1,22,-1,-1,-1,-1],"split_conditions":[4.5E0,2.25E0,4.5E0,2.5E0,3.5E0,2.6193182E18,3.5E0,6.68519E3,2.5E0,4.1611582E4,1.3873634E4,1.5E0,7.0009834E3,1.4503219E4,6.75E0,2.7319799E4,1.4617887E4,9.378246E3,4.5E0,3.646364E4,6.3651353E3,5.882272E4,1.3583042E4],"split_indices":[5,31,13,6,4,1,4,0,25,0,0,31,0,0,6,0,0,0,6,0,0,0,0],"split_type":[0,0,0,0,0,0,0,0,0,0,0,0,0,0,0,0,0,0,0,0,0,0,0],"sum_hessian":[9.2E1,4.5E1,4.7E1,3.5E1,1E1,1.6E1,3.1E1,1E0,3.4E1,8E0,2E0,1.5E1,1E0,4E0,2.7E1,3E1,4E0,1E0,1.4E1,2.6E1,1E0,1.3E1,1E0],"tree_param":{"num_deleted":"0","num_feature":"41","num_nodes":"23","size_leaf_vector":"0"}},{"base_weights":[3.5568378E6,4.7705415E6,3.124576E6,6.024383E6,2.663493E6,2.3356228E6,3.7274938E6,3.620914E6,8.2249445E6,6.8502375E5,2.8072092E6,2.0707318E6,3.18251E6,2.0726379E6,4.0997008E6,1.2514426E6,9.369357E6,2.9732548E6,7.3942225E5,2.11145E6,4.8566997E5,6.1420075E5,2.1781675E6,4.6958595E6,3.1904852E6,1.6110584E6,2.4043592E6,4.8377345E6,1.2838642E6,6.330876E5,2.4856582E6],"categories":[],"categories_nodes":[],"categories_segments":[],"categories_sizes":[],"default_left":[1,1,1,1,1,1,1,0,1,0,1,1,0,1,1,0,0,0,0,1,0,0,0,1,0,0,1,0,0,0,0],"id":30,"left_children":[1,3,5,7,9,11,13,-1,15,-1,17,19,-1,21,23,-1,-1,-1,-1,25,-1,-1,-1,27,-1,-1,29,-1,-1,-1,-1],"loss_changes":[3.2836099E13,4.2076016E13,2.459117E13,3.8974916E13,9.203729E11,8.128561E11,1.4908872E13,0E0,3.615812E13,0E0,8.9163353E11,7.8167566E11,0E0,4.734111E10,1.2790278E12,0E0,0E0,0E0,0E0,8.380219E10,0E0,0E0,0E0,1.5342764E12,0E0,0E0,5.8639725E11,0E0,0E0,0E0,0E0],"parents":[2147483647,0,0,1,1,2,2,3,3,4,4,5,5,6,6,8,8,10,10,11,11,13,13,14,14,19,19,23,23,26,26],"right_children":[2,4,6,8,10,12,14,-1,16,-1,18,20,-1,22,24,-1,-1,-1,-1,26,-1,-1,-1,28,-1,-1,30,-1,-1,-1,-1],"split_conditions":[4.5E0,2.5E0,2.25E0,-3.4258253E17,1.5E0,2.5E0,2.25E0,3.620914E4,3.5E0,6.8502373E3,3.1582334E18,7.450431E18,3.18251E4,2.5E0,5.5E0,1.2514426E4,9.369357E4,2.9732547E4,7.394222E3,7.7908095E16,4.8566997E3,6.1420073E3,2.1781674E4,8.9390867E18,3.1904852E4,1.6110583E4,-8.34421E18,4.8377344E4,1.2838643E4,6.330876E3,2.4856582E4],"split_indices":[13,32,31,0,14,28,32,0,9,0,1,1,0,15,23,0,0,0,0,1,0,0,0,0,0,0,0,0,0,0,0],"split_type":[0,0,0,0,0,0,0,0,0,0,0,0,0,0,0,0,0,0,0,0,0,0,0,0,0,0,0,0,0,0,0],"sum_hessian":[9E1,2.1E1,6.9E1,1.2E1,9E0,3.2E1,3.7E1,7E0,5E0,1E0,8E0,2.7E1,5E0,8E0,2.9E1,1E0,4E0,7E0,1E0,2.6E1,1E0,1E0,7E0,1.5E1,1.4E1,1.2E1,1.4E1,1.4E1,1E0,1E0,1.3E1],"tree_param":{"num_deleted":"0","num_feature":"41","num_nodes":"31","size_leaf_vector":"0"}},{"base_weights":[3.4850675E6,2.4171462E6,3.8420505E6,2.4708745E6,4.8324162E5,4.7781535E6,3.4068612E6,5.7803075E6,1.9480874E6,1.868777E6,3.6337288E6,3.6828802E6,7.155196E6,2.051771E6,2.024125E5,1.302539E6,3.7660782E6,4.4863675E6,8.4827856E5,7.694969E6,1.6883925E6,3.8263478E6,6.1737856E5,4.8917755E6,1.2296642E6,1.2451855E6,2.7232375E4,3.9337112E6,1.8229679E6],"categories":[],"categories_nodes":[],"categories_segments":[],"categories_sizes":[],"default_left":[1,1,1,0,0,1,1,1,0,1,1,1,1,0,0,0,1,1,1,0,0,1,0,0,0,0,0,0,0],"id":31,"left_children":[1,3,5,-1,-1,7,9,11,-1,13,15,17,19,-1,-1,-1,21,23,25,-1,-1,27,-1,-1,-1,-1,-1,-1,-1],"loss_changes":[2.9217455E13,1.7153193E12,1.3867711E13,0E0,0E0,4.8298853E13,1.2052215E13,1.690422E13,0E0,2.3291075E12,9.286994E12,1.441485E13,1.0614542E13,0E0,0E0,0E0,5.7978703E12,1.9065209E12,9.437276E11,0E0,0E0,1.8627407E12,0E0,0E0,0E0,0E0,0E0,0E0,0E0],"parents":[2147483647,0,0,1,1,2,2,5,5,6,6,7,7,9,9,10,10,11,11,12,12,16,16,17,17,18,18,21,21],"right_children":[2,4,6,-1,-1,8,10,12,-1,14,16,18,20,-1,-1,-1,22,24,26,-1,-1,28,-1,-1,-1,-1,-1,-1,-1],"split_conditions":[3.5E0,7.450431E18,2.25E0,2.4708744E4,4.832416E3,2.6193182E18,1.5E0,3.5E0,1.9480873E4,4.56917E18,3.5E0,3.5E0,4.5E0,2.0517709E4,2.024125E3,1.302539E4,6.75E0,4.5E0,-5.041564E18,7.694969E4,1.6883924E4,1.75E1,6.1737856E3,4.8917754E4,1.2296643E4,1.24518545E4,2.7232373E2,3.9337113E4,1.8229678E4],"split_indices":[5,1,32,0,0,1,31,9,0,1,11,14,6,0,0,0,6,25,3,0,0,35,0,0,0,0,0,0,0],"split_type":[0,0,0,0,0,0,0,0,0,0,0,0,0,0,0,0,0,0,0,0,0,0,0,0,0,0,0,0,0],"sum_hessian":[1E2,2.7E1,7.3E1,2.6E1,1E0,2E1,5.3E1,1.4E1,6E0,8E0,4.5E1,7E0,7E0,7E0,1E0,3E0,4.2E1,5E0,2E0,6E0,1E0,4.1E1,1E0,4E0,1E0,1E0,1E0,3.8E1,3E0],"tree_param":{"num_deleted":"0","num_feature":"41","num_nodes":"29","size_leaf_vector":"0"}},{"base_weights":[3.358295E6,4.6745205E6,2.9102475E6,2.9721535E6,6.416213E6,1.6543659E6,3.030143E6,3.4052198E6,1.5115904E6,2.526145E6,8.278231E6,7.3860606E5,1.9891448E6,7.644554E5,3.0519E6,1.6647345E6,3.9133228E6,2.3410665E6,8.877581E6,3.0732558E6,7.9985956E5,9.704144E6,2.3723825E6],"categories":[],"categories_nodes":[],"categories_segments":[],"categories_sizes":[],"default_left":[1,1,1,1,1,1,1,1,0,0,1,0,0,0,1,0,0,0,1,0,0,0,0],"id":32,"left_children":[1,3,5,7,9,11,13,15,-1,-1,17,-1,-1,-1,19,-1,-1,-1,21,-1,-1,-1,-1],"loss_changes":[4.5958834E13,5.2090034E13,6.7318244E12,3.7079912E12,5.876515E13,1.2900001E12,1.1175639E12,2.3288118E12,0E0,0E0,4.1260543E12,0E0,0E0,0E0,8.6033564E11,0E0,0E0,0E0,9.239817E12,0E0,0E0,0E0,0E0],"parents":[2147483647,0,0,1,1,2,2,3,3,4,4,5,5,6,6,7,7,10,10,14,14,18,18],"right_children":[2,4,6,8,10,12,14,16,-1,-1,18,-1,-1,-1,20,-1,-1,-1,22,-1,-1,-1,-1],"split_conditions":[4.5E0,-1.7395355E17,1.5E0,4.5E0,3.5E0,1.5E0,2.5E0,2.5E0,1.5115903E4,2.526145E4,4.5E0,7.3860605E3,1.9891447E4,7.6445537E3,1.05E1,1.6647344E4,3.9133227E4,2.3410664E4,4.5E0,3.0732557E4,7.998595E3,9.704144E4,2.3723824E4],"split_indices":[13,0,9,14,9,31,11,22,0,0,5,0,0,0,20,0,0,0,26,0,0,0,0],"split_type":[0,0,0,0,0,0,0,0,0,0,0,0,0,0,0,0,0,0,0,0,0,0,0],"sum_hessian":[1E2,2.3E1,7.7E1,1.3E1,1E1,8E0,6.9E1,9E0,4E0,4E0,6E0,3E0,5E0,1E0,6.8E1,3E0,6E0,1E0,5E0,6.7E1,1E0,4E0,1E0],"tree_param":{"num_deleted":"0","num_feature":"41","num_nodes":"23","size_leaf_vector":"0"}},{"base_weights":[3.2799872E6,1.7839169E6,3.4846572E6,1.1852642E6,2.1277242E6,7.084528E6,3.3476778E6,6.0005125E5,2.2823278E6,5.948874E5,3.3757025E6,3.5953518E6,2.5699348E6,3.6374132E6,5.989254E5,6.5453406E5,2.6362962E6,1.8761051E6,3.734944E6,1.3345115E6,2.7969738E6,2.3378988E6,1.44654375E4,1.5179238E6,3.7921228E6,3.9555235E6,2.419403E6],"categories":[],"categories_nodes":[],"categories_segments":[],"categories_sizes":[],"default_left":[1,1,1,0,1,0,1,0,0,0,1,1,1,1,0,0,1,1,1,0,0,0,0,0,1,0,0],"id":33,"left_children":[1,3,5,-1,7,-1,9,-1,-1,-1,11,13,15,17,-1,-1,19,21,23,-1,-1,-1,-1,-1,25,-1,-1],"loss_changes":[2.164791E13,1.5375899E11,1.523888E13,0E0,2.8377193E11,0E0,4.0092849E12,0E0,0E0,0E0,4.3881144E12,5.131412E12,8.16631E11,2.7843468E12,0E0,0E0,2.4159191E11,4.2646488E12,9.624753E11,0E0,0E0,0E0,0E0,0E0,1.8695187E12,0E0,0E0],"parents":[2147483647,0,0,1,1,2,2,4,4,6,6,10,10,11,11,12,12,13,13,16,16,17,17,18,18,24,24],"right_children":[2,4,6,-1,8,-1,10,-1,-1,-1,12,14,16,18,-1,-1,20,22,24,-1,-1,-1,-1,-1,26,-1,-1],"split_conditions":[1.5E0,2.5E0,5E-1,1.1852643E4,-3.6399376E18,7.084528E4,-8.6924476E18,6.000512E3,2.2823277E4,5.9488735E3,4.5E0,6.75E0,-7.148952E18,3.5E0,5.9892534E3,6.5453403E3,2.75E0,9.540596E17,-8.493841E18,1.3345114E4,2.7969736E4,2.3378986E4,1.4465437E2,1.5179237E4,7E0,3.9555234E4,2.419403E4],"split_indices":[31,22,32,0,0,0,0,0,0,0,14,6,0,15,0,0,31,0,0,0,0,0,0,0,23,0,0],"split_type":[0,0,0,0,0,0,0,0,0,0,0,0,0,0,0,0,0,0,0,0,0,0,0,0,0,0,0],"sum_hessian":[9E1,1.2E1,7.8E1,6E0,6E0,1E0,7.7E1,1E0,5E0,1E0,7.6E1,5.7E1,1.9E1,5.6E1,1E0,1E0,1.8E1,4E0,5.2E1,3E0,1.5E1,3E0,1E0,2E0,5E1,4.3E1,7E0],"tree_param":{"num_deleted":"0","num_feature":"41","num_nodes":"27","size_leaf_vector":"0"}},{"base_weights":[3.2226542E6,2.526906E6,3.776422E6,1.7685881E6,2.7455422E6,4.3806225E6,2.5320485E6,1.3005571E6,2.613526E6,1.1429905E6,2.8044598E6,6.2553685E6,3.23053E6,1.278859E6,2.8437415E6,2.8688772E6,1.1610472E6,3.7325148E6,9.545431E6,2.2205448E6,4.1396352E6,3.00158E5,1.4145676E6,1.359172E6,3.3949848E6,2.6178992E6,1.0622839E7,2.299674E6,5.9593075E5,2.6751728E6,5.1582355E6,3.8912795E6,1.553649E6,6.512614E5,2.38277E6,2.069358E6,4.570561E6],"categories":[],"categories_nodes":[],"categories_segments":[],"categories_sizes":[],"default_left":[1,1,1,1,1,1,1,0,0,0,1,1,1,1,1,0,0,0,1,1,1,0,0,0,1,0,0,1,0,0,0,1,0,0,0,0,0],"id":34,"left_children":[1,3,5,7,9,11,13,-1,-1,-1,15,17,19,21,23,-1,-1,-1,25,27,29,-1,-1,-1,31,-1,-1,33,-1,-1,-1,35,-1,-1,-1,-1,-1],"loss_changes":[3.1297292E13,3.4340612E12,3.1763565E13,2.1373586E12,2.879977E11,5.9568713E13,4.5660787E12,0E0,0E0,0E0,3.743668E11,7.2276045E13,1.3762317E13,3.7231473E11,8.479373E12,0E0,0E0,0E0,9.50936E12,4.2932476E11,4.1012408E12,0E0,0E0,0E0,4.0066173E12,0E0,0E0,2.2888317E11,0E0,0E0,0E0,4.4265007E11,0E0,0E0,0E0,0E0,0E0],"parents":[2147483647,0,0,1,1,2,2,3,3,4,4,5,5,6,6,10,10,11,11,12,12,13,13,14,14,18,18,19,19,20,20,24,24,27,27,31,31],"right_children":[2,4,6,8,10,12,14,-1,-1,-1,16,18,20,22,24,-1,-1,-1,26,28,30,-1,-1,-1,32,-1,-1,34,-1,-1,-1,36,-1,-1,-1,-1,-1],"split_conditions":[1.362887E18,1.5E0,2.6193182E18,5E-1,-8.4005366E18,2.25E0,2.25E0,1.3005571E4,2.613526E4,1.1429904E4,7E0,-7.3977094E17,-5.041564E18,3.5E0,1.5E0,2.8688771E4,1.1610473E4,3.732515E4,2E0,6.75E0,1.5E0,3.0015798E3,1.4145676E4,1.359172E4,4.5E0,2.6178992E4,1.0622839E5,3.5E0,5.959307E3,2.6751727E4,5.1582355E4,2.5E0,1.5536489E4,6.512614E3,2.38277E4,2.069358E4,4.570561E4],"split_indices":[2,31,1,18,1,32,32,0,0,0,19,0,3,6,31,0,0,0,11,6,8,0,0,0,33,0,0,15,0,0,0,31,0,0,0,0,0],"split_type":[0,0,0,0,0,0,0,0,0,0,0,0,0,0,0,0,0,0,0,0,0,0,0,0,0,0,0,0,0,0,0,0,0,0,0,0,0],"sum_hessian":[1.05E2,4.9E1,5.6E1,1.3E1,3.6E1,3.6E1,2E1,1E1,3E0,2E0,3.4E1,1.2E1,2.4E1,5E0,1.5E1,3.2E1,2E0,8E0,4E0,1.3E1,1.1E1,1E0,4E0,5E0,1E1,1E0,3E0,1.2E1,1E0,6E0,5E0,7E0,3E0,1E0,1.1E1,3E0,4E0],"tree_param":{"num_deleted":"0","num_feature":"41","num_nodes":"37","size_leaf_vector":"0"}},{"base_weights":[2.8881345E6,1.8896044E6,3.0891838E6,3.754066E6,2.7722618E6,2.94837E6,6.844029E6,5.788779E5,2.8005865E6,3.5179392E6,1.3880362E6,2.823031E6,7.718494E5,2.5455802E6,4.390154E6,1.8392764E6,1.7329075E5,2.986572E5,-3.8721062E4],"categories":[],"categories_nodes":[],"categories_segments":[],"categories_sizes":[],"default_left":[1,0,1,1,1,1,0,0,1,1,1,0,0,0,0,0,1,0,0],"id":35,"left_children":[1,-1,3,5,7,9,-1,-1,11,13,15,-1,-1,-1,-1,-1,17,-1,-1],"loss_changes":[1.3836506E13,0E0,6.449967E12,3.708137E13,1.982161E12,1.2891328E13,0E0,0E0,4.164776E11,6.979993E11,3.518264E12,0E0,0E0,0E0,0E0,0E0,9.130183E10,0E0,0E0],"parents":[2147483647,0,0,2,2,3,3,4,4,5,5,8,8,9,9,10,10,16,16],"right_children":[2,-1,4,6,8,10,-1,-1,12,14,16,-1,-1,-1,-1,-1,18,-1,-1],"split_conditions":[1.5E0,1.8896043E4,4.5E0,4.5E0,3E0,2.5E0,6.844029E4,5.788779E3,1.2E1,2.5E0,-5.041564E18,2.8230309E4,7.7184937E3,2.5455803E4,4.390154E4,1.8392764E4,4E0,2.9865718E3,-3.872106E2],"split_indices":[31,0,13,31,15,25,0,0,20,22,3,0,0,0,0,0,4,0,0],"split_type":[0,0,0,0,0,0,0,0,0,0,0,0,0,0,0,0,0,0,0],"sum_hessian":[9.7E1,1.8E1,7.9E1,2.2E1,5.7E1,1.9E1,3E0,1E0,5.6E1,1.3E1,6E0,5.5E1,1E0,8E0,5E0,4E0,2E0,1E0,1E0],"tree_param":{"num_deleted":"0","num_feature":"41","num_nodes":"19","size_leaf_vector":"0"}},{"base_weights":[3.2463815E6,2.4888482E6,3.7164605E6,2.0029142E6,3.0794802E6,4.643043E6,3.2220582E6,1.7509966E6,2.7611522E6,3.251699E6,1.1344868E6,5.3699125E6,1.388451E6,6.260543E5,3.2668298E6,1.7874206E6,4.7483375E5,6.4436765E6,2.5063598E6,1.5869819E6,2.9716388E5,3.6953765E6,2.567805E6,1.1974644E6,3.4161005E6,8.555502E5,2.710525E6,6.3472475E5,2.795294E6,6.8563225E5,2.884296E6,2.9741838E6,7.679901E5],"categories":[],"categories_nodes":[],"categories_segments":[],"categories_sizes":[],"default_left":[1,1,1,1,1,1,1,1,0,0,0,1,1,0,1,0,0,0,1,0,0,0,1,0,0,0,1,0,1,0,1,0,0],"id":36,"left_children":[1,3,5,7,9,11,13,15,-1,-1,-1,17,19,-1,21,-1,-1,-1,23,-1,-1,-1,25,-1,-1,-1,27,-1,29,-1,31,-1,-1],"loss_changes":[2.8853053E13,6.4604193E12,1.4358478E13,3.225923E11,2.3403545E12,3.985743E13,3.1850202E12,2.2038551E11,0E0,0E0,0E0,3.3046284E13,6.116774E11,0E0,3.69186E12,0E0,0E0,0E0,3.0538727E12,0E0,0E0,0E0,2.568466E12,0E0,0E0,0E0,1.3931045E12,0E0,1.2144188E12,0E0,7.5952973E11,0E0,0E0],"parents":[2147483647,0,0,1,1,2,2,3,3,4,4,5,5,6,6,7,7,11,11,12,12,14,14,18,18,22,22,26,26,28,28,30,30],"right_children":[2,4,6,8,10,12,14,16,-1,-1,-1,18,20,-1,22,-1,-1,-1,24,-1,-1,-1,26,-1,-1,-1,28,-1,30,-1,32,-1,-1],"split_conditions":[1.362887E18,2.5E0,2.25E0,1.5E0,5.5E0,2.5E0,3.5E0,3.5E0,2.7611521E4,3.251699E4,1.1344867E4,4.5E0,2.5E0,6.260543E3,2.5E0,1.7874205E4,4.7483374E3,6.443676E4,2.5E0,1.5869818E4,2.9716387E3,3.6953766E4,2.5E0,1.1974644E4,3.4161004E4,8.555502E3,4.5E0,6.3472476E3,3.5E0,6.8563223E3,1.2E1,2.9741836E4,7.679901E3],"split_indices":[2,26,32,24,36,8,15,22,0,0,0,13,25,0,35,0,0,0,9,0,0,0,23,0,0,0,15,0,11,0,20,0,0],"split_type":[0,0,0,0,0,0,0,0,0,0,0,0,0,0,0,0,0,0,0,0,0,0,0,0,0,0,0,0,0,0,0,0,0],"sum_hessian":[1.06E2,4.3E1,6.3E1,2.6E1,1.7E1,1.9E1,4.4E1,2.2E1,4E0,1.5E1,2E0,1.5E1,4E0,1E0,4.3E1,2.1E1,1E0,1E1,5E0,3E0,1E0,2.4E1,1.9E1,3E0,2E0,2E0,1.7E1,1E0,1.6E1,1E0,1.5E1,1.4E1,1E0],"tree_param":{"num_deleted":"0","num_feature":"41","num_nodes":"33","size_leaf_vector":"0"}},{"base_weights":[3.2650208E6,2.6080928E6,3.8612955E6,1.7877059E6,2.767972E6,6.467268E6,3.348213E6,1.8813489E6,4.724596E5,6.14537E5,2.8132338E6,7.0282895E6,1.8310812E6,2.0513938E6,3.9405032E6,7.165639E5,2.8550552E6,2.6321298E6,8.383909E5,4.4243125E6,2.5888075E6,2.9301952E6,1.1269235E6,2.8207445E6,5.616062E5,1.1451202E6,1.4995483E5,8.093031E5,4.599669E6,1.4732631E6,3.0336785E6,5.721631E5,3.0602328E6,2.9567806E5,-7.074581E4,8.5175875E5,4.792746E6,4.190651E5,1.6849741E6,4.955469E6,1.2573135E6,5.393527E6,2.511941E6],"categories":[],"categories_nodes":[],"categories_segments":[],"categories_sizes":[],"default_left":[1,1,1,1,1,1,1,0,0,0,1,0,0,1,1,0,1,1,1,1,0,1,0,1,0,0,1,0,1,1,0,0,0,0,0,0,1,0,0,1,0,0,0],"id":37,"left_children":[1,3,5,7,9,11,13,-1,-1,-1,15,-1,-1,17,19,-1,21,23,25,27,-1,29,-1,31,-1,-1,33,-1,35,37,-1,-1,-1,-1,-1,-1,39,-1,-1,41,-1,-1,-1],"loss_changes":[2.3616347E13,8.2285534E11,3.5840563E13,3.427753E11,1.6825534E12,2.7366324E12,2.1104026E13,0E0,0E0,0E0,9.354808E11,0E0,0E0,7.655326E12,4.8953903E12,0E0,9.8301064E11,1.9306297E12,1.0952649E12,7.054014E12,0E0,2.044136E11,0E0,2.5571162E12,0E0,0E0,1.1740162E11,0E0,7.4958923E12,1.8662765E11,0E0,0E0,0E0,0E0,0E0,0E0,2.3988735E12,0E0,0E0,1.4374719E12,0E0,0E0,0E0],"parents":[2147483647,0,0,1,1,2,2,3,3,4,4,5,5,6,6,10,10,13,13,14,14,16,16,17,17,18,18,19,19,21,21,23,23,26,26,28,28,29,29,36,36,39,39],"right_children":[2,4,6,8,10,12,14,-1,-1,-1,16,-1,-1,18,20,-1,22,24,26,28,-1,30,-1,32,-1,-1,34,-1,36,38,-1,-1,-1,-1,-1,-1,40,-1,-1,42,-1,-1,-1],"split_conditions":[4.75E0,2.5E0,1.5E0,3E0,3.5E0,5.5E0,2.5E0,1.8813488E4,4.7245957E3,6.1453696E3,2.5E0,7.028289E4,1.8310812E4,1.5E0,4.5E0,7.1656387E3,5.5E0,4E0,-5.041564E18,2.5E0,2.5888074E4,1.5E0,1.1269234E4,1.5E0,5.6160615E3,1.1451202E4,3.5E0,8.0930312E3,1.5E0,-5.041564E18,3.0336785E4,5.7216313E3,3.0602326E4,2.9567805E3,-7.074581E2,8.517587E3,3E0,4.190651E3,1.684974E4,2.5E0,1.2573135E4,5.393527E4,2.511941E4],"split_indices":[5,10,25,22,15,5,26,0,0,0,11,0,0,8,29,0,14,29,3,22,0,9,0,31,0,0,6,0,31,3,0,0,0,0,0,0,8,0,0,40,0,0,0],"split_type":[0,0,0,0,0,0,0,0,0,0,0,0,0,0,0,0,0,0,0,0,0,0,0,0,0,0,0,0,0,0,0,0,0,0,0,0,0,0,0,0,0,0,0],"sum_hessian":[8.5E1,4.3E1,4.2E1,9E0,3.4E1,5E0,3.7E1,8E0,1E0,1E0,3.3E1,4E0,1E0,1.3E1,2.4E1,1E0,3.2E1,8E0,5E0,1.6E1,8E0,3E1,2E0,7E0,1E0,3E0,2E0,1E0,1.5E1,3E0,2.7E1,1E0,6E0,1E0,1E0,1E0,1.4E1,1E0,2E0,1.3E1,1E0,1E1,3E0],"tree_param":{"num_deleted":"0","num_feature":"41","num_nodes":"43","size_leaf_vector":"0"}},{"base_weights":[3.0830318E6,4.349347E6,2.6212112E6,3.5517465E6,8.216901E6,2.7216552E6,1.5402304E6,2.0285945E6,5.187977E6,2.7491062E6,5.51021E5,4.385066E5,1.6349758E6,1.0256725E6,2.8605712E6,6.7200455E6,2.618313E6,5.62323E5,2.7771142E6,1.2200819E6,-7.039206E4,2.045717E6,7.3771985E6,6.764785E5,2.934652E6,2.3554145E6,3.1740508E6,2.941997E5,1.3464184E6,1.6098919E6,2.6211112E6,7.037568E5,3.2419945E6,1.6833025E6,4.3789328E5,4.7009728E5,2.701155E6,3.364155E6,1.1840448E6,7.129811E5,2.7649148E6,1.6918578E6,3.6140215E6],"categories":[],"categories_nodes":[],"categories_segments":[],"categories_sizes":[],"default_left":[1,1,1,1,0,1,1,1,1,1,0,0,0,1,0,1,1,0,1,1,0,0,0,0,0,1,1,0,0,1,1,0,1,0,0,0,1,1,0,0,0,0,0],"id":38,"left_children":[1,3,5,7,-1,9,11,13,15,17,-1,-1,-1,19,-1,21,23,-1,25,27,-1,-1,-1,-1,-1,29,31,-1,-1,33,35,-1,37,-1,-1,-1,39,41,-1,-1,-1,-1,-1],"loss_changes":[4.0062784E13,3.868044E13,3.08278E12,3.9320258E13,0E0,2.0603428E12,1.18115795E11,7.078882E12,1.7836932E13,2.0519206E12,0E0,0E0,0E0,1.5774814E12,0E0,2.6709328E11,1.08616326E12,0E0,2.2323093E12,3.0572072E11,0E0,0E0,0E0,0E0,0E0,2.1189624E12,2.2501267E12,0E0,0E0,2.0930206E11,2.518042E12,0E0,2.5530896E12,0E0,0E0,0E0,6.9073476E11,3.914007E12,0E0,0E0,0E0,0E0,0E0],"parents":[2147483647,0,0,1,1,2,2,3,3,5,5,6,6,7,7,8,8,9,9,13,13,15,15,16,16,18,18,19,19,25,25,26,26,29,29,30,30,32,32,36,36,37,37],"right_children":[2,4,6,8,-1,10,12,14,16,18,-1,-1,-1,20,-1,22,24,-1,26,28,-1,-1,-1,-1,-1,30,32,-1,-1,34,36,-1,38,-1,-1,-1,40,42,-1,-1,-1,-1,-1],"split_conditions":[4.5E0,4E0,8.2700273E18,4.5E0,8.216901E4,6.75E0,1.5E0,1.5E0,4.6470203E17,2.5E0,5.51021E3,4.385066E3,1.6349757E4,4.5E0,2.860571E4,1.362887E18,3.5E0,5.62323E3,1.362887E18,3.5E0,-7.039206E2,2.045717E4,7.3771984E4,6.7647847E3,2.934652E4,1.5E0,1.5E0,2.9419968E3,1.3464184E4,2.5E0,1.5E0,7.037568E3,9E0,1.6833025E4,4.3789326E3,4.7009727E3,3E0,2.25E0,1.1840447E4,7.129811E3,2.7649146E4,1.6918576E4,3.6140215E4],"split_indices":[13,24,0,12,0,6,14,24,0,15,0,0,0,4,0,2,11,0,2,6,0,0,0,0,0,23,4,0,0,8,10,0,18,0,0,0,11,32,0,0,0,0,0],"split_type":[0,0,0,0,0,0,0,0,0,0,0,0,0,0,0,0,0,0,0,0,0,0,0,0,0,0,0,0,0,0,0,0,0,0,0,0,0,0,0,0,0,0,0],"sum_hessian":[8.7E1,2.1E1,6.6E1,1.9E1,2E0,5.9E1,7E0,1.1E1,8E0,5.8E1,1E0,1E0,6E0,6E0,5E0,4E0,4E0,1E0,5.7E1,5E0,1E0,1E0,3E0,1E0,3E0,3.1E1,2.6E1,1E0,4E0,1E1,2.1E1,1E0,2.5E1,9E0,1E0,1E0,2E1,2.3E1,2E0,1E0,1.9E1,4E0,1.9E1],"tree_param":{"num_deleted":"0","num_feature":"41","num_nodes":"43","size_leaf_vector":"0"}},{"base_weights":[2.9523952E6,2.0028139E6,3.111428E6,2.3783202E6,1.0431679E6,1.7474742E6,3.2568908E6,1.247023E6,2.924681E6,1.2994845E6,3.536898E5,1.9834185E6,-7.0040125E4,1.085347E6,3.3102962E6,7.00238E5,3.229522E6,2.1069035E6,5.595114E5,3.340625E6,7.4528594E5],"categories":[],"categories_nodes":[],"categories_segments":[],"categories_sizes":[],"default_left":[1,1,1,1,1,1,1,0,1,0,0,1,0,0,1,0,0,0,0,0,0],"id":39,"left_children":[1,3,5,7,9,11,13,-1,15,-1,-1,17,-1,-1,19,-1,-1,-1,-1,-1,-1],"loss_changes":[6.604586E12,2.9243107E12,8.395453E12,2.5338252E12,6.007334E11,3.998409E12,3.713469E12,0E0,1.8071746E12,0E0,0E0,2.2781362E11,0E0,0E0,2.2556631E12,0E0,0E0,0E0,0E0,0E0,0E0],"parents":[2147483647,0,0,1,1,2,2,3,3,4,4,5,5,6,6,8,8,11,11,14,14],"right_children":[2,4,6,8,10,12,14,-1,16,-1,-1,18,-1,-1,20,-1,-1,-1,-1,-1,-1],"split_conditions":[1.5E0,3.6434212E18,1.5E0,-1.1639992E18,1.5E0,4.5E0,-7.359305E18,1.24702295E4,1.5E0,1.2994845E4,3.536898E3,2.5E0,-7.0040125E2,1.085347E4,1.2E1,7.00238E3,3.2295219E4,2.1069035E4,5.595114E3,3.340625E4,7.4528594E3],"split_indices":[31,1,32,1,8,4,1,0,4,0,0,8,0,0,17,0,0,0,0,0,0],"split_type":[0,0,0,0,0,0,0,0,0,0,0,0,0,0,0,0,0,0,0,0,0],"sum_hessian":[8.4E1,1.4E1,7E1,9E0,5E0,8E0,6.2E1,4E0,5E0,3E0,2E0,7E0,1E0,2E0,6E1,1E0,4E0,6E0,1E0,5.9E1,1E0],"tree_param":{"num_deleted":"0","num_feature":"41","num_nodes":"21","size_leaf_vector":"0"}},{"base_weights":[3.2251238E6,2.397464E6,4.0171062E6,2.49254E6,1.3482008E6,5.450807E6,3.37403E6,2.924995E6,2.0643428E6,2.0587635E6,7.5795865E6,3.7674115E6,2.0925115E6,5.7086175E5,3.0298935E6,-6.968994E4,2.4983922E6,1.0788932E6,8.48322E6,4.2981662E5,3.8938365E6,7.037251E5,2.3517425E6,1.40813E6,3.2768335E6,9.312258E6,2.169015E6,9.582853E5,3.9837122E6,4.0651762E6,1.1364854E6],"categories":[],"categories_nodes":[],"categories_segments":[],"categories_sizes":[],"default_left":[1,1,1,1,0,1,1,1,0,1,1,1,1,0,1,0,0,0,1,0,1,0,0,0,0,0,0,0,1,0,0],"id":40,"left_children":[1,3,5,7,-1,9,11,13,-1,15,17,19,21,-1,23,-1,-1,-1,25,-1,27,-1,-1,-1,-1,-1,-1,-1,29,-1,-1],"loss_changes":[4.870788E13,1.2285116E12,2.2175923E13,1.55404E12,0E0,7.104634E13,8.752808E12,2.715342E12,0E0,5.7884876E12,3.1967207E13,8.4533345E12,1.9451798E12,0E0,2.1939398E12,0E0,0E0,0E0,1.1209865E13,0E0,2.2506635E12,0E0,0E0,0E0,0E0,0E0,0E0,0E0,4.8278117E11,0E0,0E0],"parents":[2147483647,0,0,1,1,2,2,3,3,5,5,6,6,7,7,9,9,10,10,11,11,12,12,14,14,18,18,20,20,28,28],"right_children":[2,4,6,8,-1,10,12,14,-1,16,18,20,22,-1,24,-1,-1,-1,26,-1,28,-1,-1,-1,-1,-1,-1,-1,30,-1,-1],"split_conditions":[4.75E0,2.5E0,4.5E0,2.1390856E18,1.3482007E4,3.5E0,4.5E0,2.5E0,2.0643428E4,2.5E0,-7.3977094E17,1.5E0,3.5E0,5.708617E3,3.5E0,-6.9689935E2,2.4983922E4,1.0788933E4,4.5E0,4.298166E3,3.5E0,7.037251E3,2.3517424E4,1.40813E4,3.2768336E4,9.312258E4,2.169015E4,9.582853E3,8.9390867E18,4.065176E4,1.1364854E4],"split_indices":[5,25,13,1,0,9,29,6,0,9,0,31,21,0,7,0,0,0,26,0,11,0,0,0,0,0,0,0,0,0,0],"split_type":[0,0,0,0,0,0,0,0,0,0,0,0,0,0,0,0,0,0,0,0,0,0,0,0,0,0,0,0,0,0,0],"sum_hessian":[8.8E1,4.5E1,4.3E1,4E1,5E0,1.1E1,3.2E1,1.7E1,2.3E1,5E0,6E0,2.3E1,9E0,1E0,1.6E1,1E0,4E0,1E0,5E0,1E0,2.2E1,2E0,7E0,3E0,1.3E1,4E0,1E0,1E0,2.1E1,2E1,1E0],"tree_param":{"num_deleted":"0","num_feature":"41","num_nodes":"31","size_leaf_vector":"0"}},{"base_weights":[3.3018075E6,2.0808976E6,3.685201E6,2.1323005E6,4.2361366E5,4.329736E6,2.811805E6,4.525464E5,2.1856575E6,6.317655E6,3.323137E6,2.9542865E6,1.0402431E6,3.8923442E6,7.4939705E6,1.4304146E6,3.4930472E6,8.86781E5,3.0702948E6,4.2414135E6,1.0734989E6,3.577774E6,7.298008E5,1.2106266E6,1.19544875E5,3.881226E6,2.4041535E6,8.4014225E5,3.6602738E6,1.0797888E6,4.053391E6,5.3638794E5,2.48247E6,1.0014774E6,3.7356062E6,1.0656352E6,2.600339E6],"categories":[],"categories_nodes":[],"categories_segments":[],"categories_sizes":[],"default_left":[1,1,1,1,0,1,1,0,0,1,1,1,0,1,0,0,1,1,1,0,0,1,0,0,0,1,1,0,1,0,0,0,1,0,0,0,0],"id":41,"left_children":[1,3,5,7,-1,9,11,-1,-1,13,15,17,-1,19,-1,-1,21,23,25,-1,-1,27,-1,-1,-1,29,31,-1,33,-1,-1,-1,35,-1,-1,-1,-1],"loss_changes":[3.6799884E13,1.2264648E12,2.7793941E13,1.1619229E12,0E0,5.7046024E13,5.256503E12,0E0,0E0,5.066048E12,4.008077E12,4.4727555E12,0E0,1.3506833E12,0E0,0E0,3.241962E12,6.006739E11,5.7943974E12,0E0,0E0,2.3453206E12,0E0,0E0,0E0,9.2858535E11,1.3014086E12,0E0,8.6563724E11,0E0,0E0,0E0,6.8006445E10,0E0,0E0,0E0,0E0],"parents":[2147483647,0,0,1,1,2,2,3,3,5,5,6,6,9,9,10,10,11,11,13,13,16,16,17,17,18,18,21,21,25,25,26,26,28,28,32,32],"right_children":[2,4,6,8,-1,10,12,-1,-1,14,16,18,-1,20,-1,-1,22,24,26,-1,-1,28,-1,-1,-1,30,32,-1,34,-1,-1,-1,36,-1,-1,-1,-1],"split_conditions":[3.5E0,7.450431E18,2.389224E18,-8.27075E18,4.236136E3,2.25E0,7.638709E18,4.525464E3,2.1856574E4,-7.3977094E17,3.5E0,1.5E0,1.0402431E4,-1.6579682E18,7.49397E4,1.43041455E4,1.35E1,3.8476042E17,4.5E0,4.2414133E4,1.0734988E4,1.5E0,7.298008E3,1.2106266E4,1.1954487E3,-7.855873E18,3E0,8.401422E3,3.5E0,1.0797888E4,4.053391E4,5.3638794E3,4.5E0,1.0014773E4,3.7356062E4,1.0656353E4,2.6003389E4],"split_indices":[5,1,1,1,0,32,0,0,0,0,15,23,0,0,0,0,17,0,23,0,0,31,0,0,0,0,15,0,11,0,0,0,13,0,0,0,0],"split_type":[0,0,0,0,0,0,0,0,0,0,0,0,0,0,0,0,0,0,0,0,0,0,0,0,0,0,0,0,0,0,0,0,0,0,0,0,0],"sum_hessian":[9.4E1,2.4E1,7E1,2.3E1,1E0,3.8E1,3.2E1,1E0,2.2E1,1.1E1,2.7E1,2.9E1,3E0,5E0,6E0,3E0,2.4E1,2E0,2.7E1,4E0,1E0,2.3E1,1E0,1E0,1E0,1E1,1.7E1,1E0,2.2E1,1E0,9E0,1E0,1.6E1,1E0,2.1E1,2E0,1.4E1],"tree_param":{"num_deleted":"0","num_feature":"41","num_nodes":"37","size_leaf_vector":"0"}},{"base_weights":[2.9890695E6,3.4127562E6,2.257628E6,2.4354385E6,3.965919E6,3.0605152E6,1.9258055E6,1.1172301E6,2.6333242E6,5.997687E6,3.2241912E6,1.4885185E6,2.585553E6,2.714054E6,5.0936612E5,1.0681314E6,6.480365E6,1.0112615E6,3.4326182E6,1.5505558E6,5.9944325E5,2.692925E6,7.559167E5,1.0963456E6,3.5756662E6,6.809647E5,3.6679052E6,3.764236E6,7.261518E5,3.8342352E6,1.1121249E6],"categories":[],"categories_nodes":[],"categories_segments":[],"categories_sizes":[],"default_left":[1,1,1,1,1,0,1,0,1,1,1,1,1,0,0,0,0,0,1,0,0,0,0,0,1,0,1,1,0,0,0],"id":42,"left_children":[1,3,5,7,9,-1,11,-1,13,15,17,19,21,-1,-1,-1,-1,-1,23,-1,-1,-1,-1,-1,25,-1,27,29,-1,-1,-1],"loss_changes":[2.3595342E13,2.3859416E13,4.7626825E12,3.579352E12,3.792899E13,0E0,5.0948295E12,0E0,2.2183338E12,1.4492629E13,1.0365736E13,2.2879928E11,1.2534258E11,0E0,0E0,0E0,0E0,0E0,5.1032265E12,0E0,0E0,0E0,0E0,0E0,4.177359E12,0E0,4.0677367E12,5.7042534E9,0E0,0E0,0E0],"parents":[2147483647,0,0,1,1,2,2,3,3,4,4,6,6,8,8,9,9,10,10,11,11,12,12,18,18,24,24,26,26,27,27],"right_children":[2,4,6,8,10,-1,12,-1,14,16,18,20,22,-1,-1,-1,-1,-1,24,-1,-1,-1,-1,-1,26,-1,28,30,-1,-1,-1],"split_conditions":[2.6780008E18,-2.8202094E18,-4.8275185E18,1.5E0,2.25E0,3.0605152E4,2.75E0,1.1172301E4,6.75E0,-1.1681372E18,-7.891265E18,8.3155993E18,7.547836E18,2.714054E4,5.093661E3,1.0681313E4,6.480365E4,1.0112615E4,2E0,1.5505558E4,5.994432E3,2.692925E4,7.5591665E3,1.0963456E4,3E0,6.8096465E3,9E0,8.9390867E18,7.261518E3,3.834235E4,1.1121248E4],"split_indices":[1,0,0,31,32,0,29,0,6,0,1,0,0,0,0,0,0,0,10,0,0,0,0,0,11,0,18,0,0,0,0],"split_type":[0,0,0,0,0,0,0,0,0,0,0,0,0,0,0,0,0,0,0,0,0,0,0,0,0,0,0,0,0,0,0],"sum_hessian":[1E2,6.1E1,3.9E1,2.4E1,3.7E1,9E0,3E1,4E0,2E1,8E0,2.9E1,2E1,1E1,1.9E1,1E0,1E0,7E0,3E0,2.6E1,1.8E1,2E0,9E0,1E0,2E0,2.4E1,1E0,2.3E1,2.2E1,1E0,2.1E1,1E0],"tree_param":{"num_deleted":"0","num_feature":"41","num_nodes":"31","size_leaf_vector":"0"}},{"base_weights":[2.9781992E6,2.4522555E6,3.508176E6,1.446835E6,2.5822812E6,2.853565E6,4.707088E6,5.8188025E5,1.6381732E6,4.88258E5,2.6205138E6,3.5658288E6,2.2160392E6,5.157391E6,1.3368455E6,3.6812847E5,1.8185565E6,1.8089361E6,2.8501402E6,9.927653E5,3.6975202E6,2.3151098E6,2.1638331E5,3.4872148E6,6.798195E6,2.0663242E6,4.137428E5,1.1951094E6,2.7378122E6,1.6111164E6,3.026448E6,3.8450312E6,1.0374492E6,2.391667E6,5.0681928E5,-1.3921319E5,4.0251635E6,1.7679496E6,4.134752E5,3.0891345E6,7.296448E5,5.2050294E5,1.9496855E6,3.199848E6,1.2106189E6],"categories":[],"categories_nodes":[],"categories_segments":[],"categories_sizes":[],"default_left":[1,1,1,1,1,1,1,0,1,0,1,1,1,1,0,0,1,1,1,0,1,1,0,1,0,0,0,0,0,1,1,0,0,0,0,0,0,1,0,1,0,0,0,0,0],"id":43,"left_children":[1,3,5,7,9,11,13,-1,15,-1,17,19,21,23,-1,-1,25,27,29,-1,31,33,-1,35,-1,-1,-1,-1,-1,37,39,-1,-1,-1,-1,-1,-1,41,-1,43,-1,-1,-1,-1,-1],"loss_changes":[1.7319724E13,2.8003858E12,2.1100168E13,3.7077018E11,2.1630865E12,6.17467E12,1.435217E13,0E0,7.0510654E11,0E0,2.6714025E12,7.342884E11,3.2630846E12,9.178412E12,0E0,0E0,8.8541023E11,3.5700406E12,1.8959764E12,0E0,7.196587E11,1.2797325E12,0E0,1.616702E13,0E0,0E0,0E0,0E0,0E0,3.9597585E11,1.4894645E12,0E0,0E0,0E0,0E0,0E0,0E0,1.18712435E11,0E0,1.3256182E12,0E0,0E0,0E0,0E0,0E0],"parents":[2147483647,0,0,1,1,2,2,3,3,4,4,5,5,6,6,8,8,10,10,11,11,12,12,13,13,16,16,17,17,18,18,20,20,21,21,23,23,29,29,30,30,37,37,39,39],"right_children":[2,4,6,8,10,12,14,-1,16,-1,18,20,22,24,-1,-1,26,28,30,-1,32,34,-1,36,-1,-1,-1,-1,-1,38,40,-1,-1,-1,-1,-1,-1,42,-1,44,-1,-1,-1,-1,-1],"split_conditions":[2.75E0,1.5E0,1.1757625E18,9.5636016E17,-7.941193E18,2.5E0,7E0,5.8188022E3,-5.041564E18,4.88258E3,1.5E0,-7.672545E17,7.468148E17,4E0,1.3368455E4,3.6812847E3,5.943878E18,1.5E0,2.5E0,9.927653E3,4.5E0,6.75E0,2.163833E3,3.5E0,6.7981945E4,2.0663242E4,4.137428E3,1.1951094E4,2.7378121E4,2.5E0,5E0,3.8450312E4,1.0374491E4,2.391667E4,5.068193E3,-1.3921318E3,4.0251633E4,2.5E0,4.134752E3,7.638709E18,7.2964478E3,5.2050293E3,1.9496855E4,3.1998479E4,1.2106188E4],"split_indices":[31,9,0,1,0,14,19,0,3,0,14,1,0,24,0,0,1,19,5,0,25,6,0,15,0,0,0,0,0,25,4,0,0,0,0,0,0,32,0,0,0,0,0,0,0],"split_type":[0,0,0,0,0,0,0,0,0,0,0,0,0,0,0,0,0,0,0,0,0,0,0,0,0,0,0,0,0,0,0,0,0,0,0,0,0,0,0,0,0,0,0,0,0],"sum_hessian":[9.2E1,4.9E1,4.3E1,7E0,4.2E1,3E1,1.3E1,2E0,5E0,1E0,4.1E1,1.2E1,1.8E1,1.1E1,2E0,1E0,4E0,1.1E1,3E1,1E0,1.1E1,1.7E1,1E0,7E0,4E0,3E0,1E0,8E0,3E0,5E0,2.5E1,1E1,1E0,1.6E1,1E0,1E0,6E0,4E0,1E0,2.4E1,1E0,1E0,3E0,2.2E1,2E0],"tree_param":{"num_deleted":"0","num_feature":"41","num_nodes":"45","size_leaf_vector":"0"}},{"base_weights":[3.0828318E6,2.4687935E6,3.6725422E6,2.5639375E6,1.2803168E6,4.9452695E6,3.0048705E6,2.64323E6,1.3375194E6,2.985065E6,7.0390945E6,3.0619078E6,5.042852E5,3.1201522E6,2.2725088E6,3.3088585E6,1.1265935E6,1.0508324E6,7.861999E6,5.5386025E5,3.1193838E6,1.8778268E6,3.6270728E6,5.647374E5,2.3133315E6,8.60713E6,2.0681722E6,3.2350132E6,1.4434086E6,4.184482E6,2.7837315E6,4.1349356E5,1.6488825E6,1.0743305E6,2.8902985E6,1.4138361E6,3.0490118E6],"categories":[],"categories_nodes":[],"categories_segments":[],"categories_sizes":[],"default_left":[1,1,1,1,0,1,1,1,0,1,1,1,0,1,1,0,0,0,1,0,1,0,0,0,0,0,0,1,1,0,1,0,0,0,1,0,0],"id":44,"left_children":[1,3,5,7,-1,9,11,13,-1,15,17,19,-1,21,23,-1,-1,-1,25,-1,27,-1,-1,-1,-1,-1,-1,29,31,-1,33,-1,-1,-1,35,-1,-1],"loss_changes":[2.8592201E13,2.8235048E12,2.847805E13,1.2296357E12,0E0,4.4657023E13,3.590492E12,8.656708E11,0E0,2.289872E12,2.6232754E13,3.3176274E12,0E0,3.8948978E12,7.1533016E11,0E0,0E0,0E0,8.101919E12,0E0,1.9194813E12,0E0,0E0,0E0,0E0,0E0,0E0,1.6343693E12,1.6468043E11,0E0,1.2668476E12,0E0,0E0,0E0,8.445483E11,0E0,0E0],"parents":[2147483647,0,0,1,1,2,2,3,3,5,5,6,6,7,7,9,9,10,10,11,11,13,13,14,14,18,18,20,20,27,27,28,28,30,30,34,34],"right_children":[2,4,6,8,-1,10,12,14,-1,16,18,20,-1,22,24,-1,-1,-1,26,-1,28,-1,-1,-1,-1,-1,-1,30,32,-1,34,-1,-1,-1,36,-1,-1],"split_conditions":[4.75E0,2.5E0,2.25E0,7.638709E18,1.2803167E4,3.5E0,2.25E1,4.5E0,1.3375193E4,8.950819E17,-7.3977094E17,3.5E0,5.0428516E3,1.5E0,3.5E0,3.3088586E4,1.1265935E4,1.0508323E4,4.5E0,5.5386025E3,8.3202524E18,1.8778268E4,3.6270727E4,5.6473735E3,2.3133314E4,8.60713E4,2.0681723E4,2.5E0,8.452114E18,4.184482E4,2.5E0,4.1349355E3,1.6488824E4,1.0743305E4,4.5E0,1.4138361E4,3.0490117E4],"split_indices":[5,25,32,0,0,9,33,11,0,0,0,15,0,9,15,0,0,0,26,0,0,0,0,0,0,0,0,9,0,0,23,0,0,0,12,0,0],"split_type":[0,0,0,0,0,0,0,0,0,0,0,0,0,0,0,0,0,0,0,0,0,0,0,0,0,0,0,0,0,0,0,0,0,0,0,0,0],"sum_hessian":[1.03E2,5.3E1,5E1,4.8E1,5E0,1.5E1,3.5E1,4.4E1,4E0,9E0,6E0,3.4E1,1E0,1.6E1,2.8E1,7E0,2E0,1E0,5E0,1E0,3.3E1,6E0,1E1,1E0,2.7E1,4E0,1E0,3E1,3E0,7E0,2.3E1,1E0,2E0,2E0,2.1E1,3E0,1.8E1],"tree_param":{"num_deleted":"0","num_feature":"41","num_nodes":"37","size_leaf_vector":"0"}},{"base_weights":[2.92302E6,1.7823005E6,3.1465185E6,3.3721612E6,1.5211415E6,6.668391E6,3.03072E6,1.2284211E6,2.3117378E6,3.198169E6,2.2018535E6,2.5943682E6,3.5766972E6,8.7270594E5,2.5192738E6,7.1710155E6,3.2085012E6,1.7226575E5,1.00474956E6,2.6869155E6,1.00894956E6,3.378291E6,1.3782725E6,2.909215E6,4.8389925E6,3.0815102E6,1.0619928E6,9.661112E5,5.323454E6],"categories":[],"categories_nodes":[],"categories_segments":[],"categories_sizes":[],"default_left":[1,1,1,0,1,0,1,0,0,1,1,0,1,1,1,0,1,0,0,0,0,1,0,1,1,0,0,0,0],"id":45,"left_children":[1,3,5,-1,7,-1,9,-1,-1,11,13,-1,15,17,19,-1,21,-1,-1,-1,-1,23,-1,25,27,-1,-1,-1,-1],"loss_changes":[2.192648E13,3.1745974E12,1.6086599E13,0E0,1.557257E12,0E0,5.171879E12,0E0,0E0,6.948116E12,5.395586E12,0E0,3.125176E13,2.8935927E11,8.3374375E11,0E0,7.4632103E12,0E0,0E0,0E0,0E0,9.903624E12,0E0,5.9572203E12,7.99077E12,0E0,0E0,0E0,0E0],"parents":[2147483647,0,0,1,1,2,2,4,4,6,6,9,9,10,10,12,12,13,13,14,14,16,16,21,21,23,23,24,24],"right_children":[2,4,6,-1,8,-1,10,-1,-1,12,14,-1,16,18,20,-1,22,-1,-1,-1,-1,24,-1,26,28,-1,-1,-1,-1],"split_conditions":[1.5E0,1.5E0,5E-1,3.3721613E4,1.5E0,6.668391E4,2.5E0,1.2284211E4,2.3117377E4,4.5E0,3.5E0,2.5943682E4,1.5E0,3.5E0,5E0,7.171016E4,1.5E1,1.7226575E3,1.0047495E4,2.6869154E4,1.0089495E4,3.5E0,1.3782725E4,4.5E0,1.5E0,3.0815102E4,1.0619928E4,9.661111E3,5.323454E4],"split_indices":[31,32,32,0,17,0,8,0,0,5,8,0,22,6,36,0,37,0,0,0,0,17,0,29,24,0,0,0,0],"split_type":[0,0,0,0,0,0,0,0,0,0,0,0,0,0,0,0,0,0,0,0,0,0,0,0,0,0,0,0,0],"sum_hessian":[1.07E2,1.9E1,8.8E1,1E0,1.8E1,1E0,8.7E1,1.5E1,3E0,7E1,1.7E1,3E1,4E1,4E0,1.3E1,2E0,3.8E1,1E0,3E0,1.1E1,2E0,3.4E1,4E0,2.8E1,6E0,2.5E1,3E0,1E0,5E0],"tree_param":{"num_deleted":"0","num_feature":"41","num_nodes":"29","size_leaf_vector":"0"}},{"base_weights":[2.9364888E6,1.8172372E6,3.235558E6,2.3324815E6,1.4138351E6,3.4127102E6,1.4588326E6,3.6707472E6,2.1874535E6,4.05284E5,1.5398656E6,3.8799745E6,1.5920952E6,1.0550982E6,2.6481215E6,3.1847072E6,5.720799E6,1.2562925E6,4.3514E5,7.093851E5,2.784716E6,8.564227E5,3.284711E6,6.456939E6,2.450249E6,1.1931541E6,3.3677655E6,2.534689E6,7.120665E6,2.100955E6,3.6011005E6],"categories":[],"categories_nodes":[],"categories_segments":[],"categories_sizes":[],"default_left":[1,1,1,0,0,1,1,1,1,0,0,1,0,1,1,1,1,0,0,0,0,0,1,1,0,0,1,0,0,0,0],"id":46,"left_children":[1,3,5,-1,-1,7,9,11,13,-1,-1,15,-1,17,19,21,23,-1,-1,-1,-1,-1,25,27,-1,-1,29,-1,-1,-1,-1],"loss_changes":[2.8597838E13,1.6906652E12,2.0201513E13,0E0,0E0,1.473402E13,1.4426938E11,1.9047509E13,5.0305643E12,0E0,0E0,4.833395E13,0E0,2.0172872E11,6.7277056E11,6.500366E12,1.5477452E13,0E0,0E0,0E0,0E0,0E0,2.5828188E12,7.9843106E12,0E0,0E0,3.075532E12,0E0,0E0,0E0,0E0],"parents":[2147483647,0,0,1,1,2,2,5,5,6,6,7,7,8,8,11,11,13,13,14,14,15,15,16,16,22,22,23,23,26,26],"right_children":[2,4,6,-1,-1,8,10,12,14,-1,-1,16,-1,18,20,22,24,-1,-1,-1,-1,-1,26,28,-1,-1,30,-1,-1,-1,-1],"split_conditions":[3.5E0,-5.062744E18,8.2700273E18,2.3324814E4,1.4138351E4,2.5E0,3.5E0,4E0,3.5E0,4.0528398E3,1.5398656E4,3.5E0,1.5920952E4,-1.4706136E17,2.75E0,2.5E0,4.5E0,1.2562925E4,4.3514E3,7.093851E3,2.784716E4,8.564227E3,-8.278094E18,2.5E0,2.450249E4,1.1931541E4,1.5E0,2.5346889E4,7.120665E4,2.1009549E4,3.6011004E4],"split_indices":[5,0,0,0,0,8,7,32,8,0,0,9,0,0,31,6,6,0,0,0,0,0,0,4,0,0,32,0,0,0,0],"split_type":[0,0,0,0,0,0,0,0,0,0,0,0,0,0,0,0,0,0,0,0,0,0,0,0,0,0,0,0,0,0,0],"sum_hessian":[1.02E2,2.3E1,7.9E1,8E0,1.5E1,7.1E1,8E0,5.7E1,1.4E1,1E0,7E0,5.1E1,6E0,5E0,9E0,3.9E1,1.2E1,3E0,2E0,1E0,8E0,2E0,3.7E1,9E0,3E0,2E0,3.5E1,2E0,7E0,7E0,2.8E1],"tree_param":{"num_deleted":"0","num_feature":"41","num_nodes":"31","size_leaf_vector":"0"}},{"base_weights":[2.8285262E6,2.0792449E6,3.070842E6,2.1258682E6,3.8689616E5,2.824131E6,3.850339E6,8.98406E5,2.1857342E6,1.1649624E6,2.9470772E6,7.009427E6,2.582132E6,2.304269E6,1.227035E6,1.4659799E6,-1.7006238E5,5.6203606E5,2.97906E6,2.6830195E6,6.857399E5,9.785109E5,2.3879192E6,1.1851998E6,3.022742E6,2.799748E6,6.9950394E5,3.8234035E6,2.7103852E6,4.1717382E6,1.2717081E6,1.3361662E6,2.8560412E6,4.360077E6,1.1441751E6,1.6716405E6,2.9848402E6],"categories":[],"categories_nodes":[],"categories_segments":[],"categories_sizes":[],"default_left":[1,1,1,1,0,1,1,0,1,1,1,0,1,1,0,0,0,0,1,1,0,0,0,0,1,0,0,1,1,1,0,0,1,0,0,0,0],"id":47,"left_children":[1,3,5,7,-1,9,11,-1,13,15,17,-1,19,21,-1,-1,-1,-1,23,25,-1,-1,-1,-1,27,-1,-1,29,31,33,-1,-1,35,-1,-1,-1,-1],"loss_changes":[1.2860608E13,1.4656995E12,4.1263227E12,9.385175E10,0E0,9.418058E12,4.6002774E13,0E0,1.2719646E11,2.660502E12,2.7498528E12,0E0,6.473405E11,1.03196656E11,0E0,0E0,0E0,0E0,8.8395796E11,8.1996127E11,0E0,0E0,0E0,0E0,3.3921853E12,0E0,0E0,6.249748E12,4.790868E12,1.2835745E12,0E0,0E0,8.072861E11,0E0,0E0,0E0,0E0],"parents":[2147483647,0,0,1,1,2,2,3,3,5,5,6,6,8,8,9,9,10,10,12,12,13,13,18,18,19,19,24,24,27,27,28,28,29,29,32,32],"right_children":[2,4,6,8,-1,10,12,-1,14,16,18,-1,20,22,-1,-1,-1,-1,24,26,-1,-1,-1,-1,28,-1,-1,30,32,34,-1,-1,36,-1,-1,-1,-1],"split_conditions":[3.5E0,7.450431E18,4.5E0,2.5E0,3.8689614E3,3.5E0,4.5E0,8.98406E3,2.9208584E18,9.540596E17,3.5E0,7.0094266E4,1.35E1,-7.2088534E18,1.227035E4,1.4659799E4,-1.7006237E3,5.6203604E3,-8.5762506E18,7.8337614E18,6.8573984E3,9.785108E3,2.3879191E4,1.1851997E4,-4.860029E18,2.7997479E4,6.995039E3,4.5E0,1.5E0,4.5E0,1.2717081E4,1.3361662E4,-2.7292468E18,4.360077E4,1.1441751E4,1.6716404E4,2.9848402E4],"split_indices":[5,1,24,32,0,15,13,0,0,0,11,0,19,1,0,0,0,0,0,0,0,0,0,0,0,0,0,31,31,6,0,0,0,0,0,0,0],"split_type":[0,0,0,0,0,0,0,0,0,0,0,0,0,0,0,0,0,0,0,0,0,0,0,0,0,0,0,0,0,0,0,0,0,0,0,0,0],"sum_hessian":[1.05E2,2.8E1,7.7E1,2.7E1,1E0,6.2E1,1.5E1,2E0,2.5E1,5E0,5.7E1,3E0,1.2E1,2.1E1,4E0,4E0,1E0,1E0,5.6E1,1.1E1,1E0,2E0,1.9E1,2E0,5.4E1,1E1,1E0,1.2E1,4.2E1,1E1,2E0,5E0,3.7E1,9E0,1E0,5E0,3.2E1],"tree_param":{"num_deleted":"0","num_feature":"41","num_nodes":"37","size_leaf_vector":"0"}},{"base_weights":[2.8644055E6,2.1979782E6,3.274624E6,6.2562094E5,2.26427E6,2.5778248E6,3.9291295E6,6.213715E5,2.291879E6,1.7072828E6,3.1117008E6,2.5286178E6,5.5857605E6,2.3390275E6,9.7785356E5,7.690511E5,1.8932504E6,3.7543262E6,1.5655281E6,2.7078078E6,-1.6921206E5,2.1043675E6,6.288157E5,3.9657675E5,2.8354515E6,3.0685435E6,1.4273119E6,3.809853E6,1.9947721E6,4.1261238E5,2.1896968E6],"categories":[],"categories_nodes":[],"categories_segments":[],"categories_sizes":[],"default_left":[1,1,1,0,1,1,1,0,1,1,1,1,0,0,0,0,1,0,0,1,0,0,0,0,1,1,0,0,1,0,0],"id":48,"left_children":[1,3,5,-1,7,9,11,-1,13,15,17,19,-1,-1,-1,-1,21,-1,-1,23,-1,-1,-1,-1,25,27,-1,-1,29,-1,-1],"loss_changes":[1.932044E13,2.7528056E12,1.6322755E13,0E0,2.9952364E11,9.095046E12,5.0839427E13,0E0,5.066719E9,9.867268E11,1.200747E13,8.676413E12,0E0,0E0,0E0,0E0,1.6131209E12,0E0,0E0,3.5957517E12,0E0,0E0,0E0,0E0,5.4363213E11,1.9521717E12,0E0,0E0,1.2553153E12,0E0,0E0],"parents":[2147483647,0,0,1,1,2,2,4,4,5,5,6,6,8,8,9,9,10,10,11,11,16,16,19,19,24,24,25,25,28,28],"right_children":[2,4,6,-1,8,10,12,-1,14,16,18,20,-1,-1,-1,-1,22,-1,-1,24,-1,-1,-1,-1,26,28,-1,-1,30,-1,-1],"split_conditions":[1.362887E18,-8.27075E18,-3.4706513E18,6.2562095E3,3E0,1.5E0,3.5E0,6.213715E3,4.5E0,2.5E0,7.5E0,4.5E0,5.5857605E4,2.3390275E4,9.778535E3,7.690511E3,2.5E0,3.754326E4,1.5655281E4,3.5E0,-1.6921206E3,2.1043674E4,6.2881567E3,3.9657673E3,3.5E0,4.5E0,1.4273118E4,3.8098527E4,2.5E0,4.1261235E3,2.1896967E4],"split_indices":[2,1,3,0,11,20,9,0,17,9,4,4,0,0,0,0,18,0,0,7,0,0,0,0,31,11,0,0,32,0,0],"split_type":[0,0,0,0,0,0,0,0,0,0,0,0,0,0,0,0,0,0,0,0,0,0,0,0,0,0,0,0,0,0,0],"sum_hessian":[9.6E1,3.9E1,5.7E1,2E0,3.7E1,3E1,2.7E1,1E0,3.6E1,1.3E1,1.7E1,1.6E1,1.1E1,3.4E1,2E0,3E0,1E1,1.1E1,6E0,1.5E1,1E0,8E0,2E0,1E0,1.4E1,1.1E1,3E0,5E0,6E0,1E0,5E0],"tree_param":{"num_deleted":"0","num_feature":"41","num_nodes":"31","size_leaf_vector":"0"}},{"base_weights":[2.7404375E6,1.400399E6,2.9334508E6,1.5611824E6,2.9046584E5,3.2085192E6,2.024919E6,4.930663E5,1.725499E6,4.1104875E4,3.9459388E5,3.9352742E6,2.710422E6,1.2350788E6,2.3880362E6,3.2651938E6,6.3018585E6,1.9718724E6,3.170573E6,1.4468982E6,6.085799E5,6.921612E5,2.465245E6,3.5567932E6,1.9919959E6,8.1719575E6,2.9545062E6,4.136702E5,2.0391979E6,3.562105E6,1.467548E6,7.271893E5,1.2637575E5,3.6705508E6,9.820928E5,2.1996605E6,4.7683612E5,2.1091352E6,4.600993E5,2.318202E6,4.827208E6,4.105493E5,2.4679125E6],"categories":[],"categories_nodes":[],"categories_segments":[],"categories_sizes":[],"default_left":[1,1,1,1,1,1,1,0,0,0,0,1,1,1,1,1,1,1,1,0,1,0,0,1,1,0,0,0,1,1,0,0,0,0,0,0,0,0,0,1,0,0,0],"id":49,"left_children":[1,3,5,7,9,11,13,-1,-1,-1,-1,15,17,19,21,23,25,27,29,-1,31,-1,-1,33,35,-1,-1,-1,37,39,-1,-1,-1,-1,-1,-1,-1,-1,-1,41,-1,-1,-1],"loss_changes":[2.0721942E13,2.0449518E12,1.42454E13,1.2553258E12,6.1676683E10,1.1777404E13,3.3602918E12,0E0,0E0,0E0,0E0,1.5896681E13,7.3418104E12,3.1378847E11,1.26760255E11,3.4015805E11,8.954336E11,1.0447634E12,1.0108591E13,0E0,1.3687692E11,0E0,0E0,7.885459E11,8.389929E11,0E0,0E0,0E0,9.07035E11,1.7135544E13,0E0,0E0,0E0,0E0,0E0,0E0,0E0,0E0,0E0,2.1283492E12,0E0,0E0,0E0],"parents":[2147483647,0,0,1,1,2,2,3,3,4,4,5,5,6,6,11,11,12,12,13,13,14,14,15,15,16,16,17,17,18,18,20,20,23,23,24,24,28,28,29,29,39,39],"right_children":[2,4,6,8,10,12,14,-1,-1,-1,-1,16,18,20,22,24,26,28,30,-1,32,-1,-1,34,36,-1,-1,-1,38,40,-1,-1,-1,-1,-1,-1,-1,-1,-1,42,-1,-1,-1],"split_conditions":[1.5E0,4.56917E18,4.5E0,1.5E0,7.085544E18,4.5E0,2.5E0,4.930663E3,1.725499E4,4.1104874E2,3.9459387E3,4.5E0,2.5E0,4.5E0,4.5E0,2.5E0,2.5E0,2.5E0,7E0,1.4468982E4,-5.041564E18,6.921612E3,2.465245E4,4.5E0,2.6193182E18,8.171957E4,2.9545062E4,4.1367017E3,2.5E0,1.5E0,1.46754795E4,7.271893E3,1.2637574E3,3.6705508E4,9.820928E3,2.1996605E4,4.7683613E3,2.1091352E4,4.600993E3,1.5E0,4.827208E4,4.105493E3,2.4679125E4],"split_indices":[31,1,14,9,1,11,24,0,0,0,0,9,31,22,22,9,32,32,23,0,3,0,0,18,1,0,0,0,18,8,0,0,0,0,0,0,0,0,0,23,0,0,0],"split_type":[0,0,0,0,0,0,0,0,0,0,0,0,0,0,0,0,0,0,0,0,0,0,0,0,0,0,0,0,0,0,0,0,0,0,0,0,0,0,0,0,0,0,0],"sum_hessian":[9.5E1,1.3E1,8.2E1,1.1E1,2E0,6.1E1,2.1E1,2E0,9E0,1E0,1E0,2.2E1,3.9E1,8E0,1.3E1,1.9E1,3E0,1.7E1,2.2E1,5E0,3E0,1E0,1.2E1,1.4E1,5E0,1E0,2E0,1E0,1.6E1,1.7E1,5E0,2E0,1E0,1.3E1,1E0,4E0,1E0,1.5E1,1E0,1E1,7E0,1E0,9E0],"tree_param":{"num_deleted":"0","num_feature":"41","num_nodes":"43","size_leaf_vector":"0"}},{"base_weights":[2.7075658E6,1.5844811E6,2.9441598E6,2.7546758E6,1.1667971E6,3.2842122E6,2.366532E6,1.2911822E6,6.5979056E5,6.524144E6,3.0571405E6,1.7006148E6,3.0536735E6,4.0899375E4,8.042885E5,1.5783165E6,3.1683452E6,4.0849656E5,1.7525925E6,3.1826175E6,6.887004E5,6.380447E5,1.9924829E6,3.244433E6,1.1738145E6,2.0182581E6,1.0847476E6,4.7445194E5,2.1251935E6,1.2236244E6,1.25743875E5],"categories":[],"categories_nodes":[],"categories_segments":[],"categories_sizes":[],"default_left":[1,1,1,0,1,1,1,0,1,0,1,1,1,0,0,1,1,0,1,0,0,0,0,0,0,1,1,0,0,0,0],"id":50,"left_children":[1,3,5,-1,7,9,11,-1,13,-1,15,17,19,-1,-1,21,23,-1,25,-1,-1,-1,-1,-1,-1,27,29,-1,-1,-1,-1],"loss_changes":[1.9515123E13,5.5837385E12,6.763164E12,0E0,9.4050976E10,1.2425407E13,8.991833E12,0E0,4.1424755E11,0E0,2.0707782E12,4.9297752E11,2.0774136E12,0E0,0E0,6.758513E11,2.1102718E12,0E0,8.2689864E11,0E0,0E0,0E0,0E0,0E0,0E0,8.076594E11,7.784188E11,0E0,0E0,0E0,0E0],"parents":[2147483647,0,0,1,1,2,2,4,4,5,5,6,6,8,8,10,10,11,11,12,12,15,15,16,16,18,18,25,25,26,26],"right_children":[2,4,6,-1,8,10,12,-1,14,-1,16,18,20,-1,-1,22,24,-1,26,-1,-1,-1,-1,-1,-1,28,30,-1,-1,-1,-1],"split_conditions":[1.5E0,-5.7423204E18,2.782488E18,2.7546758E4,4.56917E18,5E-1,5.347983E18,1.2911822E4,6.075723E18,6.5241438E4,-7.6938194E18,-5.560351E18,8.3253954E18,4.0899374E2,8.042885E3,8E0,8.5336385E18,4.0849656E3,2.5E0,3.1826174E4,6.8870034E3,6.380447E3,1.9924828E4,3.244433E4,1.1738145E4,3E0,7.716596E17,4.744519E3,2.1251934E4,1.2236243E4,1.2574387E3],"split_indices":[31,0,1,0,1,32,1,0,1,0,0,0,0,0,0,4,0,0,25,0,0,0,0,0,0,15,0,0,0,0,0],"split_type":[0,0,0,0,0,0,0,0,0,0,0,0,0,0,0,0,0,0,0,0,0,0,0,0,0,0,0,0,0,0,0],"sum_hessian":[9E1,1.7E1,7.3E1,3E0,1.4E1,4.3E1,3E1,1E1,4E0,1E0,4.2E1,1.7E1,1.3E1,1E0,3E0,4E0,3.8E1,1E0,1.6E1,1.2E1,1E0,2E0,2E0,3.6E1,2E0,1E1,6E0,1E0,9E0,5E0,1E0],"tree_param":{"num_deleted":"0","num_feature":"41","num_nodes":"31","size_leaf_vector":"0"}},{"base_weights":[2.6372442E6,2.2468558E6,3.3455418E6,2.3054065E6,3.0737138E5,5.4357105E6,2.626473E6,2.4472235E6,1.4383098E6,6.63998E5,-2.0294094E5,3.0001452E6,7.683082E6,6.852569E5,2.6788045E6,2.038192E6,2.7910885E6,1.5044208E6,3.8859947E5,3.7470175E6,1.2532245E6,7.4150325E5,2.7307958E6,1.1056602E6,2.3726442E6,3.062866E6,1.0914048E6,9.3957375E5,2.692158E6,1.6430148E6,3.5212722E6,1.3016984E6,1.25115125E5,6.3379106E5,1.919946E6,3.7334085E6,1.4282576E6],"categories":[],"categories_nodes":[],"categories_segments":[],"categories_sizes":[],"default_left":[1,1,1,1,1,1,1,1,1,0,0,1,0,0,1,1,1,0,0,0,0,0,0,0,1,1,1,0,0,1,1,0,0,0,0,0,0],"id":51,"left_children":[1,3,5,7,9,11,13,15,17,-1,-1,19,-1,-1,21,23,25,-1,-1,-1,-1,-1,-1,-1,27,29,31,-1,-1,33,35,-1,-1,-1,-1,-1,-1],"loss_changes":[1.8198649E13,6.4455715E12,3.2315468E13,3.9812334E12,6.807252E11,1.5264968E13,7.0400554E11,1.4844816E12,1.7875495E11,0E0,0E0,1.8277812E12,0E0,0E0,3.9245264E11,5.797627E12,8.2055686E12,0E0,0E0,0E0,0E0,0E0,0E0,0E0,6.1703497E12,7.8827414E12,8.531602E11,0E0,0E0,7.3955436E11,1.3277992E12,0E0,0E0,0E0,0E0,0E0,0E0],"parents":[2147483647,0,0,1,1,2,2,3,3,4,4,5,5,6,6,7,7,8,8,11,11,14,14,15,15,16,16,24,24,25,25,26,26,29,29,30,30],"right_children":[2,4,6,8,10,12,14,16,18,-1,-1,20,-1,-1,22,24,26,-1,-1,-1,-1,-1,-1,-1,28,30,32,-1,-1,34,36,-1,-1,-1,-1,-1,-1],"split_conditions":[3.5E0,4.5E0,4.5E0,4.1244564E18,-8.18137E17,1.20896045E17,3.5E0,1.362887E18,8.6393675E18,6.63998E3,-2.0294093E3,4.5E0,7.683082E4,6.8525684E3,3.75E0,1.5E0,2.5E0,1.5044207E4,3.8859946E3,3.7470176E4,1.2532245E4,7.415032E3,2.7307957E4,1.1056603E4,1.5E0,-7.1777493E18,-1.4706136E17,9.395737E3,2.692158E4,2.6193182E18,4E0,1.3016983E4,1.2511512E3,6.3379106E3,1.9199459E4,3.7334086E4,1.4282576E4],"split_indices":[31,4,26,0,0,0,4,2,1,0,0,25,0,0,5,31,8,0,0,0,0,0,0,0,14,0,0,0,0,1,30,0,0,0,0,0,0],"split_type":[0,0,0,0,0,0,0,0,0,0,0,0,0,0,0,0,0,0,0,0,0,0,0,0,0,0,0,0,0,0,0,0,0,0,0,0,0],"sum_hessian":[9.2E1,6.2E1,3E1,6E1,2E0,6E0,2.4E1,5E1,1E1,1E0,1E0,4E0,2E0,1E0,2.3E1,2.6E1,2.4E1,9E0,1E0,2E0,2E0,1E0,2.2E1,8E0,1.8E1,2E1,4E0,4E0,1.4E1,6E0,1.4E1,3E0,1E0,2E0,4E0,1.2E1,2E0],"tree_param":{"num_deleted":"0","num_feature":"41","num_nodes":"37","size_leaf_vector":"0"}},{"base_weights":[2.819294E6,2.4070935E6,3.5457705E6,1.5902051E6,2.5807348E6,4.276139E6,1.696294E6,2.0095109E6,4.3355244E5,2.604599E6,6.8183056E5,6.484818E6,2.9045408E6,1.9465858E6,7.7163694E5,9.8787275E5,2.5259575E6,1.4156051E6,2.6756708E6,1.412521E6,7.007643E6,3.1046712E6,1.00241756E6,9.458562E5,1.2448956E5,3.5037918E6,1.1610925E6,2.4396402E6,3.6758968E6,2.0261552E6,7.5001985E6,1.4896971E6,3.409692E6,3.935614E6,1.0587962E6,3.5533605E6,9.865034E5],"categories":[],"categories_nodes":[],"categories_segments":[],"categories_sizes":[],"default_left":[1,1,1,1,1,1,1,1,0,1,0,1,1,0,1,0,1,0,1,0,1,1,0,0,0,0,0,0,1,0,0,0,1,0,0,0,0],"id":52,"left_children":[1,3,5,7,9,11,13,15,-1,17,-1,19,21,-1,23,-1,25,-1,27,-1,29,31,-1,-1,-1,-1,-1,-1,33,-1,-1,-1,35,-1,-1,-1,-1],"loss_changes":[2.0512026E13,5.116078E12,3.7322796E13,5.9186495E12,5.805252E11,5.084124E13,1.0437169E12,2.7808949E12,0E0,5.220063E11,0E0,1.131697E13,2.978585E12,0E0,3.33233E11,0E0,3.9394413E12,0E0,2.1280892E12,0E0,1.9790068E12,1.8169977E12,0E0,0E0,0E0,0E0,0E0,0E0,5.909355E11,0E0,0E0,0E0,3.2409387E11,0E0,0E0,0E0,0E0],"parents":[2147483647,0,0,1,1,2,2,3,3,4,4,5,5,6,6,7,7,9,9,11,11,12,12,14,14,16,16,18,18,20,20,21,21,28,28,32,32],"right_children":[2,4,6,8,10,12,14,16,-1,18,-1,20,22,-1,24,-1,26,-1,28,-1,30,32,-1,-1,-1,-1,-1,-1,34,-1,-1,-1,36,-1,-1,-1,-1],"split_conditions":[3.5E0,1.5E0,1.8733879E18,3.6434212E18,8.4389365E18,4.5E0,2.5E0,3.5E0,4.3355244E3,-8.493841E18,6.8183057E3,-1.648856E18,9E0,1.9465857E4,7.716596E17,9.878728E3,4.5E0,1.4156051E4,8.6393675E18,1.412521E4,2.5E0,-2.8445168E18,1.0024176E4,9.458562E3,1.2448956E3,3.5037918E4,1.1610925E4,2.4396402E4,4E0,2.0261553E4,7.5001984E4,1.4896971E4,8.9390867E18,3.935614E4,1.0587962E4,3.5533605E4,9.865033E3],"split_indices":[9,31,1,1,0,11,25,5,0,0,0,0,18,0,0,0,11,0,1,0,4,0,0,0,0,0,0,0,22,0,0,0,0,0,0,0,0],"split_type":[0,0,0,0,0,0,0,0,0,0,0,0,0,0,0,0,0,0,0,0,0,0,0,0,0,0,0,0,0,0,0,0,0,0,0,0,0],"sum_hessian":[9.6E1,6.4E1,3.2E1,1.3E1,5.1E1,2.2E1,1E1,9E0,4E0,5E1,1E0,7E0,1.5E1,7E0,3E0,4E0,5E0,4E0,4.6E1,1E0,6E0,1.3E1,2E0,2E0,1E0,2E0,3E0,4E1,6E0,1E0,5E0,3E0,1E1,5E0,1E0,9E0,1E0],"tree_param":{"num_deleted":"0","num_feature":"41","num_nodes":"37","size_leaf_vector":"0"}},{"base_weights":[2.6413472E6,2.25669E6,3.4743568E6,1.4008982E6,2.3838775E6,5.846574E6,2.9063775E6,1.4628751E6,3.595761E5,2.6368425E6,1.7081605E6,2.1624298E6,7.58186E6,7.280628E5,2.9621565E6,1.5884861E6,5.984171E5,2.7405435E6,1.2798668E6,6.0616306E5,1.9457748E6,7.9495825E5,3.017046E6,4.4481556E5,1.675843E6,1.4042802E6,2.8500092E6,3.2998812E4,7.412044E5,2.2806512E6,1.1894116E6,2.9876918E6,1.663649E6,1.3560056E6,5.1528447E5,3.1271692E6,1.6369742E6,4.8071088E5,1.8040945E6],"categories":[],"categories_nodes":[],"categories_segments":[],"categories_sizes":[],"default_left":[1,1,1,1,1,1,1,1,0,1,1,0,0,0,1,1,0,1,0,1,1,0,0,0,0,0,1,0,0,0,1,1,1,0,0,0,0,0,0],"id":53,"left_children":[1,3,5,7,9,11,13,15,-1,17,19,-1,-1,-1,21,23,-1,25,-1,27,29,-1,-1,-1,-1,-1,31,-1,-1,-1,33,35,37,-1,-1,-1,-1,-1,-1],"loss_changes":[2.548345E13,4.715035E12,2.4776123E13,2.4843911E11,6.2646125E12,1.5569978E13,1.1239896E12,2.4386313E11,0E0,2.6841532E12,4.0575445E12,0E0,0E0,0E0,6.9442575E11,1.5372753E11,0E0,1.8487821E12,0E0,3.6254555E11,1.3399837E12,0E0,0E0,0E0,0E0,0E0,9.097949E11,0E0,0E0,0E0,8.741034E10,7.211351E11,1.2958302E11,0E0,0E0,0E0,0E0,0E0,0E0],"parents":[2147483647,0,0,1,1,2,2,3,3,4,4,5,5,6,6,7,7,9,9,10,10,14,14,15,15,17,17,19,19,20,20,26,26,30,30,31,31,32,32],"right_children":[2,4,6,8,10,12,14,16,-1,18,20,-1,-1,-1,22,24,-1,26,-1,28,30,-1,-1,-1,-1,-1,32,-1,-1,-1,34,36,38,-1,-1,-1,-1,-1,-1],"split_conditions":[3.5E0,2.5E0,4.5E0,6.995603E18,1.6293869E18,4.5E0,3.75E0,1.362887E18,3.5957607E3,4.5E0,2.5596655E18,2.1624297E4,7.58186E4,7.280628E3,3.5E0,-3.5798114E18,5.984171E3,-8.493841E18,1.2798667E4,1.9693303E18,8.2700273E18,7.9495825E3,3.0170459E4,4.448156E3,1.675843E4,1.4042802E4,4.5E0,3.2998813E2,7.4120435E3,2.2806512E4,4.7563636E18,4.5E0,-4.9078356E18,1.3560056E4,5.1528447E3,3.1271691E4,1.6369742E4,4.8071084E3,1.8040945E4],"split_indices":[31,5,13,1,0,14,5,2,0,26,0,0,0,0,11,0,0,0,0,0,0,0,0,0,0,0,14,0,0,0,1,6,0,0,0,0,0,0,0],"split_type":[0,0,0,0,0,0,0,0,0,0,0,0,0,0,0,0,0,0,0,0,0,0,0,0,0,0,0,0,0,0,0,0,0,0,0,0,0,0,0],"sum_hessian":[1.03E2,7.3E1,3E1,1.1E1,6.2E1,4E0,2.6E1,1E1,1E0,4.3E1,1.9E1,2E0,2E0,1E0,2.5E1,8E0,2E0,3.9E1,4E0,4E0,1.5E1,1E0,2.4E1,1E0,7E0,4E0,3.5E1,1E0,3E0,9E0,6E0,3E1,5E0,4E0,2E0,2.6E1,4E0,1E0,4E0],"tree_param":{"num_deleted":"0","num_feature":"41","num_nodes":"39","size_leaf_vector":"0"}},{"base_weights":[2.636439E6,6.3776975E6,2.527633E6,2.3772812E6,3.6667745E6,2.1243905E6,3.1439332E6,3.9708282E6,6.171723E5,1.308524E6,2.2612835E6,8.0430715E6,2.4249218E6,2.4681488E6,1.3871796E6,2.6046168E6,6.582402E5,1.6763588E6,2.68128E6,1.14846625E5,1.4836369E6,1.892524E6,3.2498042E6,1.8705295E6,-2.2976031E5,2.081222E6,3.6921938E6,3.5995294E5,1.9855919E6,1.6057492E6,2.772015E6,3.8664548E6,9.747909E5],"categories":[],"categories_nodes":[],"categories_segments":[],"categories_sizes":[],"default_left":[1,0,1,1,1,1,1,0,0,0,1,0,1,1,1,1,0,1,1,0,0,0,0,1,0,1,1,0,0,0,0,0,0],"id":54,"left_children":[1,-1,3,5,7,9,11,-1,-1,-1,13,-1,15,17,19,21,-1,23,25,-1,-1,-1,-1,27,-1,29,31,-1,-1,-1,-1,-1,-1],"loss_changes":[2.214418E13,0E0,7.2113843E12,9.80078E12,5.8944987E12,4.5240434E12,4.7424375E13,0E0,0E0,0E0,6.702263E12,0E0,3.9998896E12,2.9304428E12,1.4250441E12,1.2006027E12,0E0,4.871126E12,1.233372E13,0E0,0E0,0E0,0E0,1.197197E12,0E0,3.1032649E12,1.4399381E12,0E0,0E0,0E0,0E0,0E0,0E0],"parents":[2147483647,0,0,2,2,3,3,4,4,5,5,6,6,10,10,12,12,13,13,14,14,15,15,17,17,18,18,23,23,25,25,26,26],"right_children":[2,-1,4,6,8,10,12,-1,-1,-1,14,-1,16,18,20,22,-1,24,26,-1,-1,-1,-1,28,-1,30,32,-1,-1,-1,-1,-1,-1],"split_conditions":[5E-1,6.3776973E4,3.5E0,4.5E0,1.35E1,1.5E0,4.5E0,3.970828E4,6.171723E3,1.3085239E4,4.5E0,8.043071E4,3.5E0,2.25E0,3.5E0,-2.1921315E18,6.582402E3,4.5E0,2.5E0,1.1484662E3,1.4836368E4,1.892524E4,3.2498041E4,1.5E0,-2.297603E3,2.5E0,8.612868E18,3.5995293E3,1.9855918E4,1.6057492E4,2.7720148E4,3.8664547E4,9.747908E3],"split_indices":[32,0,20,9,19,31,11,0,0,0,14,0,25,32,6,0,0,4,31,0,0,0,0,14,0,36,0,0,0,0,0,0,0],"split_type":[0,0,0,0,0,0,0,0,0,0,0,0,0,0,0,0,0,0,0,0,0,0,0,0,0,0,0,0,0,0,0,0,0],"sum_hessian":[9.3E1,1E0,9.2E1,8.4E1,8E0,6.6E1,1.8E1,7E0,1E0,1.1E1,5.5E1,1E0,1.7E1,4.3E1,1.2E1,1.5E1,2E0,1.1E1,3.2E1,1E0,1.1E1,9E0,6E0,1E1,1E0,2.2E1,1E1,1E0,9E0,1.5E1,7E0,9E0,1E0],"tree_param":{"num_deleted":"0","num_feature":"41","num_nodes":"33","size_leaf_vector":"0"}},{"base_weights":[2.5184478E6,2.335041E6,3.8072195E6,1.4639724E6,2.5031868E6,4.0937802E6,6.1408644E5,2.6845652E6,9.7579206E5,1.8644806E6,2.7258328E6,2.4132498E6,1.2517998E6,7.119016E5,2.796385E6,1.14272375E5,1.344823E6,2.278063E6,3.3296378E6,1.4805421E6,4.8939122E5,2.316671E6,6.3712756E5,6.4544056E5,3.5782145E6,4.310282E5,1.5578528E6,1.8656646E6,2.8517148E6,4.05144E6,1.8776521E6,4.3611355E6,1.4621782E6],"categories":[],"categories_nodes":[],"categories_segments":[],"categories_sizes":[],"default_left":[1,1,1,1,1,0,0,0,0,1,1,0,1,0,1,0,1,1,1,1,0,1,0,0,1,0,0,0,0,1,0,0,0],"id":55,"left_children":[1,3,5,7,9,-1,-1,-1,-1,11,13,-1,15,-1,17,-1,19,21,23,25,-1,27,-1,-1,29,-1,-1,-1,-1,31,-1,-1,-1],"loss_changes":[1.3092335E13,8.6385885E12,6.6363285E12,6.914333E12,4.7299E12,0E0,0E0,0E0,0E0,4.0397187E12,4.971559E12,0E0,1.1161211E12,0E0,5.4055183E12,0E0,5.5251776E11,2.345287E11,1.1702276E13,5.8770588E10,0E0,9.536673E11,0E0,0E0,7.683059E12,0E0,0E0,0E0,0E0,4.8496053E12,0E0,0E0,0E0],"parents":[2147483647,0,0,1,1,2,2,3,3,4,4,9,9,10,10,12,12,14,14,16,16,17,17,18,18,19,19,21,21,24,24,29,29],"right_children":[2,4,6,8,10,-1,-1,-1,-1,12,14,-1,16,-1,18,-1,20,22,24,26,-1,28,-1,-1,30,-1,-1,-1,-1,32,-1,-1,-1],"split_conditions":[3.5E0,1.5E0,1.35E1,-5.507095E18,2.25E0,4.09378E4,6.1408643E3,2.6845652E4,9.75792E3,2.6193182E18,3.5E0,2.4132496E4,3.5E0,7.119016E3,2.75E0,1.1427238E3,4.5E0,5E0,4.5E0,3E0,4.893912E3,5E-1,6.3712754E3,6.4544053E3,9E0,4.3102817E3,1.5578527E4,1.8656646E4,2.8517146E4,8.3740213E18,1.8776521E4,4.3611355E4,1.4621782E4],"split_indices":[20,31,17,0,32,0,0,0,0,1,11,0,6,0,31,0,11,4,13,15,0,17,0,0,11,0,0,0,0,0,0,0,0],"split_type":[0,0,0,0,0,0,0,0,0,0,0,0,0,0,0,0,0,0,0,0,0,0,0,0,0,0,0,0,0,0,0,0,0],"sum_hessian":[9.2E1,8.3E1,9E0,1.5E1,6.8E1,8E0,1E0,3E0,1.2E1,2E1,4.8E1,9E0,1.1E1,2E0,4.6E1,1E0,1E1,2.6E1,2E1,8E0,2E0,2.5E1,1E0,2E0,1.8E1,1E0,7E0,1.6E1,9E0,1.3E1,5E0,1.1E1,2E0],"tree_param":{"num_deleted":"0","num_feature":"41","num_nodes":"33","size_leaf_vector":"0"}},{"base_weights":[2.4935945E6,2.3261215E6,3.9470828E6,1.604585E6,2.4552125E6,1.842959E6,3.6912978E5,1.3340258E6,2.5658715E6,3.209758E6,1.4909161E6,2.141225E4,4.7789822E5,-2.4067775E5,1.5609485E6,2.6115918E6,6.8949375E5,1.5460908E6,4.144105E5,1.6614059E6,4.2887306E5,2.6300948E6,6.951986E5,4.3116994E5,1.6082499E6],